{"learner":{"attributes":{"scikit_learn":"{\"_estimator_type\": \"classifier\"}"},"feature_names":["EmissionReduction_Diff_total","CostInvestmentNeeded_Diff","TimelineForImplementation_Diff","weighted_risk_score_Diff","CoBenefits_Diff_total"],"feature_types":["float","int","int","float","int"],"gradient_booster":{"model":{"gbtree_model_param":{"num_parallel_tree":"1","num_trees":"500"},"iteration_indptr":[0,1,2,3,4,5,6,7,8,9,10,11,12,13,14,15,16,17,18,19,20,21,22,23,24,25,26,27,28,29,30,31,32,33,34,35,36,37,38,39,40,41,42,43,44,45,46,47,48,49,50,51,52,53,54,55,56,57,58,59,60,61,62,63,64,65,66,67,68,69,70,71,72,73,74,75,76,77,78,79,80,81,82,83,84,85,86,87,88,89,90,91,92,93,94,95,96,97,98,99,100,101,102,103,104,105,106,107,108,109,110,111,112,113,114,115,116,117,118,119,120,121,122,123,124,125,126,127,128,129,130,131,132,133,134,135,136,137,138,139,140,141,142,143,144,145,146,147,148,149,150,151,152,153,154,155,156,157,158,159,160,161,162,163,164,165,166,167,168,169,170,171,172,173,174,175,176,177,178,179,180,181,182,183,184,185,186,187,188,189,190,191,192,193,194,195,196,197,198,199,200,201,202,203,204,205,206,207,208,209,210,211,212,213,214,215,216,217,218,219,220,221,222,223,224,225,226,227,228,229,230,231,232,233,234,235,236,237,238,239,240,241,242,243,244,245,246,247,248,249,250,251,252,253,254,255,256,257,258,259,260,261,262,263,264,265,266,267,268,269,270,271,272,273,274,275,276,277,278,279,280,281,282,283,284,285,286,287,288,289,290,291,292,293,294,295,296,297,298,299,300,301,302,303,304,305,306,307,308,309,310,311,312,313,314,315,316,317,318,319,320,321,322,323,324,325,326,327,328,329,330,331,332,333,334,335,336,337,338,339,340,341,342,343,344,345,346,347,348,349,350,351,352,353,354,355,356,357,358,359,360,361,362,363,364,365,366,367,368,369,370,371,372,373,374,375,376,377,378,379,380,381,382,383,384,385,386,387,388,389,390,391,392,393,394,395,396,397,398,399,400,401,402,403,404,405,406,407,408,409,410,411,412,413,414,415,416,417,418,419,420,421,422,423,424,425,426,427,428,429,430,431,432,433,434,435,436,437,438,439,440,441,442,443,444,445,446,447,448,449,450,451,452,453,454,455,456,457,458,459,460,461,462,463,464,465,466,467,468,469,470,471,472,473,474,475,476,477,478,479,480,481,482,483,484,485,486,487,488,489,490,491,492,493,494,495,496,497,498,499,500],"tree_info":[0,0,0,0,0,0,0,0,0,0,0,0,0,0,0,0,0,0,0,0,0,0,0,0,0,0,0,0,0,0,0,0,0,0,0,0,0,0,0,0,0,0,0,0,0,0,0,0,0,0,0,0,0,0,0,0,0,0,0,0,0,0,0,0,0,0,0,0,0,0,0,0,0,0,0,0,0,0,0,0,0,0,0,0,0,0,0,0,0,0,0,0,0,0,0,0,0,0,0,0,0,0,0,0,0,0,0,0,0,0,0,0,0,0,0,0,0,0,0,0,0,0,0,0,0,0,0,0,0,0,0,0,0,0,0,0,0,0,0,0,0,0,0,0,0,0,0,0,0,0,0,0,0,0,0,0,0,0,0,0,0,0,0,0,0,0,0,0,0,0,0,0,0,0,0,0,0,0,0,0,0,0,0,0,0,0,0,0,0,0,0,0,0,0,0,0,0,0,0,0,0,0,0,0,0,0,0,0,0,0,0,0,0,0,0,0,0,0,0,0,0,0,0,0,0,0,0,0,0,0,0,0,0,0,0,0,0,0,0,0,0,0,0,0,0,0,0,0,0,0,0,0,0,0,0,0,0,0,0,0,0,0,0,0,0,0,0,0,0,0,0,0,0,0,0,0,0,0,0,0,0,0,0,0,0,0,0,0,0,0,0,0,0,0,0,0,0,0,0,0,0,0,0,0,0,0,0,0,0,0,0,0,0,0,0,0,0,0,0,0,0,0,0,0,0,0,0,0,0,0,0,0,0,0,0,0,0,0,0,0,0,0,0,0,0,0,0,0,0,0,0,0,0,0,0,0,0,0,0,0,0,0,0,0,0,0,0,0,0,0,0,0,0,0,0,0,0,0,0,0,0,0,0,0,0,0,0,0,0,0,0,0,0,0,0,0,0,0,0,0,0,0,0,0,0,0,0,0,0,0,0,0,0,0,0,0,0,0,0,0,0,0,0,0,0,0,0,0,0,0,0,0,0,0,0,0,0,0,0,0,0,0,0,0,0,0,0,0,0,0,0,0,0,0,0,0,0,0,0,0,0,0,0,0,0,0,0,0,0,0,0,0,0,0,0,0,0,0,0,0,0,0,0,0,0,0,0,0,0,0,0,0,0,0,0,0,0,0,0,0],"trees":[{"base_weights":[-4.3243244E-2,-3.6760125E-1,5.531915E-1,-7.260579E-1,-4.6692606E-2,9.279512E-2,9.429429E-1,-1.0254545E0,-3.8637525E-1,-3.8637525E-1,8.1743866E-2,9.279512E-2,3.797706E-2,5.3932583E-1,1.3806452E0,-1.4556212E0,-7.0591486E-1,-5.176709E-2,-3.8637525E-1,-3.8637525E-1,-1.5231569E-1,-1.5231569E-1,9.279512E-2,6.804975E-3,3.0533206E-1,5.17869E-1,9.599855E-1,9.655172E-1,1.5876288E0,-1.7142857E0,-1.3758866E0,-6.285714E-2,-7.0591486E-1,-5.461451E-1,-2.8334184E-2,-2.8334184E-2,-1.9752E-2,-2.6934546E-1,-1.1169817E-2,-1.1169817E-2,-2.1824208E-3,-2.9760286E-2,6.804975E-3,1.4597997E-2,2.2391018E-2,3.797706E-2,6.4285713E-1,7.3892725E-1,9.599855E-1,7.0398934E-2,8.8E-2,1.0895238E-1,1.7037038E0,-1.2941176E-1,-1.13306314E-1,-1.5450861E0,-1.2941177E0,-5.176709E-2,-5.176709E-2,-4.0050637E-2,-4.6626016E-1,-1.9752E-2,-1.54609075E-2,-2.9760286E-2,2.3112772E-3,4.2559955E-2,5.4187994E-2,5.4187994E-2,6.2293466E-2,6.2293466E-2,7.0398934E-2,1.1694533E-1,1.3037036E-1,-1.13306314E-1,-1.0410414E-1,-9.857923E-2,-8.597701E-2,-3.7121527E-2,-3.419241E-2,-2.1824208E-3,-0E0],"categories":[],"categories_nodes":[],"categories_segments":[],"categories_sizes":[],"default_left":[0,0,0,0,0,0,0,0,0,0,0,0,0,0,0,0,0,0,0,0,0,0,0,0,0,0,0,0,0,0,0,0,0,0,0,0,0,0,0,0,0,0,0,0,0,0,0,0,0,0,0,0,0,0,0,0,0,0,0,0,0,0,0,0,0,0,0,0,0,0,0,0,0,0,0,0,0,0,0,0,0],"id":0,"left_children":[1,3,5,7,9,11,13,15,17,19,21,23,-1,25,27,29,31,-1,33,35,37,39,41,-1,43,45,47,49,51,53,55,-1,57,59,-1,-1,-1,61,-1,-1,-1,63,-1,-1,-1,-1,65,67,69,-1,-1,-1,71,-1,-1,73,75,-1,-1,-1,77,-1,-1,79,-1,-1,-1,-1,-1,-1,-1,-1,-1,-1,-1,-1,-1,-1,-1,-1,-1],"loss_changes":[7.314911E1,2.7731468E1,3.3552094E1,1.57259445E1,6.8944035E0,5.6461263E0,1.4741371E1,1.7587585E1,2.321608E0,9.1882515E-1,2.51381E0,1.2772119E0,0E0,5.0719614E0,3.1214294E0,1.0503235E0,4.2252254E-1,0E0,1.2320783E0,5.5633068E-2,5.2946436E-1,1.8392003E-1,1.2035933E0,0E0,5.3601265E-2,4.6868467E-1,3.6366463E-1,6.8454933E-1,3.0104065E-1,1.05428696E-1,7.0111847E-1,0E0,1.4305115E-6,2.8703022E-1,0E0,0E0,0E0,2.8097391E-2,0E0,0E0,0E0,4.2827094E-1,0E0,0E0,0E0,0E0,5.658679E-1,3.9983106E-1,1.8405914E-2,0E0,0E0,0E0,2.1877289E-1,0E0,0E0,8.8573456E-2,1.09996796E-1,0E0,0E0,0E0,1.339376E-1,0E0,0E0,7.5019896E-2,0E0,0E0,0E0,0E0,0E0,0E0,0E0,0E0,0E0,0E0,0E0,0E0,0E0,0E0,0E0,0E0,0E0],"parents":[2147483647,0,0,1,1,2,2,3,3,4,4,5,5,6,6,7,7,8,8,9,9,10,10,11,11,13,13,14,14,15,15,16,16,18,18,19,19,20,20,21,21,22,22,24,24,25,25,26,26,27,27,28,28,29,29,30,30,32,32,33,33,37,37,41,41,46,46,47,47,48,48,52,52,55,55,56,56,60,60,63,63],"right_children":[2,4,6,8,10,12,14,16,18,20,22,24,-1,26,28,30,32,-1,34,36,38,40,42,-1,44,46,48,50,52,54,56,-1,58,60,-1,-1,-1,62,-1,-1,-1,64,-1,-1,-1,-1,66,68,70,-1,-1,-1,72,-1,-1,74,76,-1,-1,-1,78,-1,-1,80,-1,-1,-1,-1,-1,-1,-1,-1,-1,-1,-1,-1,-1,-1,-1,-1,-1],"split_conditions":[6.4808356E5,0E0,0E0,1E0,0E0,3.3836685E8,1E0,-1.1888E6,-3.667842E9,4E0,0E0,4E0,3.797706E-2,1E0,3.8214836E7,-2.4433044E9,-5E0,-5.176709E-2,-3E0,1E0,-3.77595E6,1E0,2E0,6.804975E-3,1.2521134E7,-1E0,1E0,4E0,2.299519E9,1E0,-4E0,-6.285714E-2,1E0,0E0,-2.8334184E-2,-2.8334184E-2,-1.9752E-2,0E0,-1.1169817E-2,-1.1169817E-2,-2.1824208E-3,2E0,6.804975E-3,1.4597997E-2,2.2391018E-2,3.797706E-2,1.1864505E8,2.1548413E9,2.9481815E6,7.0398934E-2,8.8E-2,1.0895238E-1,0E0,-1.2941176E-1,-1.13306314E-1,-1.584925E7,-4.08396E7,-5.176709E-2,-5.176709E-2,-4.0050637E-2,1E0,-1.9752E-2,-1.54609075E-2,0E0,2.3112772E-3,4.2559955E-2,5.4187994E-2,5.4187994E-2,6.2293466E-2,6.2293466E-2,7.0398934E-2,1.1694533E-1,1.3037036E-1,-1.13306314E-1,-1.0410414E-1,-9.857923E-2,-8.597701E-2,-3.7121527E-2,-3.419241E-2,-2.1824208E-3,-0E0],"split_indices":[0,4,2,2,1,0,4,0,0,4,2,4,0,1,0,0,4,0,4,2,0,1,4,0,0,4,2,4,0,1,4,0,1,0,0,0,0,2,0,0,0,1,0,0,0,0,0,0,0,0,0,0,1,0,0,0,0,0,0,0,1,0,0,0,0,0,0,0,0,0,0,0,0,0,0,0,0,0,0,0,0],"split_type":[0,0,0,0,0,0,0,0,0,0,0,0,0,0,0,0,0,0,0,0,0,0,0,0,0,0,0,0,0,0,0,0,0,0,0,0,0,0,0,0,0,0,0,0,0,0,0,0,0,0,0,0,0,0,0,0,0,0,0,0,0,0,0,0,0,0,0,0,0,0,0,0,0,0,0,0,0,0,0,0,0],"sum_hessian":[3.7E2,2.4075E2,1.2925E2,1.1225E2,1.285E2,4.6E1,8.325E1,6.875E1,4.35E1,3.675E1,9.175E1,3.5E1,1.1E1,4.45E1,3.875E1,4.225E1,2.65E1,5.25E0,3.825E1,2.575E1,1.1E1,1.325E1,7.85E1,3E1,5E0,2.8E1,1.65E1,1.45E1,2.425E1,7E0,3.525E1,5.25E0,2.125E1,1.425E1,2.4E1,2.35E1,2.25E0,3.5E0,7.5E0,1.05E1,2.75E0,4.475E1,3.375E1,1E0,4E0,1.4E1,1.4E1,4.5E0,1.2E1,1.075E1,3.75E0,1.75E1,6.75E0,4.25E0,2.75E0,5.5E0,2.975E1,1.65E1,4.75E0,6.75E0,7.5E0,2.5E0,1E0,3.85E1,6.25E0,1.15E1,2.5E0,3E0,1.5E0,1.75E0,1.025E1,2.25E0,4.5E0,4.25E0,1.25E0,1.525E1,1.45E1,3.75E0,3.75E0,2.1E1,1.75E1],"tree_param":{"num_deleted":"0","num_feature":"5","num_nodes":"81","size_leaf_vector":"1"}},{"base_weights":[4.0554006E-2,-3.6468184E-1,3.1886217E-1,-6.5296286E-1,-2.2909835E-2,-5.3174347E-3,4.9738654E-1,-7.361039E-1,-2.4781998E-2,-3.1655118E-1,-2.2909835E-2,-2.2909835E-2,1.8042535E-2,2.4603456E-1,6.182837E-1,-1.0039419E0,-6.944627E-1,-3.3793634E-1,-1.2446904E-2,-1.2446904E-2,-1.6800545E-3,-2.2909835E-2,1.11562364E-1,1.8042535E-2,3.1691667E-2,5.6225795E-1,1.0182252E0,-1.2356447E0,-6.2274832E-2,-6.0209766E-2,-6.660049E-1,-2.4781998E-2,-1.861445E-2,-1.6800545E-3,-0E0,3.2505926E-3,1.11562364E-1,4.3215913E-1,4.598929E-2,5.7951048E-2,1.209157E0,-9.3523055E-2,-7.644439E-2,-5.0109364E-2,-5.9338796E-1,5.7159164E-3,8.1812395E-3,4.3215913E-1,3.884048E-2,9.996993E-1,9.1261424E-2,-4.681224E-2,-3.938147E-2,3.1691667E-2,3.5266075E-2,7.331128E-2,7.7596456E-2],"categories":[],"categories_nodes":[],"categories_segments":[],"categories_sizes":[],"default_left":[0,0,0,0,0,0,0,0,0,0,0,0,0,0,0,0,0,0,0,0,0,0,0,0,0,0,0,0,0,0,0,0,0,0,0,0,0,0,0,0,0,0,0,0,0,0,0,0,0,0,0,0,0,0,0,0,0],"id":1,"left_children":[1,3,5,7,9,11,13,15,-1,17,19,21,-1,23,25,27,29,31,-1,-1,-1,33,35,-1,-1,37,39,41,-1,-1,43,-1,-1,-1,-1,-1,45,47,-1,-1,49,-1,-1,-1,51,-1,-1,53,-1,55,-1,-1,-1,-1,-1,-1,-1],"loss_changes":[4.2601105E1,2.0276493E1,1.3527336E1,4.7381706E0,2.138539E0,2.0814023E0,9.162758E0,1.1980591E0,0E0,1.0607212E0,5.3238654E-1,9.8549855E-1,0E0,7.052932E-1,3.2487755E0,8.941536E-1,3.8140488E-1,1.8160582E-1,0E0,0E0,0E0,2.369091E-2,2.27005E-1,0E0,0E0,1.1867256E0,1.5521526E0,2.0971298E-3,0E0,0E0,3.3481598E-2,0E0,0E0,0E0,0E0,0E0,9.426475E-3,8.4804106E-1,0E0,0E0,1.8526077E-2,0E0,0E0,0E0,3.44388E-1,0E0,0E0,1.8642831E-1,0E0,1.2454033E-1,0E0,0E0,0E0,0E0,0E0,0E0,0E0],"parents":[2147483647,0,0,1,1,2,2,3,3,4,4,5,5,6,6,7,7,9,9,10,10,11,11,13,13,14,14,15,15,16,16,17,17,21,21,22,22,25,25,26,26,27,27,30,30,36,36,37,37,40,40,44,44,47,47,49,49],"right_children":[2,4,6,8,10,12,14,16,-1,18,20,22,-1,24,26,28,30,32,-1,-1,-1,34,36,-1,-1,38,40,42,-1,-1,44,-1,-1,-1,-1,-1,46,48,-1,-1,50,-1,-1,-1,52,-1,-1,54,-1,56,-1,-1,-1,-1,-1,-1,-1],"split_conditions":[0E0,1E0,0E0,1.1370583E0,-3E0,1.4393541E-1,-1.4393541E-1,-1.98E0,-2.4781998E-2,2E0,-3.96E0,4E0,1.8042535E-2,6E0,5E0,-4E0,-5E0,1.4393541E-1,-1.2446904E-2,-1.2446904E-2,-1.6800545E-3,1E0,-1.4393541E-1,1.8042535E-2,3.1691667E-2,1E0,0E0,-4.3314724E0,-6.2274832E-2,-6.0209766E-2,-1E0,-2.4781998E-2,-1.861445E-2,-1.6800545E-3,-0E0,3.2505926E-3,-1E0,1.4393541E-1,4.598929E-2,5.7951048E-2,6E0,-9.3523055E-2,-7.644439E-2,-5.0109364E-2,0E0,5.7159164E-3,8.1812395E-3,2E0,3.884048E-2,1E0,9.1261424E-2,-4.681224E-2,-3.938147E-2,3.1691667E-2,3.5266075E-2,7.331128E-2,7.7596456E-2],"split_indices":[4,2,2,3,4,3,3,3,0,2,3,4,0,4,4,4,4,3,0,0,0,1,3,0,0,4,1,3,0,0,4,0,0,0,0,0,2,3,0,0,4,0,0,0,2,0,0,2,0,1,0,0,0,0,0,0,0],"split_type":[0,0,0,0,0,0,0,0,0,0,0,0,0,0,0,0,0,0,0,0,0,0,0,0,0,0,0,0,0,0,0,0,0,0,0,0,0,0,0,0,0,0,0,0,0,0,0,0,0,0,0,0,0,0,0,0,0],"sum_hessian":[3.6673865E2,1.4785641E2,2.1888225E2,9.31331E1,5.472331E1,7.574202E1,1.4314023E2,8.713767E1,5.995426E0,1.7990746E1,3.6732563E1,6.899254E1,6.7494802E0,1.3499424E1,1.296408E2,8.493355E0,7.864432E1,1.5742497E1,2.248248E0,1.4996989E0,3.5232864E1,5.1744175E1,1.7248362E1,1.1749444E1,1.7499797E0,1.1590469E2,1.3736109E1,4.2462015E0,4.2471538E0,7.985459E0,7.065886E1,1.3993048E1,1.7494495E0,5.049418E1,1.2499986E0,2.7499292E0,1.4498433E1,3.6489548E1,7.9415146E1,2.999047E0,1.0737062E1,1.498678E0,2.7475235E0,4.594037E1,2.4718493E1,1.4998689E0,1.2998564E1,3.2989773E1,3.4997745E0,3.7445085E0,6.9925537E0,6.993446E0,1.7725046E1,3.1740082E1,1.2496896E0,1.4978037E0,2.2467048E0],"tree_param":{"num_deleted":"0","num_feature":"5","num_nodes":"57","size_leaf_vector":"1"}},{"base_weights":[-1.8894343E-2,-3.3779824E-1,5.076827E-1,-1.148773E0,-1.9711575E-1,1.5419006E-1,8.179743E-1,-1.3279519E0,-7.08628E-1,-3.465809E-1,8.494222E-2,8.494222E-2,4.860822E-1,4.860822E-1,1.1958504E0,-1.14859976E-1,-1.0182899E0,-6.234385E-2,-4.9349252E-2,-5.194444E-1,-1.3081934E-1,-9.162894E-2,6.229096E-3,6.229096E-3,1.876902E-1,2.0937562E-2,4.860822E-1,4.860822E-1,6.167086E-2,8.409663E-1,1.3598429E0,-8.082198E-2,-7.467459E-2,-6.7294437E-1,-3.2513186E-1,-2.3843002E-2,-1.3081934E-1,-9.593418E-3,-2.4517963E-4,9.996521E-3,1.9910485E-2,2.8291794E-2,3.5646025E-2,4.860822E-1,6.6352427E-1,6.167086E-2,8.5189354E-1,1.2079164E0,1.2448475E-1,-6.7294437E-1,-5.1936406E-1,-4.990381E-1,-3.2513186E-1,-2.279756E-1,-9.593418E-3,3.5646025E-2,3.5646025E-2,4.8658445E-2,4.8658445E-2,6.207153E-2,7.7323735E-2,8.118184E-2,1.0653263E-1,-4.9349252E-2,-4.9349252E-2,-4.3717973E-2,-3.6596127E-2,-3.6596127E-2,-3.0219566E-2,-3.0219566E-2,-2.3843002E-2,-1.671821E-2,-1.3155813E-2],"categories":[],"categories_nodes":[],"categories_segments":[],"categories_sizes":[],"default_left":[0,0,0,0,0,0,0,0,0,0,0,0,0,0,0,0,0,0,0,0,0,0,0,0,0,0,0,0,0,0,0,0,0,0,0,0,0,0,0,0,0,0,0,0,0,0,0,0,0,0,0,0,0,0,0,0,0,0,0,0,0,0,0,0,0,0,0,0,0,0,0,0,0],"id":2,"left_children":[1,3,5,7,9,11,13,15,17,19,21,23,25,27,29,-1,31,-1,-1,33,35,37,-1,-1,39,-1,41,43,-1,45,47,-1,-1,49,51,-1,53,-1,-1,-1,-1,-1,-1,55,57,-1,59,61,-1,63,65,67,69,71,-1,-1,-1,-1,-1,-1,-1,-1,-1,-1,-1,-1,-1,-1,-1,-1,-1,-1,-1],"loss_changes":[6.2207096E1,2.6499884E1,1.4787491E1,2.2956085E0,1.5360089E1,5.3888183E0,1.3520332E1,2.979618E0,3.5530138E-1,9.302874E0,5.39927E-1,3.1103253E-1,2.629223E-1,2.4804373E0,3.4192505E0,0E0,1.8346763E-1,0E0,0E0,6.4806976E0,2.5888674E0,1.0385613E0,0E0,0E0,3.0110848E-1,0E0,9.849596E-2,1.2338243E0,0E0,2.2210121E-2,1.7527962E0,0E0,0E0,1.21910095E-1,2.271469E0,0E0,6.895907E-1,0E0,0E0,0E0,0E0,0E0,0E0,1.9073486E-6,1.4305115E-6,0E0,4.587083E-1,7.899399E-1,0E0,3.8146973E-6,4.6653366E-1,2.8834152E-1,8.04369E-1,2.5393605E-2,0E0,0E0,0E0,0E0,0E0,0E0,0E0,0E0,0E0,0E0,0E0,0E0,0E0,0E0,0E0,0E0,0E0,0E0,0E0],"parents":[2147483647,0,0,1,1,2,2,3,3,4,4,5,5,6,6,7,7,8,8,9,9,10,10,11,11,12,12,13,13,14,14,16,16,19,19,20,20,21,21,24,24,26,26,27,27,29,29,30,30,33,33,34,34,36,36,43,43,44,44,46,46,47,47,49,49,50,50,51,51,52,52,53,53],"right_children":[2,4,6,8,10,12,14,16,18,20,22,24,26,28,30,-1,32,-1,-1,34,36,38,-1,-1,40,-1,42,44,-1,46,48,-1,-1,50,52,-1,54,-1,-1,-1,-1,-1,-1,56,58,-1,60,62,-1,64,66,68,70,72,-1,-1,-1,-1,-1,-1,-1,-1,-1,-1,-1,-1,-1,-1,-1,-1,-1,-1,-1],"split_conditions":[6.4808356E5,-3.3836685E8,1E0,1E0,1.4393541E-1,1E0,0E0,2E0,-5.226043E9,1E0,-3E0,4.2347696E8,7.265859E6,3.8468004E9,2.4461928E7,-1.14859976E-1,0E0,-6.234385E-2,-4.9349252E-2,0E0,-3E0,3.1187246E0,6.229096E-3,6.229096E-3,-3E0,2.0937562E-2,-2E0,4E0,6.167086E-2,4E0,2.4433044E9,-8.082198E-2,-7.467459E-2,-2.05392E5,-1.552126E0,-2.3843002E-2,-1.1370583E0,-9.593418E-3,-2.4517963E-4,9.996521E-3,1.9910485E-2,2.8291794E-2,3.5646025E-2,7.265859E6,1.3916E7,6.167086E-2,1E0,5E0,1.2448475E-1,-2.6728718E7,-1.98E0,6E0,-1E0,5E0,-9.593418E-3,3.5646025E-2,3.5646025E-2,4.8658445E-2,4.8658445E-2,6.207153E-2,7.7323735E-2,8.118184E-2,1.0653263E-1,-4.9349252E-2,-4.9349252E-2,-4.3717973E-2,-3.6596127E-2,-3.6596127E-2,-3.0219566E-2,-3.0219566E-2,-2.3843002E-2,-1.671821E-2,-1.3155813E-2],"split_indices":[0,0,4,2,3,2,2,4,0,2,4,0,0,0,0,0,2,0,0,4,4,3,0,0,4,0,4,4,0,4,0,0,0,0,3,0,3,0,0,0,0,0,0,0,0,0,2,4,0,0,3,4,2,4,0,0,0,0,0,0,0,0,0,0,0,0,0,0,0,0,0,0,0],"split_type":[0,0,0,0,0,0,0,0,0,0,0,0,0,0,0,0,0,0,0,0,0,0,0,0,0,0,0,0,0,0,0,0,0,0,0,0,0,0,0,0,0,0,0,0,0,0,0,0,0,0,0,0,0,0,0,0,0,0,0,0,0,0,0,0,0,0,0,0,0,0,0,0,0],"sum_hessian":[3.6160736E2,2.2639673E2,1.3521062E2,3.24172E1,1.9397954E2,6.4711876E1,7.049873E1,2.142379E1,1.0993407E1,1.637569E2,3.022264E1,4.3986115E1,2.0725763E1,2.974572E1,4.0753017E1,1.5176664E1,6.2471256E0,2.7474747E0,8.245933E0,1.0978341E2,5.3973488E1,5.9910364E0,2.4231602E1,3.3989414E1,9.996699E0,4.743794E0,1.5981969E1,2.4747519E1,4.998201E0,1.0207644E1,3.0545372E1,2.249912E0,3.9972134E0,4.5553516E1,6.42299E1,1.1488719E1,4.2484768E1,3.743733E0,2.2473035E0,1.2499403E0,8.746759E0,4.2484713E0,1.1733497E1,1.724908E1,7.4984384E0,7.225503E0,2.982142E0,2.3109444E1,7.435929E0,2.7362198E1,1.8191317E1,8.499193E0,5.57307E1,5.749014E0,3.6735756E1,2.7499819E0,1.4499098E1,2.499663E0,4.998775E0,1.7394935E0,1.2426484E0,1.9887444E1,3.221999E0,1.5169105E1,1.2193093E1,7.2220516E0,1.0969266E1,6.999479E0,1.4997143E0,3.499434E0,5.223127E1,4.2493534E0,1.4996605E0],"tree_param":{"num_deleted":"0","num_feature":"5","num_nodes":"73","size_leaf_vector":"1"}},{"base_weights":[-5.719711E-2,-1.13081E0,2.7364444E-2,-1.2997838E0,-4.0459666E-2,-5.5172276E-1,1.0021154E-1,-1.4745874E0,-9.3320674E-1,-4.0459666E-2,-4.0459666E-2,-2.2575562E-1,2.93429E-1,-1.5679933E0,-8.8550925E-2,-8.828579E-2,-6.788857E-2,-2.2575562E-1,3.3836685E-2,1.8619068E-1,8.8348484E-1,-1.1714362E-1,-1.0176855E-1,-1.6555412E-2,-9.595947E-2,-7.0370273E-3,2.4813567E-3,4.9372E-2,5.315023E-1,3.9221436E-2,9.292944E-1,-1.1796219E-2,-7.0370273E-3,3.3836685E-2,2.1298725E-2,2.9043716E-1,5.348378E-1,8.8716954E-1,7.7909425E-2,2.4813567E-3,1.1890041E-2,2.1298725E-2,3.026008E-2,3.026008E-2,3.9221436E-2,5.900628E-2,7.148426E-2],"categories":[],"categories_nodes":[],"categories_segments":[],"categories_sizes":[],"default_left":[0,0,0,0,0,0,0,0,0,0,0,0,0,0,0,0,0,0,0,0,0,0,0,0,0,0,0,0,0,0,0,0,0,0,0,0,0,0,0,0,0,0,0,0,0,0,0],"id":3,"left_children":[1,3,5,7,-1,9,11,13,15,-1,-1,17,19,21,-1,-1,-1,23,25,27,29,-1,-1,-1,31,-1,-1,33,35,-1,37,-1,-1,39,-1,41,43,45,-1,-1,-1,-1,-1,-1,-1,-1,-1],"loss_changes":[3.739001E1,4.022026E0,2.3228563E1,1.3158531E0,0E0,3.8146973E-6,2.4684177E1,1.7766571E-1,1.3524857E0,0E0,0E0,2.587716E0,1.4373478E1,3.7124634E-2,0E0,0E0,0E0,6.034584E-1,3.6423552E-1,9.05259E0,8.036308E-1,0E0,0E0,0E0,5.648865E-1,0E0,0E0,4.042569E0,1.9266167E0,0E0,2.5823975E-1,0E0,0E0,2.3619027E0,0E0,3.675971E-1,5.631943E-1,2.505226E-1,0E0,0E0,0E0,0E0,0E0,0E0,0E0,0E0,0E0],"parents":[2147483647,0,0,1,1,2,2,3,3,5,5,6,6,7,7,8,8,11,11,12,12,13,13,17,17,18,18,19,19,20,20,24,24,27,27,28,28,30,30,33,33,35,35,36,36,37,37],"right_children":[2,4,6,8,-1,10,12,14,16,-1,-1,18,20,22,-1,-1,-1,24,26,28,30,-1,-1,-1,32,-1,-1,34,36,-1,38,-1,-1,40,-1,42,44,46,-1,-1,-1,-1,-1,-1,-1,-1,-1],"split_conditions":[-4.2347696E8,3E0,-2.3931804E0,1E0,-4.0459666E-2,1E0,-4.15024E5,-3.155829E9,-1E0,-4.0459666E-2,-4.0459666E-2,2E0,4E0,0E0,-8.8550925E-2,-8.828579E-2,-6.788857E-2,1E0,-1.4293789E8,1E0,-1E0,-1.1714362E-1,-1.0176855E-1,-1.6555412E-2,0E0,-7.0370273E-3,2.4813567E-3,2.3931804E0,0E0,3.9221436E-2,2.4433044E9,-1.1796219E-2,-7.0370273E-3,3.3836685E8,2.1298725E-2,2E0,-1.1370583E0,2.1287246E0,7.7909425E-2,2.4813567E-3,1.1890041E-2,2.1298725E-2,3.026008E-2,3.026008E-2,3.9221436E-2,5.900628E-2,7.148426E-2],"split_indices":[0,4,3,1,0,1,0,0,4,0,0,1,4,4,0,0,0,4,0,1,1,0,0,0,1,0,0,3,4,0,0,0,0,0,0,1,3,3,0,0,0,0,0,0,0,0,0],"split_type":[0,0,0,0,0,0,0,0,0,0,0,0,0,0,0,0,0,0,0,0,0,0,0,0,0,0,0,0,0,0,0,0,0,0,0,0,0,0,0,0,0,0,0,0,0,0,0],"sum_hessian":[3.7543753E2,2.8275171E1,3.4716235E2,2.352758E1,4.747592E0,1.8938902E1,3.2822345E2,1.4083753E1,9.443827E0,1.24541445E1,6.484757E0,1.0870055E2,2.195229E2,7.6603713E0,6.423382E0,4.457439E0,4.9863877E0,9.646226E1,1.2238295E1,1.8719614E2,3.232677E1,5.1673393E0,2.4930317E0,5.6977295E1,3.948496E1,2.246466E0,9.991829E0,1.3614784E2,5.1048286E1,2.4964423E0,2.9830328E1,1.2743366E1,2.6741594E1,1.2590582E2,1.024203E1,2.5953411E1,2.5094877E1,2.8365988E1,1.4643412E0,1.0649012E2,1.9415695E1,1.8717905E1,7.2355046E0,1.7498144E0,2.3345062E1,2.187552E1,6.4904675E0],"tree_param":{"num_deleted":"0","num_feature":"5","num_nodes":"47","size_leaf_vector":"1"}},{"base_weights":[-2.6164442E-2,-4.4841042E-1,1.9640917E-1,-6.7764235E-1,-1.2600063E-1,-1.2600063E-1,3.444099E-1,-1.0380598E0,-4.018215E-1,-2.9466908E-2,-1.2600063E-1,-9.240046E-3,-0E0,1.0920464E-1,5.23853E-1,-1.270726E0,-5.2795645E-2,-7.1994066E-1,-4.018215E-1,-1.9353477E-2,-9.240046E-3,1.0920464E-1,2.3212112E-2,3.1652883E-1,9.0313864E-1,-1.0119805E-1,-8.833374E-2,-5.2795645E-2,-4.1131277E-2,-4.1131277E-2,-2.9466908E-2,1.0920464E-1,1.5610226E-2,3.1652883E-1,6.098337E-1,6.098337E-1,1.2759976E0,8.00834E-3,1.1809283E-2,3.1652883E-1,4.6318126E-1,3.3966623E-2,4.4721138E-2,6.098337E-1,6.5264165E-2,8.2070984E-2,1.422255E0,2.3212112E-2,2.8589368E-2,2.8589368E-2,3.3966623E-2,4.4721138E-2,5.0263252E-2,9.3184836E-2,1.07375495E-1],"categories":[],"categories_nodes":[],"categories_segments":[],"categories_sizes":[],"default_left":[0,0,0,0,0,0,0,0,0,0,0,0,0,0,0,0,0,0,0,0,0,0,0,0,0,0,0,0,0,0,0,0,0,0,0,0,0,0,0,0,0,0,0,0,0,0,0,0,0,0,0,0,0,0,0],"id":4,"left_children":[1,3,5,7,9,11,13,15,17,-1,19,-1,-1,21,23,25,-1,27,29,-1,-1,31,-1,33,35,-1,-1,-1,-1,-1,-1,37,-1,39,41,43,45,-1,-1,47,49,-1,-1,51,-1,-1,53,-1,-1,-1,-1,-1,-1,-1,-1],"loss_changes":[3.6251694E1,1.215234E1,2.0651203E1,9.580708E0,3.7350287E0,1.4234495E-1,1.2163042E1,3.973709E0,3.6036468E0,0E0,9.323962E-1,0E0,0E0,2.688022E0,1.4504475E1,2.1689224E-1,0E0,4.7373962E-1,6.3163424E-1,0E0,0E0,9.274545E-1,0E0,4.650069E0,7.051819E0,0E0,0E0,0E0,0E0,0E0,0E0,4.1538143E-1,0E0,8.023386E-1,9.435463E-2,1.1856451E0,5.678139E-1,0E0,0E0,3.453989E-1,4.109044E-1,0E0,0E0,2.1743965E-1,0E0,0E0,1.4326096E-2,0E0,0E0,0E0,0E0,0E0,0E0,0E0,0E0],"parents":[2147483647,0,0,1,1,2,2,3,3,4,4,5,5,6,6,7,7,8,8,10,10,13,13,14,14,15,15,17,17,18,18,21,21,23,23,24,24,31,31,33,33,34,34,35,35,36,36,39,39,40,40,43,43,46,46],"right_children":[2,4,6,8,10,12,14,16,18,-1,20,-1,-1,22,24,26,-1,28,30,-1,-1,32,-1,34,36,-1,-1,-1,-1,-1,-1,38,-1,40,42,44,46,-1,-1,48,50,-1,-1,52,-1,-1,54,-1,-1,-1,-1,-1,-1,-1,-1],"split_conditions":[-2.9481815E6,1E0,0E0,0E0,-3.155829E9,8E0,0E0,-3.8214836E7,-1.5578386E8,-2.9466908E-2,-3E0,-9.240046E-3,-0E0,4E0,1E0,-2.4769388E9,-5.2795645E-2,4E0,-1E0,-1.9353477E-2,-9.240046E-3,3.3836685E8,2.3212112E-2,1.2786274E0,3.6915316E7,-1.0119805E-1,-8.833374E-2,-5.2795645E-2,-4.1131277E-2,-4.1131277E-2,-2.9466908E-2,2.3931804E0,1.5610226E-2,1.789583E8,-5E0,1.98E0,2.0355397E8,8.00834E-3,1.1809283E-2,2E0,-3E0,3.3966623E-2,4.4721138E-2,6.4808356E5,6.5264165E-2,8.2070984E-2,3E0,2.3212112E-2,2.8589368E-2,2.8589368E-2,3.3966623E-2,4.4721138E-2,5.0263252E-2,9.3184836E-2,1.07375495E-1],"split_indices":[0,2,3,4,0,4,2,0,0,0,4,0,0,4,4,0,0,4,2,0,0,0,0,3,0,0,0,0,0,0,0,3,0,0,4,3,0,0,0,2,4,0,0,0,0,0,4,0,0,0,0,0,0,0,0],"split_type":[0,0,0,0,0,0,0,0,0,0,0,0,0,0,0,0,0,0,0,0,0,0,0,0,0,0,0,0,0,0,0,0,0,0,0,0,0,0,0,0,0,0,0,0,0,0,0,0,0,0,0,0,0,0,0],"sum_hessian":[3.698881E2,1.292258E2,2.4066228E2,8.256963E1,4.6656162E1,3.5626396E1,2.0503589E2,3.740504E1,4.516459E1,6.1965213E0,4.045964E1,3.437749E1,1.2489038E0,7.040777E1,1.3462811E2,2.4042912E1,1.336213E1,1.5430387E1,2.9734203E1,5.486109E0,3.4973534E1,5.6456566E1,1.3951205E1,7.786543E1,5.6762688E1,3.3692217E0,2.0673689E1,1.1937857E1,3.4925296E0,2.7466033E0,2.69876E1,4.772015E1,8.736415E0,6.887286E1,8.99257E0,3.1548832E1,2.5213854E1,4.3472687E1,4.247463E0,5.540191E1,1.3470953E1,1.7477709E0,7.2447987E0,2.3579565E1,7.9692674E0,1.5465628E1,9.748226E0,5.191492E1,3.4869869E0,2.7474582E0,1.0723495E1,1.1972781E1,1.1606785E1,5.6273627E0,4.120863E0],"tree_param":{"num_deleted":"0","num_feature":"5","num_nodes":"55","size_leaf_vector":"1"}},{"base_weights":[-3.574468E-2,-2.900671E-1,3.1880558E-1,-5.402426E-1,1.4369234E-2,1.4369234E-2,5.216256E-1,-6.830475E-1,-1.9282022E-2,-1.9282022E-2,1.4369234E-2,1.4369234E-2,2.679974E-1,1.9653143E-2,6.0003954E-1,-1.2103894E0,-6.2321097E-1,-1.2428372E-1,1.0537438E-3,1.0537438E-3,1.0353443E-2,1.0353443E-2,2.679974E-1,5.0207853E-1,9.5458436E-1,-1.4134798E0,-9.1680014E-1,-7.513111E-1,-4.7299206E-1,-9.11414E-3,-4.030198E-3,1.5003293E-2,2.679974E-1,3.5676826E-2,3.8396884E-2,5.341097E-2,1.0043223E0,-1.1231668E-1,-8.544359E-2,-7.964276E-2,-6.7232005E-2,-6.7232005E-2,-7.173661E-1,-6.121516E-1,-3.4686085E-2,1.7328218E-2,1.9653143E-2,8.787013E-1,8.578428E-2,-5.499246E-2,-4.489112E-2,-4.489112E-2,-3.97886E-2,6.353063E-2,7.4055105E-2],"categories":[],"categories_nodes":[],"categories_segments":[],"categories_sizes":[],"default_left":[0,0,0,0,0,0,0,0,0,0,0,0,0,0,0,0,0,0,0,0,0,0,0,0,0,0,0,0,0,0,0,0,0,0,0,0,0,0,0,0,0,0,0,0,0,0,0,0,0,0,0,0,0,0,0],"id":5,"left_children":[1,3,5,7,9,11,13,15,-1,-1,17,19,21,-1,23,25,27,29,-1,-1,-1,-1,31,33,35,37,39,41,43,-1,-1,-1,45,-1,-1,-1,47,-1,-1,-1,-1,-1,49,51,-1,-1,-1,53,-1,-1,-1,-1,-1,-1,-1],"loss_changes":[3.4517162E1,2.3370413E1,1.1039749E1,1.1788559E1,2.1506965E0,3.2716947E0,4.1737995E0,4.4465675E0,0E0,0E0,8.611467E-1,4.516004E-1,2.3564315E-1,0E0,3.4768105E0,6.061268E-1,3.747631E0,3.1868446E-1,0E0,0E0,0E0,0E0,1.06630325E-1,3.1021118E-2,3.574562E-1,3.7856483E-1,4.1642094E-1,5.850105E-1,6.7844343E-1,0E0,0E0,0E0,3.9129257E-3,0E0,0E0,0E0,3.5975647E-1,0E0,0E0,0E0,0E0,0E0,1.7289352E-1,1.9610882E-2,0E0,0E0,0E0,3.407669E-1,0E0,0E0,0E0,0E0,0E0,0E0,0E0],"parents":[2147483647,0,0,1,1,2,2,3,3,4,4,5,5,6,6,7,7,10,10,11,11,12,12,14,14,15,15,16,16,17,17,22,22,23,23,24,24,25,25,26,26,27,27,28,28,32,32,36,36,42,42,43,43,47,47],"right_children":[2,4,6,8,10,12,14,16,-1,-1,18,20,22,-1,24,26,28,30,-1,-1,-1,-1,32,34,36,38,40,42,44,-1,-1,-1,46,-1,-1,-1,48,-1,-1,-1,-1,-1,50,52,-1,-1,-1,54,-1,-1,-1,-1,-1,-1,-1],"split_conditions":[1E0,1E0,0E0,1.4393541E-1,-2.7017007E0,4E0,-2.3931804E0,-1.98E0,-1.9282022E-2,-1.9282022E-2,-3E0,1.4393541E-1,-1E0,1.9653143E-2,5E0,-4.3314724E0,0E0,1.4393541E-1,1.0537438E-3,1.0537438E-3,1.0353443E-2,1.0353443E-2,-4.212756E-1,1.98E0,0E0,1E0,0E0,-5E0,0E0,-9.11414E-3,-4.030198E-3,1.5003293E-2,-1E0,3.5676826E-2,3.8396884E-2,5.341097E-2,1.2786274E0,-1.1231668E-1,-8.544359E-2,-7.964276E-2,-6.7232005E-2,-6.7232005E-2,-1E0,-4.212756E-1,-3.4686085E-2,1.7328218E-2,1.9653143E-2,1E0,8.578428E-2,-5.499246E-2,-4.489112E-2,-4.489112E-2,-3.97886E-2,6.353063E-2,7.4055105E-2],"split_indices":[4,2,2,3,3,4,3,3,0,0,4,3,2,0,4,3,4,3,0,0,0,0,3,3,1,1,1,4,1,0,0,0,1,0,0,0,3,0,0,0,0,0,4,3,0,0,0,2,0,0,0,0,0,0,0],"split_type":[0,0,0,0,0,0,0,0,0,0,0,0,0,0,0,0,0,0,0,0,0,0,0,0,0,0,0,0,0,0,0,0,0,0,0,0,0,0,0,0,0,0,0,0,0,0,0,0,0,0,0,0,0,0,0],"sum_hessian":[3.7040717E2,2.1733272E2,1.5307445E2,1.3983606E2,7.749666E1,5.6609608E1,9.646484E1,1.2610203E2,1.3734036E1,2.7421243E0,7.475453E1,3.7681694E1,1.8927914E1,3.7473226E0,9.271752E1,1.114739E1,1.14954636E2,1.8941872E1,5.5812656E1,3.5682335E1,1.9993558E0,2.2424734E0,1.6685442E1,7.485542E1,1.7862095E1,4.70547E0,6.4419208E0,7.856134E1,3.63933E1,1.5942215E1,2.999657E0,1.7479486E0,1.4937492E1,7.0380684E1,4.474745E0,2.4710565E0,1.5391039E1,3.2210245E0,1.4844455E0,2.7214315E0,3.7204893E0,8.052204E0,7.050913E1,1.4946923E1,2.1446375E1,1.7439091E0,1.31935835E1,1.2184281E1,3.206758E0,4.6821125E1,2.3688011E1,1.498997E0,1.34479265E1,8.283084E0,3.9011972E0],"tree_param":{"num_deleted":"0","num_feature":"5","num_nodes":"55","size_leaf_vector":"1"}},{"base_weights":[-0E0,-1.074632E-1,1.002264E0,-8.904743E-1,-1.7924782E-2,7.1110433E-1,1.1406026E0,-1.2332199E0,-7.665224E-1,-8.584196E-2,3.280936E-2,3.280936E-2,6.789592E-2,9.258535E-1,1.259559E0,-9.256269E-2,-7.332388E-2,-6.336702E-2,-4.5419955E-1,-2.2873843E-1,1.8077923E-1,6.789592E-2,6.789592E-2,8.0131784E-2,1.3569806E0,-3.662099E-2,-3.3307966E-2,-4.389952E-1,-1.1875959E-1,-1.7585037E-3,1.8077923E-1,8.9821845E-2,1.0249809E-1,-4.5419955E-1,-2.1513516E-2,-2.045101E-2,-3.4916736E-2,7.839982E-2,1.8077923E-1,-3.3307966E-2,-2.741074E-2,-1.15057845E-2,-1.7585037E-3,5.74932E-3,9.503231E-3,9.503231E-3,1.3257143E-2],"categories":[],"categories_nodes":[],"categories_segments":[],"categories_sizes":[],"default_left":[0,0,0,0,0,0,0,0,0,0,0,0,0,0,0,0,0,0,0,0,0,0,0,0,0,0,0,0,0,0,0,0,0,0,0,0,0,0,0,0,0,0,0,0,0,0,0],"id":6,"left_children":[1,3,5,7,9,11,13,15,17,19,-1,-1,-1,21,23,-1,-1,-1,25,27,29,-1,-1,-1,31,-1,-1,33,35,-1,37,-1,-1,39,-1,-1,41,43,45,-1,-1,-1,-1,-1,-1,-1,-1],"loss_changes":[4.1303883E1,2.4197313E1,1.2591095E0,1.63163E0,1.4319764E1,1.6608305E0,6.875038E-1,3.714657E-2,6.8842506E-1,1.37617E1,0E0,0E0,0E0,1.4305115E-6,1.8870163E-1,0E0,0E0,0E0,9.642744E-2,4.7013435E0,2.4524627E0,0E0,0E0,0E0,9.3084335E-2,0E0,0E0,7.866936E-1,3.275539E0,0E0,6.395354E-1,0E0,0E0,2.1158409E-1,0E0,0E0,2.5860927E0,2.0498158E-1,1.3317013E-1,0E0,0E0,0E0,0E0,0E0,0E0,0E0,0E0],"parents":[2147483647,0,0,1,1,2,2,3,3,4,4,5,5,6,6,7,7,8,8,9,9,13,13,14,14,18,18,19,19,20,20,24,24,27,27,28,28,30,30,33,33,36,36,37,37,38,38],"right_children":[2,4,6,8,10,12,14,16,18,20,-1,-1,-1,22,24,-1,-1,-1,26,28,30,-1,-1,-1,32,-1,-1,34,36,-1,38,-1,-1,40,-1,-1,42,44,46,-1,-1,-1,-1,-1,-1,-1,-1],"split_conditions":[3.3836685E8,-3.3836685E8,0E0,-5.226043E9,2.1287246E0,0E0,2.4433044E9,1E0,1E0,1E0,3.280936E-2,3.280936E-2,6.789592E-2,1.591975E9,1E0,-9.256269E-2,-7.332388E-2,-6.336702E-2,-3.155829E9,-4.15024E5,-2.3931804E0,6.789592E-2,6.789592E-2,8.0131784E-2,3.667842E9,-3.662099E-2,-3.3307966E-2,0E0,-1.2786274E0,-1.7585037E-3,1E0,8.9821845E-2,1.0249809E-1,-2.9481815E6,-2.1513516E-2,-2.045101E-2,0E0,1.0687006E8,-3.3275898E7,-3.3307966E-2,-2.741074E-2,-1.15057845E-2,-1.7585037E-3,5.74932E-3,9.503231E-3,9.503231E-3,1.3257143E-2],"split_indices":[0,0,1,0,3,2,0,1,2,2,0,0,0,0,1,0,0,0,0,0,3,0,0,0,0,0,0,1,3,0,1,0,0,0,0,0,2,0,0,0,0,0,0,0,0,0,0],"split_type":[0,0,0,0,0,0,0,0,0,0,0,0,0,0,0,0,0,0,0,0,0,0,0,0,0,0,0,0,0,0,0,0,0,0,0,0,0,0,0,0,0,0,0,0,0,0,0],"sum_hessian":[3.702984E2,3.352444E2,3.5054012E1,3.3255707E1,3.0198868E2,1.3618962E1,2.143505E1,6.689793E0,2.6565914E1,2.7984354E2,2.2145128E1,8.973012E0,4.6459503E0,8.520856E0,1.2914192E1,4.9896517E0,1.7001415E0,1.8359493E1,8.206421E0,1.9897536E2,8.086819E1,4.1511393E0,4.3697166E0,7.854349E0,5.059843E0,2.975001E0,5.2314196E0,6.521161E1,1.3376375E2,4.988048E0,7.588014E1,1.7134898E0,3.346353E0,2.2956633E1,4.2254974E1,1.8290117E1,1.1547363E2,2.1910376E1,5.3969765E1,2.1208979E1,1.7476534E0,5.18722E1,6.3601433E1,2.018026E1,1.7301173E0,1.6976053E1,3.699371E1],"tree_param":{"num_deleted":"0","num_feature":"5","num_nodes":"47","size_leaf_vector":"1"}},{"base_weights":[2.5563374E-2,-2.1894705E-1,2.0105088E-1,-4.7823325E-1,-6.5619306E-4,-8.948088E-3,3.5718372E-1,-5.6466E-1,-2.4359067E-1,-8.948088E-3,1.7411782E-1,1.7411782E-1,4.5059216E-1,-7.6504165E-1,-4.0412533E-1,-2.593572E-1,-1.7863315E-2,-8.948088E-3,6.056223E-3,6.056223E-3,1.2768639E-2,1.2768639E-2,2.947308E-1,3.9627996E-1,7.9120904E-1,-7.72922E-2,-6.9343275E-1,-5.481831E-1,-2.9635856E-2,-2.9635856E-2,-1.8441422E-2,-6.5619306E-4,-0E0,1.7191116E-2,2.2906031E-2,3.4999993E-1,4.3541264E-2,5.937445E-1,1.0037702E0,-6.175471E-2,-5.845835E-1,-4.2869456E-2,-3.4917973E-2,3.3253458E-1,3.460396E-2,4.3541264E-2,4.3718144E-2,7.987574E-1,8.6975574E-2,-5.0756566E-2,-4.2869456E-2,2.2906031E-2,2.857542E-2,5.8575537E-2,6.503919E-2],"categories":[],"categories_nodes":[],"categories_segments":[],"categories_sizes":[],"default_left":[0,0,0,0,0,0,0,0,0,0,0,0,0,0,0,0,0,0,0,0,0,0,0,0,0,0,0,0,0,0,0,0,0,0,0,0,0,0,0,0,0,0,0,0,0,0,0,0,0,0,0,0,0,0,0],"id":7,"left_children":[1,3,5,7,-1,9,11,13,15,17,19,21,23,25,27,29,-1,31,-1,-1,-1,-1,33,35,37,-1,39,41,-1,-1,-1,-1,-1,-1,-1,43,-1,45,47,-1,49,-1,-1,51,-1,-1,-1,53,-1,-1,-1,-1,-1,-1,-1],"loss_changes":[1.6487806E1,1.4782791E1,1.0030566E1,3.7800827E0,0E0,2.5485477E0,5.1996613E0,2.8923206E0,3.271222E-2,2.4600351E-1,2.1600986E-1,3.0292726E-1,2.6628666E0,9.639168E-1,4.593029E-1,7.704371E-1,0E0,3.5524368E-4,0E0,0E0,0E0,0E0,4.0471858E-1,1.6348381E0,1.0807877E0,0E0,9.73402E-1,1.1907005E-1,0E0,0E0,0E0,0E0,0E0,0E0,0E0,4.0336037E-1,0E0,4.850149E-3,3.7176037E-1,0E0,3.082099E-1,0E0,0E0,4.800768E-1,0E0,0E0,0E0,1.9514322E-1,0E0,0E0,0E0,0E0,0E0,0E0,0E0],"parents":[2147483647,0,0,1,1,2,2,3,3,5,5,6,6,7,7,8,8,9,9,10,10,11,11,12,12,13,13,14,14,15,15,17,17,22,22,23,23,24,24,26,26,27,27,35,35,37,37,38,38,40,40,43,43,47,47],"right_children":[2,4,6,8,-1,10,12,14,16,18,20,22,24,26,28,30,-1,32,-1,-1,-1,-1,34,36,38,-1,40,42,-1,-1,-1,-1,-1,-1,-1,44,-1,46,48,-1,50,-1,-1,52,-1,-1,-1,54,-1,-1,-1,-1,-1,-1,-1],"split_conditions":[0E0,1E0,0E0,1.4393541E-1,-6.5619306E-4,3E0,-1.4393541E-1,0E0,-3E0,1.7061733E0,-1.4393541E-1,4E0,5E0,-1.1370583E0,-4E0,2.3931804E0,-1.7863315E-2,1.4393541E-1,6.056223E-3,6.056223E-3,1.2768639E-2,1.2768639E-2,-2.9473588E0,2E0,1E0,-7.72922E-2,0E0,-4.3314724E0,-2.9635856E-2,-2.9635856E-2,-1.8441422E-2,-6.5619306E-4,-0E0,1.7191116E-2,2.2906031E-2,2E0,4.3541264E-2,0E0,1E0,-6.175471E-2,-2E0,-4.2869456E-2,-3.4917973E-2,1E0,3.460396E-2,4.3541264E-2,4.3718144E-2,1.2786274E0,8.6975574E-2,-5.0756566E-2,-4.2869456E-2,2.2906031E-2,2.857542E-2,5.8575537E-2,6.503919E-2],"split_indices":[4,2,2,3,0,4,3,1,4,3,3,4,4,3,4,3,0,3,0,0,0,0,3,1,1,0,2,3,0,0,0,0,0,0,0,2,0,1,2,0,4,0,0,4,0,0,0,3,0,0,0,0,0,0,0],"split_type":[0,0,0,0,0,0,0,0,0,0,0,0,0,0,0,0,0,0,0,0,0,0,0,0,0,0,0,0,0,0,0,0,0,0,0,0,0,0,0,0,0,0,0,0,0,0,0,0,0,0,0,0,0,0,0],"sum_hessian":[3.6628705E2,1.5066454E2,2.156225E2,9.4939804E1,5.572474E1,7.219245E1,1.4343005E2,8.569921E1,9.240598E0,4.8058014E1,2.4134434E1,1.4964795E1,1.2846526E2,3.608263E1,4.9616577E1,4.744798E0,4.4957995E0,4.6810547E1,1.2474681E0,1.9973979E0,2.2137035E1,1.0723432E1,4.241364E0,1.1333031E2,1.5134945E1,4.392813E0,3.1689817E1,8.248939E0,4.1367638E1,2.2455807E0,2.4992173E0,4.5310696E1,1.4998522E0,1.4996617E0,2.741702E0,1.03454834E2,9.875472E0,7.724744E0,7.4102006E0,1.5855222E1,1.5834595E1,1.2098767E0,7.0390615E0,1.01719894E2,1.7349396E0,3.1958592E0,4.528885E0,5.285309E0,2.1248915E0,8.048963E0,7.785632E0,3.3583477E1,6.813642E1,2.8573866E0,2.4279225E0],"tree_param":{"num_deleted":"0","num_feature":"5","num_nodes":"55","size_leaf_vector":"1"}},{"base_weights":[3.775811E-2,-2.0838948E-1,4.824633E-1,-3.3596745E-1,1.0049374E-2,2.5024015E-1,6.990461E-1,-8.157234E-1,-2.4538422E-1,1.3703692E-1,4.746431E-1,4.746431E-1,9.472216E-1,-1.1237173E0,-5.305538E-1,-5.305538E-1,-1.6313611E-1,1.0049374E-2,3.0584002E-1,2.2428267E-2,4.746431E-1,4.746431E-1,5.213504E-2,7.109324E-1,1.1640635E0,-9.604173E-2,-6.6593036E-2,-4.8734102E-2,-3.890728E-2,-5.305538E-1,-2.5435297E-2,-3.4684497E-1,-9.9465266E-2,1.623882E-2,2.2428267E-2,2.8617714E-2,3.480716E-2,3.480716E-2,4.3471098E-2,5.213504E-2,6.517178E-2,1.0633893E0,9.91155E-2,-5.305538E-1,-4.386994E-1,-2.5435297E-2,-2.2315511E-1,-2.2315511E-1,-7.2941193E-3,6.9878794E-2,8.854868E-2,-3.890728E-2,-3.553928E-2,-3.553928E-2,-3.2171287E-2,-2.0900002E-2,-1.6364707E-2,-1.6364707E-2,-1.2993903E-2],"categories":[],"categories_nodes":[],"categories_segments":[],"categories_sizes":[],"default_left":[0,0,0,0,0,0,0,0,0,0,0,0,0,0,0,0,0,0,0,0,0,0,0,0,0,0,0,0,0,0,0,0,0,0,0,0,0,0,0,0,0,0,0,0,0,0,0,0,0,0,0,0,0,0,0,0,0,0,0],"id":8,"left_children":[1,3,5,7,-1,9,11,13,15,17,19,21,23,25,27,29,31,-1,33,-1,35,37,-1,39,41,-1,-1,-1,-1,43,-1,45,47,-1,-1,-1,-1,-1,-1,-1,-1,49,-1,51,53,-1,55,57,-1,-1,-1,-1,-1,-1,-1,-1,-1,-1,-1],"loss_changes":[4.0784348E1,1.9583208E1,6.475218E0,9.4530735E0,0E0,1.8775544E0,4.772499E0,3.989439E0,5.702819E0,7.045114E-1,9.343238E-1,1.1013842E0,3.0317268E0,6.454716E-1,4.225273E-1,7.671871E-1,4.089381E0,0E0,2.6772022E-3,0E0,1.1645317E-2,3.341E-1,0E0,3.999791E-1,4.9869347E-1,0E0,0E0,0E0,0E0,1.9639015E-2,0E0,6.1377096E-1,2.1184268E0,0E0,0E0,0E0,0E0,0E0,0E0,0E0,0E0,3.627472E-1,0E0,3.2009125E-2,1.7099953E-1,0E0,3.1072342E-1,1.3977051E-2,0E0,0E0,0E0,0E0,0E0,0E0,0E0,0E0,0E0,0E0,0E0],"parents":[2147483647,0,0,1,1,2,2,3,3,5,5,6,6,7,7,8,8,9,9,10,10,11,11,12,12,13,13,14,14,15,15,16,16,18,18,20,20,21,21,23,23,24,24,29,29,31,31,32,32,41,41,43,43,44,44,46,46,47,47],"right_children":[2,4,6,8,-1,10,12,14,16,18,20,22,24,26,28,30,32,-1,34,-1,36,38,-1,40,42,-1,-1,-1,-1,44,-1,46,48,-1,-1,-1,-1,-1,-1,-1,-1,50,-1,52,54,-1,56,58,-1,-1,-1,-1,-1,-1,-1,-1,-1,-1,-1],"split_conditions":[6.4808356E5,2.1287246E0,1E0,-3E0,1.0049374E-2,1.5578386E8,0E0,1E0,-3.3836685E8,2E0,-3E0,3.155829E9,3.6915316E7,-1.584925E7,0E0,4E0,-1.4393541E-1,1.0049374E-2,1.1888E6,2.2428267E-2,-1E0,5E0,5.213504E-2,6E0,2.7398075E9,-9.604173E-2,-6.6593036E-2,-4.8734102E-2,-3.890728E-2,1E0,-2.5435297E-2,3E0,1E0,1.623882E-2,2.2428267E-2,2.8617714E-2,3.480716E-2,3.480716E-2,4.3471098E-2,5.213504E-2,6.517178E-2,5E0,9.91155E-2,2E0,-1E0,-2.5435297E-2,-2.3931804E0,0E0,-7.2941193E-3,6.9878794E-2,8.854868E-2,-3.890728E-2,-3.553928E-2,-3.553928E-2,-3.2171287E-2,-2.0900002E-2,-1.6364707E-2,-1.6364707E-2,-1.2993903E-2],"split_indices":[0,3,4,4,0,0,1,1,0,1,4,0,0,0,0,4,3,0,0,0,1,4,0,4,0,0,0,0,0,1,0,4,1,0,0,0,0,0,0,0,0,4,0,4,4,0,3,4,0,0,0,0,0,0,0,0,0,0,0],"split_type":[0,0,0,0,0,0,0,0,0,0,0,0,0,0,0,0,0,0,0,0,0,0,0,0,0,0,0,0,0,0,0,0,0,0,0,0,0,0,0,0,0,0,0,0,0,0,0,0,0,0,0,0,0,0,0,0,0,0,0],"sum_hessian":[3.5814883E2,2.290946E2,1.2905423E2,2.0856758E2,2.0527027E1,6.450655E1,6.4547676E1,3.1372086E1,1.771955E2,4.5108818E1,1.9397732E1,3.0846184E1,3.3701492E1,1.6839E1,1.4533084E1,2.6989649E1,1.5020586E2,4.014267E1,4.96615E0,3.990003E0,1.5407729E1,2.5292376E1,5.5538087E0,1.1884264E1,2.1817228E1,6.5517373E0,1.0287263E1,8.605328E0,5.9277563E0,2.4255556E1,2.7340915E0,2.3337666E1,1.2686819E2,1.2429156E0,3.7232344E0,1.2453107E0,1.4162418E1,2.1840698E1,3.4516761E0,1.0478347E1,1.405917E0,1.7665627E1,4.1516023E0,1.4453248E1,9.802309E0,1.5603168E1,7.7344975E0,7.6408554E1,5.0459633E1,1.4665035E1,3.0005908E0,1.1726492E1,2.7267559E0,3.1227014E0,6.679608E0,3.2466316E0,4.487866E0,2.6282436E1,5.0126114E1],"tree_param":{"num_deleted":"0","num_feature":"5","num_nodes":"59","size_leaf_vector":"1"}},{"base_weights":[-3.6146159E-3,-1.9629008E-1,3.0493066E-1,-3.3243492E-1,5.432029E-2,5.432029E-2,5.6412876E-1,-6.9383633E-1,-1.6967872E-1,-1.0197535E-2,3.983488E-3,5.432029E-2,3.0922452E-1,4.4701883E-1,1.1307486E0,-9.535787E-2,-6.324722E-1,-4.317575E-1,-1.3905731E-1,3.983488E-3,1.8177241E-1,1.8177241E-1,2.2676464E-2,3.0922452E-1,7.8888375E-1,7.8888375E-1,9.850496E-2,-7.086959E-2,-5.3473866E-1,-3.1662215E-2,-2.0929877E-2,-2.8540742E-1,-1.3905731E-1,8.656732E-3,1.3329976E-2,1.3329976E-2,1.800322E-2,3.0922452E-1,5.4905415E-1,4.026397E-2,5.785147E-2,5.785147E-2,9.0364903E-1,-7.505711E-1,-4.317575E-1,-2.0929877E-2,-1.5563706E-2,-2.1223237E-1,-1.0197535E-2,3.0922452E-1,4.2913932E-1,3.1470217E-2,4.026397E-2,6.2059533E-2,7.1238846E-2,-5.5041876E-2,-4.3352045E-2,-4.3352045E-2,-3.1662215E-2,-1.5563706E-2,-1.28806215E-2,2.2676464E-2,2.707334E-2,2.707334E-2,3.1470217E-2],"categories":[],"categories_nodes":[],"categories_segments":[],"categories_sizes":[],"default_left":[0,0,0,0,0,0,0,0,0,0,0,0,0,0,0,0,0,0,0,0,0,0,0,0,0,0,0,0,0,0,0,0,0,0,0,0,0,0,0,0,0,0,0,0,0,0,0,0,0,0,0,0,0,0,0,0,0,0,0,0,0,0,0,0,0],"id":9,"left_children":[1,3,5,7,9,11,13,15,17,-1,-1,19,21,23,25,-1,27,29,31,-1,33,35,-1,37,39,41,-1,-1,43,-1,-1,45,47,-1,-1,-1,-1,49,51,-1,-1,-1,53,55,57,-1,-1,59,-1,61,63,-1,-1,-1,-1,-1,-1,-1,-1,-1,-1,-1,-1,-1,-1],"loss_changes":[2.2004467E1,1.4346961E1,8.865816E0,1.11832905E1,8.192749E-1,3.7275243E0,4.738352E0,2.6322575E0,4.433419E0,0E0,0E0,6.588138E-1,1.9007492E-1,3.3403845E0,6.971407E-1,0E0,2.1857796E0,2.939701E-3,2.0675035E0,0E0,2.881074E-2,1.4141586E-1,0E0,1.1476383E0,1.0049858E0,2.61343E-1,0E0,0E0,2.5121326E0,0E0,0E0,2.370615E-1,7.2149765E-1,0E0,0E0,0E0,0E0,6.3158655E-1,2.0130396E-2,0E0,0E0,0E0,1.46914E-1,1.8280792E-1,9.64149E-1,0E0,0E0,1.5722275E-2,0E0,2.2410035E-1,2.7951288E-1,0E0,0E0,0E0,0E0,0E0,0E0,0E0,0E0,0E0,0E0,0E0,0E0,0E0,0E0],"parents":[2147483647,0,0,1,1,2,2,3,3,4,4,5,5,6,6,7,7,8,8,11,11,12,12,13,13,14,14,16,16,17,17,18,18,20,20,21,21,23,23,24,24,25,25,28,28,31,31,32,32,37,37,38,38,42,42,43,43,44,44,47,47,49,49,50,50],"right_children":[2,4,6,8,10,12,14,16,18,-1,-1,20,22,24,26,-1,28,30,32,-1,34,36,-1,38,40,42,-1,-1,44,-1,-1,46,48,-1,-1,-1,-1,50,52,-1,-1,-1,54,56,58,-1,-1,60,-1,62,64,-1,-1,-1,-1,-1,-1,-1,-1,-1,-1,-1,-1,-1,-1],"split_conditions":[6.4808356E5,1.4393541E-1,1E0,0E0,-6E0,1.6298299E8,3.155829E9,-3.667842E9,-2.3931804E0,-1.0197535E-2,3.983488E-3,1E0,-3E0,1E0,0E0,-9.535787E-2,-1.1370583E0,7E0,-2E0,3.983488E-3,2.9481815E6,0E0,2.2676464E-2,5E0,2E0,3E0,9.850496E-2,-7.086959E-2,-1E0,-3.1662215E-2,-2.0929877E-2,0E0,-2.953715E8,8.656732E-3,1.3329976E-2,1.3329976E-2,1.800322E-2,2.4461928E7,6E0,4.026397E-2,5.785147E-2,5.785147E-2,4.1049016E9,-2.05392E5,-1E0,-2.0929877E-2,-1.5563706E-2,0E0,-1.0197535E-2,4E0,-1E0,3.1470217E-2,4.026397E-2,6.2059533E-2,7.1238846E-2,-5.5041876E-2,-4.3352045E-2,-4.3352045E-2,-3.1662215E-2,-1.5563706E-2,-1.28806215E-2,2.2676464E-2,2.707334E-2,2.707334E-2,3.1470217E-2],"split_indices":[0,3,4,1,4,0,0,0,3,0,0,1,4,1,1,0,3,4,4,0,0,1,0,4,4,4,0,0,4,0,0,0,0,0,0,0,0,0,4,0,0,0,0,0,1,0,0,4,0,4,1,0,0,0,0,0,0,0,0,0,0,0,0,0,0],"split_type":[0,0,0,0,0,0,0,0,0,0,0,0,0,0,0,0,0,0,0,0,0,0,0,0,0,0,0,0,0,0,0,0,0,0,0,0,0,0,0,0,0,0,0,0,0,0,0,0,0,0,0,0,0,0,0,0,0,0,0,0,0,0,0,0,0],"sum_hessian":[3.5522653E2,2.2066818E2,1.3455835E2,1.8674911E2,3.391906E1,6.99253E1,6.463306E1,5.607966E1,1.3066946E2,2.236982E0,3.1682076E1,4.8814697E1,2.1110601E1,5.502521E1,9.607845E0,3.655357E0,5.24243E1,1.0857533E1,1.1981193E2,3.417305E1,1.4641647E1,3.7328548E0,1.7377747E1,4.1928528E1,1.3096683E1,5.0685472E0,4.5392985E0,8.272084E0,4.4152218E1,9.608875E0,1.2486585E0,2.5256098E1,9.455583E1,2.2325468E0,1.2409101E1,1.2487601E0,2.4840949E0,3.6897778E1,5.0307503E0,3.0613537E0,1.0035329E1,2.6532054E0,2.4153419E0,1.2319792E1,3.1832426E1,2.0563549E1,4.6925483E0,1.5019426E1,7.953641E1,1.3562424E1,2.3335354E1,2.3997273E0,2.631023E0,1.1843464E0,1.2309954E0,9.139984E0,3.1798074E0,8.187253E0,2.3645172E1,6.1092486E0,8.910177E0,1.1591622E1,1.970802E0,4.4720674E0,1.8863287E1],"tree_param":{"num_deleted":"0","num_feature":"5","num_nodes":"65","size_leaf_vector":"1"}},{"base_weights":[1.0186004E-2,-1.42278755E-2,1.0125456E0,-1.7287661E-1,2.0427684E-1,7.744269E-1,1.0431784E-1,-3.6658764E-1,1.5700117E-2,1.5700117E-2,3.5350847E-1,3.6604982E-2,6.817597E-2,-5.541235E-2,-3.4907353E-1,-1.7544377E-1,1.1513418E-3,1.1513418E-3,4.0599976E-2,1.3537647E-2,4.1325754E-1,-3.7415147E-1,-1.2865876E-2,-1.7544377E-1,-5.857267E-3,2.0643366E-3,1.3232367E-1,2.989309E-1,4.667676E-1,-3.708981E-2,-3.3415723E-1,-1.2865876E-2,-1.276578E-1,5.884036E-3,1.0506245E-2,2.19216E-2,3.8284928E-1,3.9851853E-1,3.6604982E-2,-3.0797336E-2,-2.0151824E-2,-1.1113724E-2,-9.361572E-3,2.4998607E-2,2.8075613E-2,2.8075613E-2,3.2682605E-2],"categories":[],"categories_nodes":[],"categories_segments":[],"categories_sizes":[],"default_left":[0,0,0,0,0,0,0,0,0,0,0,0,0,0,0,0,0,0,0,0,0,0,0,0,0,0,0,0,0,0,0,0,0,0,0,0,0,0,0,0,0,0,0,0,0,0,0],"id":10,"left_children":[1,3,5,7,9,11,-1,13,15,17,19,-1,-1,-1,21,23,-1,-1,25,-1,27,29,-1,31,-1,-1,33,35,37,-1,39,-1,41,-1,-1,-1,43,45,-1,-1,-1,-1,-1,-1,-1,-1,-1],"loss_changes":[1.193384E1,1.2971609E1,1.1113367E0,1.19582815E1,5.6865797E0,5.9656E-1,0E0,1.2555656E0,1.4289904E0,6.65222E-2,2.1546926E0,0E0,0E0,0E0,1.0944881E0,5.168532E-1,0E0,0E0,4.5308056E-1,0E0,7.271061E-1,7.397423E-1,0E0,7.949877E-2,0E0,0E0,2.7140498E-2,3.168509E-1,2.969675E-1,0E0,1.2136307E0,0E0,1.19825006E-1,0E0,0E0,0E0,6.0915947E-4,8.8023186E-2,0E0,0E0,0E0,0E0,0E0,0E0,0E0,0E0,0E0],"parents":[2147483647,0,0,1,1,2,2,3,3,4,4,5,5,7,7,8,8,9,9,10,10,14,14,15,15,18,18,20,20,21,21,23,23,26,26,27,27,28,28,30,30,32,32,36,36,37,37],"right_children":[2,4,6,8,10,12,-1,14,16,18,20,-1,-1,-1,22,24,-1,-1,26,-1,28,30,-1,32,-1,-1,34,36,38,-1,40,-1,42,-1,-1,-1,44,46,-1,-1,-1,-1,-1,-1,-1,-1,-1],"split_conditions":[4.3314724E0,1E0,7.6087313E0,1E0,0E0,0E0,1.0431784E-1,-4.61201E0,1E0,3E0,-2.3931804E0,3.6604982E-2,6.817597E-2,-5.541235E-2,2.3931804E0,1.4393541E-1,1.1513418E-3,1.1513418E-3,-2.7017007E0,1.3537647E-2,2E0,-3E0,-1.2865876E-2,0E0,-5.857267E-3,2.0643366E-3,4E0,1E0,5E0,-3.708981E-2,0E0,-1.2865876E-2,-1.8525511E0,5.884036E-3,1.0506245E-2,2.19216E-2,2E0,1.98E0,3.6604982E-2,-3.0797336E-2,-2.0151824E-2,-1.1113724E-2,-9.361572E-3,2.4998607E-2,2.8075613E-2,2.8075613E-2,3.2682605E-2],"split_indices":[3,4,3,1,2,1,0,3,2,4,3,0,0,0,3,3,0,0,3,0,4,4,0,4,0,0,4,2,4,0,2,0,3,0,0,0,2,3,0,0,0,0,0,0,0,0,0],"split_type":[0,0,0,0,0,0,0,0,0,0,0,0,0,0,0,0,0,0,0,0,0,0,0,0,0,0,0,0,0,0,0,0,0,0,0,0,0,0,0,0,0,0,0,0,0,0,0],"sum_hessian":[3.637845E2,3.5416077E2,9.623731E0,2.078353E2,1.4632547E2,7.63081E0,1.9929208E0,1.2974693E2,7.808836E1,5.35097E1,9.281577E1,2.9676738E0,4.663136E0,3.1297565E0,1.2661717E2,2.4038746E1,5.4049618E1,2.653807E1,2.697163E1,3.242413E0,8.9573364E1,1.2312349E2,3.493687E0,2.2293165E1,1.7455813E0,1.7403102E0,2.523132E1,2.5998156E1,6.3575207E1,2.2866755E1,1.0025674E2,1.6098888E1,6.194277E0,6.67833E0,1.855299E1,1.7572731E1,8.425426E0,4.9382378E1,1.4192827E1,3.385993E1,6.6396805E1,1.4853396E0,4.708937E0,7.207366E0,1.2180593E0,4.7902348E1,1.4800305E0],"tree_param":{"num_deleted":"0","num_feature":"5","num_nodes":"47","size_leaf_vector":"1"}},{"base_weights":[7.5343316E-3,-2.076736E-1,3.70188E-1,-3.4775913E-1,8.12572E-2,8.12572E-2,6.218424E-1,-4.6661907E-1,-9.771737E-3,-9.771737E-3,8.12572E-2,5.958861E-3,3.515498E-1,4.7070247E-1,9.164141E-1,-7.947927E-1,-3.6945093E-1,-1.9064379E-3,5.958861E-3,2.164035E-1,2.5780318E-2,2.5780318E-2,6.67046E-1,7.923432E-1,1.0117291E0,-9.655546E-1,-4.8077352E-2,-4.2688932E-2,-3.0231842E-1,1.586959E-2,2.8397664E-1,3.7348513E-2,6.935583E-1,5.0860938E-2,6.2151812E-2,9.020362E-1,9.199054E-2,-9.154779E-2,-5.9442345E-2,-4.4222015E-1,-2.99935E-1,1.8347273E-2,2.0824954E-2,4.4104725E-2,6.935583E-1,6.614932E-2,6.866695E-2,-3.2429475E-2,-2.7212355E-2,-2.7212355E-2,-2.1995233E-2,4.7482833E-2,5.0860938E-2],"categories":[],"categories_nodes":[],"categories_segments":[],"categories_sizes":[],"default_left":[0,0,0,0,0,0,0,0,0,0,0,0,0,0,0,0,0,0,0,0,0,0,0,0,0,0,0,0,0,0,0,0,0,0,0,0,0,0,0,0,0,0,0,0,0,0,0,0,0,0,0,0,0],"id":11,"left_children":[1,3,5,7,9,11,13,15,-1,-1,17,-1,19,21,23,25,27,-1,-1,29,-1,-1,31,33,35,37,-1,-1,39,-1,41,-1,43,-1,-1,45,-1,-1,-1,47,49,-1,-1,-1,51,-1,-1,-1,-1,-1,-1,-1,-1],"loss_changes":[2.9634764E1,1.0191395E1,1.538793E1,8.237343E0,2.4291217E0,2.2070088E0,4.1525383E0,4.5912113E0,0E0,0E0,1.1547463E0,0E0,2.6937962E-2,1.8844423E0,3.0581856E-1,7.181473E-1,2.6292849E0,0E0,0E0,2.2227895E-1,0E0,0E0,9.130678E-1,2.195816E-1,7.5957966E-1,1.04842E0,0E0,0E0,1.0996494E0,0E0,5.219817E-3,0E0,1.2837124E-1,0E0,0E0,7.3813915E-2,0E0,0E0,0E0,2.128601E-3,6.2419796E-1,0E0,0E0,0E0,4.0249825E-2,0E0,0E0,0E0,0E0,0E0,0E0,0E0,0E0],"parents":[2147483647,0,0,1,1,2,2,3,3,4,4,5,5,6,6,7,7,10,10,12,12,13,13,14,14,15,15,16,16,19,19,22,22,23,23,24,24,25,25,28,28,30,30,32,32,35,35,39,39,40,40,44,44],"right_children":[2,4,6,8,10,12,14,16,-1,-1,18,-1,20,22,24,26,28,-1,-1,30,-1,-1,32,34,36,38,-1,-1,40,-1,42,-1,44,-1,-1,46,-1,-1,-1,48,50,-1,-1,-1,52,-1,-1,-1,-1,-1,-1,-1,-1],"split_conditions":[6.4808356E5,1E0,0E0,1.2786274E0,-1.591975E9,1.0068391E9,1.5578386E8,-1.5578386E8,-9.771737E-3,-9.771737E-3,-2.7017007E0,5.958861E-3,0E0,1E0,1E0,-3.155829E9,-1E0,-1.9064379E-3,5.958861E-3,3.8468004E9,2.5780318E-2,2.5780318E-2,4.1083235E6,2.953715E8,3.667842E9,0E0,-4.8077352E-2,-4.2688932E-2,-2.1287246E0,1.586959E-2,-1E0,3.7348513E-2,1E0,5.0860938E-2,6.2151812E-2,1E0,9.199054E-2,-9.154779E-2,-5.9442345E-2,-4.3314724E0,0E0,1.8347273E-2,2.0824954E-2,4.4104725E-2,7.265859E6,6.614932E-2,6.866695E-2,-3.2429475E-2,-2.7212355E-2,-2.7212355E-2,-2.1995233E-2,4.7482833E-2,5.0860938E-2],"split_indices":[0,2,2,3,0,0,0,0,0,0,3,0,1,2,1,0,1,0,0,0,0,0,0,0,0,1,0,0,3,0,2,0,1,0,0,2,0,0,0,3,1,0,0,0,0,0,0,0,0,0,0,0,0],"split_type":[0,0,0,0,0,0,0,0,0,0,0,0,0,0,0,0,0,0,0,0,0,0,0,0,0,0,0,0,0,0,0,0,0,0,0,0,0,0,0,0,0,0,0,0,0,0,0,0,0,0,0,0,0],"sum_hessian":[3.630118E2,2.2608798E2,1.3692383E2,1.5639497E2,6.9693016E1,4.6875076E1,9.0048744E1,1.3673492E2,1.9660044E1,9.020767E0,6.0672245E1,3.6786095E1,1.0088982E1,6.1756996E1,2.8291748E1,2.8885664E1,1.0784926E2,4.9621654E0,5.571008E1,7.1430144E0,2.9459677E0,3.796164E1,2.3795359E1,1.6849894E1,1.1441855E1,9.745519E0,1.9140146E1,1.0244694E1,9.760457E1,3.462939E0,3.6800752E0,3.7203097E0,2.0075048E1,5.3063426E0,1.15435505E1,8.124854E0,3.3170009E0,3.7399628E0,6.0055556E0,1.3951408E1,8.365316E1,1.2301092E0,2.4499662E0,7.303191E0,1.2771857E1,3.7541733E0,4.3706813E0,5.7277775E0,8.223631E0,2.4127329E1,5.9525826E1,1.4590563E0,1.1312801E1],"tree_param":{"num_deleted":"0","num_feature":"5","num_nodes":"53","size_leaf_vector":"1"}},{"base_weights":[1.5266418E-2,-2.2495925E-2,7.0595044E-1,-4.3482313E-1,3.673506E-2,5.810679E-1,9.895068E-2,-6.4885503E-1,-3.19832E-1,-1.9904403E-1,1.6754976E-1,2.5059998E-2,6.7204857E-1,-5.584694E-2,-3.5518523E-2,-4.0567547E-1,-1.48136085E-2,-1.9904403E-1,-1.15479E-3,-1.5747137E-2,2.258725E-1,3.7171777E-2,5.450669E-2,-3.5518523E-2,-2.2281572E-2,-1.4596562E-2,-1.0739559E-1,-1.15479E-3,-0E0,1.0506268E-1,3.4172726E-1,-1.123612E-2,-7.875676E-3,1.0506268E-1,2.2339496E-1,2.5059998E-2,2.5059998E-2,7.704596E-3,1.2043447E-2,1.2043447E-2,1.6382296E-2],"categories":[],"categories_nodes":[],"categories_segments":[],"categories_sizes":[],"default_left":[0,0,0,0,0,0,0,0,0,0,0,0,0,0,0,0,0,0,0,0,0,0,0,0,0,0,0,0,0,0,0,0,0,0,0,0,0,0,0,0,0],"id":12,"left_children":[1,3,5,7,9,11,-1,13,15,17,19,-1,21,-1,-1,23,-1,25,-1,27,29,-1,-1,-1,-1,-1,31,-1,-1,33,35,-1,-1,37,39,-1,-1,-1,-1,-1,-1],"loss_changes":[1.1590927E1,9.680393E0,2.1428757E0,1.2125025E0,1.1969241E1,9.360285E-1,0E0,5.126281E-1,2.9643154E-1,1.4024887E0,4.3410645E0,0E0,3.3594418E-1,0E0,0E0,5.5977035E-1,0E0,4.2334414E-1,0E0,1.3717324E-2,5.169014E0,0E0,0E0,0E0,0E0,0E0,2.7385995E-1,0E0,0E0,1.8244636E0,1.9073486E-6,0E0,0E0,1.4004898E-1,2.3446226E-1,0E0,0E0,0E0,0E0,0E0,0E0],"parents":[2147483647,0,0,1,1,2,2,3,3,4,4,5,5,7,7,8,8,9,9,10,10,12,12,15,15,17,17,19,19,20,20,26,26,29,29,30,30,33,33,34,34],"right_children":[2,4,6,8,10,12,-1,14,16,18,20,-1,22,-1,-1,24,-1,26,-1,28,30,-1,-1,-1,-1,-1,32,-1,-1,34,36,-1,-1,38,40,-1,-1,-1,-1,-1,-1],"split_conditions":[2.3931804E0,-3E0,7.6087313E0,0E0,0E0,-5E0,9.895068E-2,-4E0,1E0,1.4393541E-1,-1.1370583E0,2.5059998E-2,0E0,-5.584694E-2,-3.5518523E-2,-5E0,-1.48136085E-2,0E0,-1.15479E-3,7E0,1E0,3.7171777E-2,5.450669E-2,-3.5518523E-2,-2.2281572E-2,-1.4596562E-2,-1.4393541E-1,-1.15479E-3,-0E0,1E0,-1E0,-1.123612E-2,-7.875676E-3,9.9E-1,-2E0,2.5059998E-2,2.5059998E-2,7.704596E-3,1.2043447E-2,1.2043447E-2,1.6382296E-2],"split_indices":[3,4,3,1,2,4,0,4,1,3,3,0,2,0,0,4,0,1,0,4,4,0,0,0,0,0,3,0,0,2,1,0,0,3,4,0,0,0,0,0,0],"split_type":[0,0,0,0,0,0,0,0,0,0,0,0,0,0,0,0,0,0,0,0,0,0,0,0,0,0,0,0,0,0,0,0,0,0,0,0,0,0,0,0,0],"sum_hessian":[3.6351385E2,3.4329666E2,2.0217186E1,4.5241077E1,2.980556E2,1.8232475E1,1.9847102E0,1.2772124E1,3.2468952E1,8.764677E1,2.1040883E2,1.7494792E0,1.6482996E1,8.236356E0,4.5357685E0,1.3874088E1,1.8594864E1,8.390597E1,3.7407987E0,1.6957775E1,1.9345105E2,4.9736485E0,1.1509348E1,4.2432914E0,9.630796E0,5.860223E1,2.5303738E1,1.521221E1,1.745565E0,1.1102144E2,8.242961E1,4.1743197E0,2.1129417E1,5.976728E1,5.1254158E1,1.4302585E0,8.099935E1,5.7023045E1,2.744236E0,6.1760826E0,4.5078075E1],"tree_param":{"num_deleted":"0","num_feature":"5","num_nodes":"41","size_leaf_vector":"1"}},{"base_weights":[1.7603645E-2,-3.037754E-1,2.0507288E-1,-4.7052082E-1,-4.935126E-2,1.2326476E-1,7.098834E-1,-7.432155E-1,-2.648189E-1,-1.9061975E-2,-3.6190923E-3,1.9911114E-2,4.1657406E-1,4.1657406E-1,9.506908E-1,-1.2241787E0,-5.290752E-1,-3.696126E-2,-2.5993603E-1,-4.503389E-2,1.6004456E-2,1.6004456E-2,3.0548763E-2,3.0548763E-2,4.243211E-1,5.0133042E-2,7.6228745E-2,-9.49267E-2,-6.428598E-2,-6.428598E-2,-5.0401723E-1,-3.5414237E-1,-1.9061975E-2,-4.935126E-2,8.660435E-2,3.0832822E-2,4.2906848E-1,-4.3246564E-2,-3.696126E-2,-2.8011618E-2,-2.2516208E-2,-4.935126E-2,1.3659466E-3,1.3659466E-3,8.660435E-2,3.114892E-2,4.2406484E-2,-3.6190923E-3,-1.1265728E-3,3.8584662E-3,6.3509853E-3],"categories":[],"categories_nodes":[],"categories_segments":[],"categories_sizes":[],"default_left":[0,0,0,0,0,0,0,0,0,0,0,0,0,0,0,0,0,0,0,0,0,0,0,0,0,0,0,0,0,0,0,0,0,0,0,0,0,0,0,0,0,0,0,0,0,0,0,0,0,0,0],"id":13,"left_children":[1,3,5,7,9,11,13,15,17,-1,-1,19,21,23,25,27,29,-1,31,33,-1,-1,-1,-1,35,-1,-1,-1,-1,-1,37,39,-1,41,43,-1,45,-1,-1,-1,-1,47,-1,-1,49,-1,-1,-1,-1,-1,-1],"loss_changes":[2.2653612E1,6.7931585E0,9.928729E0,4.7944984E0,2.813235E0,8.8995495E0,2.1111565E0,3.7838402E0,3.192936E0,0E0,0E0,4.906193E0,1.0204792E0,1.635003E-2,5.530386E-1,2.5316048E-1,1.0405855E0,0E0,2.980795E-1,2.1109722E0,0E0,0E0,0E0,0E0,9.952545E-3,0E0,0E0,0E0,0E0,0E0,2.5895786E-1,2.7281237E-1,0E0,3.2509375E-1,9.239006E-1,0E0,3.8337755E-1,0E0,0E0,0E0,0E0,1.09004855E-1,0E0,0E0,1.2847948E-1,0E0,0E0,0E0,0E0,0E0,0E0],"parents":[2147483647,0,0,1,1,2,2,3,3,4,4,5,5,6,6,7,7,8,8,11,11,12,12,13,13,14,14,15,15,16,16,18,18,19,19,24,24,30,30,31,31,33,33,34,34,36,36,41,41,44,44],"right_children":[2,4,6,8,10,12,14,16,18,-1,-1,20,22,24,26,28,30,-1,32,34,-1,-1,-1,-1,36,-1,-1,-1,-1,-1,38,40,-1,42,44,-1,46,-1,-1,-1,-1,48,-1,-1,50,-1,-1,-1,-1,-1,-1],"split_conditions":[-4.15024E5,1E0,3.3836685E8,0E0,-2E0,4E0,1E0,-2.953715E8,0E0,-1.9061975E-2,-3.6190923E-3,2.3931804E0,-2.3931804E0,-4E0,2.299519E9,-1E0,-5E0,-3.696126E-2,2E0,8.943216E6,1.6004456E-2,1.6004456E-2,3.0548763E-2,3.0548763E-2,0E0,5.0133042E-2,7.6228745E-2,-9.49267E-2,-6.428598E-2,-6.428598E-2,-3.6915316E7,-1.6298299E8,-1.9061975E-2,2E0,0E0,3.0832822E-2,0E0,-4.3246564E-2,-3.696126E-2,-2.8011618E-2,-2.2516208E-2,3E0,1.3659466E-3,1.3659466E-3,-2E0,3.114892E-2,4.2406484E-2,-3.6190923E-3,-1.1265728E-3,3.8584662E-3,6.3509853E-3],"split_indices":[0,2,0,4,4,4,4,0,2,0,0,3,3,4,0,4,4,0,4,0,0,0,0,0,2,0,0,0,0,0,0,0,0,2,2,0,4,0,0,0,0,4,0,0,4,0,0,0,0,0,0],"split_type":[0,0,0,0,0,0,0,0,0,0,0,0,0,0,0,0,0,0,0,0,0,0,0,0,0,0,0,0,0,0,0,0,0,0,0,0,0,0,0,0,0,0,0,0,0,0,0,0,0,0,0],"sum_hessian":[3.613328E2,1.3115654E2,2.3017624E2,8.427856E1,4.6877987E1,1.9978122E2,3.0395021E1,3.414794E1,5.013062E1,1.3758781E1,3.3119205E1,1.6711107E2,3.2670147E1,1.5516923E1,1.4878098E1,9.081312E0,2.506663E1,2.1822102E1,2.8308516E1,1.5229646E2,1.4814609E1,2.9834044E0,2.968674E1,1.2442048E0,1.4272718E1,3.5334857E0,1.1344612E1,6.928372E0,2.1529405E0,1.7943412E0,2.3272287E1,1.2357075E1,1.5951441E1,8.197566E1,7.032079E1,5.2387304E0,9.033988E0,1.19166565E1,1.1355631E1,3.3743558E0,8.982719E0,7.9252914E1,2.7227464E0,2.3167587E1,4.715321E1,5.421063E0,3.6129253E0,7.407911E1,5.173807E0,1.1455795E1,3.5697414E1],"tree_param":{"num_deleted":"0","num_feature":"5","num_nodes":"51","size_leaf_vector":"1"}},{"base_weights":[4.0095374E-3,-6.1664905E-2,5.925605E-1,-2.7645284E-1,2.4827214E-1,5.10845E-1,9.834949E-2,-6.686301E-1,-1.9746634E-1,-0E0,2.6544783E-1,1.9466173E-2,6.683043E-1,-8.8620895E-1,-5.451076E-1,-4.3304825E-1,-1.2932429E-1,-1.4090352E-2,9.733086E-3,1.3272391E-1,2.6544783E-1,5.864825E-1,7.9282266E-1,-8.548548E-2,-5.2481607E-2,-5.2481607E-2,-4.3304825E-1,-4.3304825E-1,-2.0620327E-2,-2.8118628E-1,-4.672644E-2,-1.0332924E-3,4.349897E-3,1.3272391E-1,1.9908586E-1,1.459963E-2,1.9466173E-2,4.668761E-1,4.526789E-2,5.057452E-2,6.790573E-2,-5.743533E-1,-3.175687E-2,-3.175687E-2,-2.6188599E-2,-2.0620327E-2,-2.0363654E-1,-1.2023466E-2,-1.4090352E-2,9.733086E-3,1.2166358E-2,1.2166358E-2,1.459963E-2,3.423758E-2,3.8304694E-2,-4.211924E-2,-3.6938053E-2,-1.7776836E-2,-1.2023466E-2,-1.8419548E-3,-1.0332924E-3],"categories":[],"categories_nodes":[],"categories_segments":[],"categories_sizes":[],"default_left":[0,0,0,0,0,0,0,0,0,0,0,0,0,0,0,0,0,0,0,0,0,0,0,0,0,0,0,0,0,0,0,0,0,0,0,0,0,0,0,0,0,0,0,0,0,0,0,0,0,0,0,0,0,0,0,0,0,0,0,0,0],"id":14,"left_children":[1,3,5,7,9,11,-1,13,15,17,19,-1,21,23,25,27,29,31,-1,33,35,37,39,-1,-1,-1,41,43,-1,45,47,-1,-1,49,51,-1,-1,53,-1,-1,-1,55,-1,-1,-1,-1,57,-1,59,-1,-1,-1,-1,-1,-1,-1,-1,-1,-1,-1,-1],"loss_changes":[1.5515037E1,2.2053888E1,2.9341984E0,6.171417E0,3.6195335E0,2.8828564E0,0E0,8.890848E-1,3.3917832E0,1.3348602E0,1.067482E0,0E0,3.3479404E-1,1.0604882E0,6.635022E-1,8.0588627E-1,2.2552786E0,5.143099E-1,0E0,3.0015394E-1,9.636974E-2,8.345604E-2,6.1954546E-1,0E0,0E0,0E0,6.680641E-1,6.235218E-2,0E0,3.399372E-3,2.1909974E0,0E0,0E0,1.21059775E-1,3.2167196E-2,0E0,0E0,1.2689114E-1,0E0,0E0,0E0,1.0052776E-1,0E0,0E0,0E0,0E0,2.456429E-1,0E0,3.012801E-2,0E0,0E0,0E0,0E0,0E0,0E0,0E0,0E0,0E0,0E0,0E0,0E0],"parents":[2147483647,0,0,1,1,2,2,3,3,4,4,5,5,7,7,8,8,9,9,10,10,12,12,13,13,14,14,15,15,16,16,17,17,19,19,20,20,21,21,22,22,26,26,27,27,29,29,30,30,33,33,34,34,37,37,41,41,46,46,48,48],"right_children":[2,4,6,8,10,12,-1,14,16,18,20,-1,22,24,26,28,30,32,-1,34,36,38,40,-1,-1,-1,42,44,-1,46,48,-1,-1,50,52,-1,-1,54,-1,-1,-1,56,-1,-1,-1,-1,58,-1,60,-1,-1,-1,-1,-1,-1,-1,-1,-1,-1,-1,-1],"split_conditions":[1.4393541E-1,4.15024E5,7.6087313E0,-3E0,0E0,-3E0,9.834949E-2,0E0,-3.3836685E8,3E0,-1E0,1.9466173E-2,4.3314724E0,-2.9481815E6,-2.7017007E0,3E0,0E0,2.953715E8,9.733086E-3,1.4443346E8,1.1888E6,1.2786274E0,0E0,-8.548548E-2,-5.2481607E-2,-5.2481607E-2,0E0,2E0,-2.0620327E-2,-1.4393541E-1,-2.3931804E0,-1.0332924E-3,4.349897E-3,2E0,-3E0,1.459963E-2,1.9466173E-2,0E0,4.526789E-2,5.057452E-2,6.790573E-2,-5E0,-3.175687E-2,-3.175687E-2,-2.6188599E-2,-2.0620327E-2,1E0,-1.2023466E-2,2E0,9.733086E-3,1.2166358E-2,1.2166358E-2,1.459963E-2,3.423758E-2,3.8304694E-2,-4.211924E-2,-3.6938053E-2,-1.7776836E-2,-1.2023466E-2,-1.8419548E-3,-1.0332924E-3],"split_indices":[3,0,3,4,1,4,0,1,0,4,4,0,3,0,3,4,1,0,0,0,0,3,1,0,0,0,0,1,0,3,3,0,0,1,4,0,0,1,0,0,0,4,0,0,0,0,4,0,4,0,0,0,0,0,0,0,0,0,0,0,0],"split_type":[0,0,0,0,0,0,0,0,0,0,0,0,0,0,0,0,0,0,0,0,0,0,0,0,0,0,0,0,0,0,0,0,0,0,0,0,0,0,0,0,0,0,0,0,0,0,0,0,0,0,0,0,0,0,0,0,0,0,0,0,0],"sum_hessian":[3.5401636E2,3.169499E2,3.7066467E1,1.8911719E2,1.27832695E2,3.462284E1,2.4436266E0,2.9581436E1,1.5953575E2,5.0848778E1,7.698392E1,5.9530463E0,2.8669796E1,7.780604E0,2.1800833E1,2.5309729E1,1.3422601E2,3.976045E1,1.1088328E1,2.0067263E1,5.6916656E1,2.2147484E1,6.522311E0,3.5932405E0,4.1873636E0,2.8438635E0,1.8956968E1,2.0376408E1,4.933321E0,3.3882893E1,1.00343124E2,3.0516739E1,9.24371E0,1.3897892E1,6.169371E0,1.9813049E0,5.4935352E1,7.177754E0,1.496973E1,2.1804116E0,4.3419E0,1.3310708E1,5.6462603E0,1.8447428E1,1.9289794E0,7.5278306E0,2.6355062E1,9.81755E0,9.052557E1,1.0943759E1,2.9541323E0,2.7215514E0,3.44782E0,1.9857886E0,5.1919656E0,3.3914316E0,9.919277E0,1.1500997E1,1.4854067E1,6.639492E1,2.4130653E1],"tree_param":{"num_deleted":"0","num_feature":"5","num_nodes":"61","size_leaf_vector":"1"}},{"base_weights":[4.279213E-3,-8.651728E-1,5.954159E-2,-9.510601E-1,-2.953981E-2,9.79309E-3,7.6301503E-1,-7.301858E-2,-4.964211E-2,-1.9183683E-1,1.6338052E-1,5.162658E-1,9.885086E-1,-3.2428506E-1,-1.4228158E-2,-1.4228158E-2,3.5057792E-1,2.8336298E-2,5.5175055E-2,7.8399724E-1,8.6476505E-2,-3.4845614E-1,-1.6925661E-1,-1.6925661E-1,-1.0433982E-3,-1.4228158E-2,1.6817488E-1,1.6817488E-1,3.8640407E-1,7.5238717E-1,7.198481E-2,-2.953981E-2,-3.0286288E-1,-1.8982802E-2,-1.2412151E-2,-1.2412151E-2,-6.727774E-3,-1.0433982E-3,-0E0,5.644713E-3,1.2332824E-2,1.2332824E-2,2.7728948E-1,2.033456E-2,2.8336298E-2,5.5175055E-2,6.357993E-2,-2.3692438E-2,-2.0935824E-2,1.6333694E-2,2.033456E-2],"categories":[],"categories_nodes":[],"categories_segments":[],"categories_sizes":[],"default_left":[0,0,0,0,0,0,0,0,0,0,0,0,0,0,0,0,0,0,0,0,0,0,0,0,0,0,0,0,0,0,0,0,0,0,0,0,0,0,0,0,0,0,0,0,0,0,0,0,0,0,0],"id":15,"left_children":[1,3,5,7,-1,9,11,-1,-1,13,15,17,19,21,23,25,27,-1,-1,29,-1,31,33,35,-1,37,39,41,43,45,-1,-1,47,-1,-1,-1,-1,-1,-1,-1,-1,-1,49,-1,-1,-1,-1,-1,-1,-1,-1],"loss_changes":[1.790193E1,1.5240059E0,1.2242594E1,2.8694344E-1,0E0,1.028093E1,1.1217899E0,0E0,0E0,4.0878735E0,9.727509E0,6.041827E-1,3.2227993E-1,5.9071255E-1,9.6076035E-1,1.5305753E0,1.6145668E0,0E0,0E0,4.753132E-1,0E0,3.7959576E-1,3.0886808E-1,1.7325306E-1,0E0,1.2619793E-3,3.9816082E-1,9.3846947E-1,4.6147728E-1,2.744696E-1,0E0,0E0,2.7592182E-2,0E0,0E0,0E0,0E0,0E0,0E0,0E0,0E0,0E0,8.641291E-2,0E0,0E0,0E0,0E0,0E0,0E0,0E0,0E0],"parents":[2147483647,0,0,1,1,2,2,3,3,5,5,6,6,9,9,10,10,11,11,12,12,13,13,14,14,15,15,16,16,19,19,21,21,22,22,23,23,25,25,26,26,27,27,28,28,29,29,32,32,42,42],"right_children":[2,4,6,8,-1,10,12,-1,-1,14,16,18,20,22,24,26,28,-1,-1,30,-1,32,34,36,-1,38,40,42,44,46,-1,-1,48,-1,-1,-1,-1,-1,-1,-1,-1,-1,50,-1,-1,-1,-1,-1,-1,-1,-1],"split_conditions":[-2.1287246E0,7E0,2.1287246E0,-2.7017007E0,-2.953981E-2,0E0,4.3314724E0,-7.301858E-2,-4.964211E-2,1E0,0E0,4E0,1E0,1.4393541E-1,-2E0,4E0,1E0,2.8336298E-2,5.5175055E-2,7.6087313E0,8.6476505E-2,-1E0,-2E0,2E0,-1.0433982E-3,1.4393541E-1,-1E0,1E0,-1.1370583E0,5E0,7.198481E-2,-2.953981E-2,-5E0,-1.8982802E-2,-1.2412151E-2,-1.2412151E-2,-6.727774E-3,-1.0433982E-3,-0E0,5.644713E-3,1.2332824E-2,1.2332824E-2,-1.4393541E-1,2.033456E-2,2.8336298E-2,5.5175055E-2,6.357993E-2,-2.3692438E-2,-2.0935824E-2,1.6333694E-2,2.033456E-2],"split_indices":[3,4,3,3,0,4,3,0,0,2,2,4,2,3,4,4,4,0,0,3,0,1,4,1,0,3,2,1,3,4,0,0,4,0,0,0,0,0,0,0,0,0,3,0,0,0,0,0,0,0,0],"split_type":[0,0,0,0,0,0,0,0,0,0,0,0,0,0,0,0,0,0,0,0,0,0,0,0,0,0,0,0,0,0,0,0,0,0,0,0,0,0,0,0,0,0,0,0,0,0,0,0,0,0,0],"sum_hessian":[3.5103848E2,1.9897194E1,3.311413E2,1.8650215E1,1.2469792E0,3.1059784E2,2.0543457E1,1.573681E1,2.9134047E0,1.3147986E2,1.79118E2,1.1926951E1,8.616506E0,8.2909096E1,4.857076E1,6.638149E1,1.12736496E2,9.579714E0,2.347238E0,6.6880655E0,1.9284401E0,7.894103E1,3.9680605E0,2.1345266E1,2.722549E1,4.9975334E1,1.6406158E1,3.382108E1,7.891542E1,5.2425485E0,1.4455167E0,8.469693E0,7.047134E1,1.7240319E0,2.2440283E0,1.7153957E1,4.1913095E0,4.8476124E1,1.499208E0,2.445499E0,1.396066E1,1.9523937E1,1.4297144E1,2.9880729E0,7.5927345E1,3.6384115E0,1.6041372E0,5.9695287E0,6.450181E1,1.2479095E0,1.3049234E1],"tree_param":{"num_deleted":"0","num_feature":"5","num_nodes":"51","size_leaf_vector":"1"}},{"base_weights":[3.5429936E-2,-9.790438E-1,6.490063E-2,-1.1424663E0,-3.351858E-2,2.6152337E-2,7.2436154E-1,-8.780146E-2,-5.864972E-2,-3.447348E-1,8.7168954E-2,3.1213362E-2,9.831989E-1,-4.4471592E-1,-1.5277112E-1,2.8791914E-2,3.7525693E-1,7.044178E-1,8.911615E-2,-4.5707157E-1,-2.1907857E-2,-1.2926316E-2,-9.44408E-3,-7.5676374E-2,2.0202442E-1,1.4815123E-2,3.7525693E-1,5.1657304E-2,7.038672E-2,-3.351858E-2,-2.7713219E-2,-1.2878291E-1,6.3174024E-2,4.6327617E-3,2.0202442E-1,2.1166982E-2,2.751884E-2,-9.44408E-3,-2.405659E-3,-2.405659E-3,4.6327617E-3,9.723943E-3,1.4815123E-2],"categories":[],"categories_nodes":[],"categories_segments":[],"categories_sizes":[],"default_left":[0,0,0,0,0,0,0,0,0,0,0,0,0,0,0,0,0,0,0,0,0,0,0,0,0,0,0,0,0,0,0,0,0,0,0,0,0,0,0,0,0,0,0],"id":16,"left_children":[1,3,5,7,-1,9,11,-1,-1,13,15,-1,17,19,21,23,25,27,-1,29,-1,-1,-1,31,33,-1,35,-1,-1,-1,-1,37,39,-1,41,-1,-1,-1,-1,-1,-1,-1,-1],"loss_changes":[1.1552141E1,7.467613E-1,9.32398E0,1.6300678E-1,0E0,7.866396E0,1.310895E0,0E0,0E0,7.3971605E-1,5.5906043E0,0E0,4.9427414E-1,4.8565865E-2,6.932318E-2,6.9879775E0,7.754297E-1,6.774626E-1,0E0,2.0095873E-1,0E0,0E0,0E0,3.3147016E0,1.3194957E0,0E0,2.99901E-1,0E0,0E0,0E0,0E0,4.779544E-1,1.4191188E0,0E0,3.7664127E-1,0E0,0E0,0E0,0E0,0E0,0E0,0E0,0E0],"parents":[2147483647,0,0,1,1,2,2,3,3,5,5,6,6,9,9,10,10,12,12,13,13,14,14,15,15,16,16,17,17,19,19,23,23,24,24,26,26,31,31,32,32,34,34],"right_children":[2,4,6,8,-1,10,12,-1,-1,14,16,-1,18,20,22,24,26,28,-1,30,-1,-1,-1,32,34,-1,36,-1,-1,-1,-1,38,40,-1,42,-1,-1,-1,-1,-1,-1,-1,-1],"split_conditions":[-4.3314724E0,1E0,2.3931804E0,1E0,-3.351858E-2,-3E0,4.3314724E0,-8.780146E-2,-5.864972E-2,1E0,4E0,3.1213362E-2,1E0,-4E0,2E0,1E0,-2.3931804E0,7.6087313E0,8.911615E-2,1E0,-2.1907857E-2,-1.2926316E-2,-9.44408E-3,1E0,1E0,1.4815123E-2,-1E0,5.1657304E-2,7.038672E-2,-3.351858E-2,-2.7713219E-2,1.4393541E-1,0E0,4.6327617E-3,-1.4393541E-1,2.1166982E-2,2.751884E-2,-9.44408E-3,-2.405659E-3,-2.405659E-3,4.6327617E-3,9.723943E-3,1.4815123E-2],"split_indices":[3,1,3,2,0,4,3,0,0,1,4,0,2,4,1,2,3,3,0,2,0,0,0,4,1,0,2,0,0,0,0,3,2,0,3,0,0,0,0,0,0,0,0],"split_type":[0,0,0,0,0,0,0,0,0,0,0,0,0,0,0,0,0,0,0,0,0,0,0,0,0,0,0,0,0,0,0,0,0,0,0,0,0,0,0,0,0,0,0],"sum_hessian":[3.4950568E2,8.908687E0,3.40597E2,6.06075E0,2.8479366E0,3.2312723E2,1.7469767E1,4.8418703E0,1.21888E0,4.333403E1,2.7979318E2,9.903522E0,7.5662446E0,2.50683E1,1.826573E1,2.409962E2,3.8796986E1,5.1966596E0,2.3695853E0,1.6637142E1,8.431157E0,1.4564418E1,3.7013125E0,1.727007E2,6.82955E1,1.4932038E0,3.730378E1,3.540904E0,1.6557554E0,1.326217E1,3.3749726E0,9.863617E1,7.406453E1,2.1597332E1,4.669817E1,1.2165922E0,3.608719E1,9.415452E1,4.4816513E0,3.0778057E1,4.3286476E1,1.7390392E0,4.4959133E1],"tree_param":{"num_deleted":"0","num_feature":"5","num_nodes":"43","size_leaf_vector":"1"}},{"base_weights":[1.6600588E-2,-1.0126624E-2,5.5825573E-1,-6.505554E-2,2.7406454E-1,4.7105387E-1,6.447574E-2,-3.6465564E-1,-9.612411E-3,7.6636625E-3,2.7406454E-1,3.803626E-1,4.9509842E-2,-3.846482E-1,-1.3723161E-2,-1.8713403E-1,1.0203111E-1,1.3880864E-2,2.0098066E-2,2.0098066E-2,4.34843E-1,-3.4572344E-2,-3.4800625E-1,-1.8713403E-1,-3.12044E-3,-2.503255E-2,1.04504496E-1,2.5993276E-2,5.167098E-1,-3.7613368E-1,-2.0965347E-2,-1.3723161E-2,-8.421801E-3,-4.2551458E-2,3.9735973E-2,2.9139712E-3,1.04504496E-1,3.1942666E-2,3.870155E-2,-3.0046402E-2,-2.4274241E-2,-3.12044E-3,-1.03234444E-4,-1.03234444E-4,2.9139712E-3,5.288817E-3,7.6636625E-3],"categories":[],"categories_nodes":[],"categories_segments":[],"categories_sizes":[],"default_left":[0,0,0,0,0,0,0,0,0,0,0,0,0,0,0,0,0,0,0,0,0,0,0,0,0,0,0,0,0,0,0,0,0,0,0,0,0,0,0,0,0,0,0,0,0,0,0],"id":17,"left_children":[1,3,5,7,9,11,-1,13,15,-1,17,19,-1,21,-1,23,25,-1,-1,-1,27,-1,29,31,-1,33,35,-1,37,39,-1,-1,-1,41,43,-1,45,-1,-1,-1,-1,-1,-1,-1,-1,-1,-1],"loss_changes":[6.65873E0,6.9953256E0,7.381897E-1,5.0631056E0,4.9376535E-1,4.681568E-1,0E0,2.819543E-1,7.87305E0,0E0,1.9170809E-1,2.9506326E-1,0E0,1.7902565E-1,0E0,7.2715855E-1,1.5802374E0,0E0,0E0,0E0,2.1582031E-1,0E0,8.708286E-2,4.065237E-1,0E0,9.886402E-1,9.556937E-1,0E0,2.7122736E-2,1.5036964E-1,0E0,0E0,0E0,9.416354E-2,9.563604E-2,0E0,1.1368275E-2,0E0,0E0,0E0,0E0,0E0,0E0,0E0,0E0,0E0,0E0],"parents":[2147483647,0,0,1,1,2,2,3,3,4,4,5,5,7,7,8,8,10,10,11,11,13,13,15,15,16,16,20,20,22,22,23,23,25,25,26,26,28,28,29,29,33,33,34,34,36,36],"right_children":[2,4,6,8,10,12,-1,14,16,-1,18,20,-1,22,-1,24,26,-1,-1,-1,28,-1,30,32,-1,34,36,-1,38,40,-1,-1,-1,42,44,-1,46,-1,-1,-1,-1,-1,-1,-1,-1,-1,-1],"split_conditions":[2.7017007E0,4E0,7.6087313E0,-3E0,-2.9473588E0,2E0,6.447574E-2,2E0,0E0,7.6636625E-3,-1E0,-6E0,4.9509842E-2,-2.1287246E0,-1.3723161E-2,0E0,0E0,1.3880864E-2,2.0098066E-2,2.0098066E-2,4.61201E0,-3.4572344E-2,-4E0,1.4393541E-1,-3.12044E-3,1E0,-1.4393541E-1,2.5993276E-2,5E0,1E0,-2.0965347E-2,-1.3723161E-2,-8.421801E-3,1.4393541E-1,-1.4393541E-1,2.9139712E-3,-1E0,3.1942666E-2,3.870155E-2,-3.0046402E-2,-2.4274241E-2,-3.12044E-3,-1.03234444E-4,-1.03234444E-4,2.9139712E-3,5.288817E-3,7.6636625E-3],"split_indices":[3,4,3,4,3,1,0,2,2,0,2,4,0,3,0,1,4,0,0,0,3,0,4,3,0,2,3,0,4,2,0,0,0,3,3,0,1,0,0,0,0,0,0,0,0,0,0],"split_type":[0,0,0,0,0,0,0,0,0,0,0,0,0,0,0,0,0,0,0,0,0,0,0,0,0,0,0,0,0,0,0,0,0,0,0,0,0,0,0,0,0,0,0,0,0,0,0],"sum_hessian":[3.4586316E2,3.2784015E2,1.8023005E1,2.9011E2,3.7730167E1,1.6622478E1,1.4005262E0,4.248667E1,2.4762332E2,2.219689E0,3.551048E1,1.544299E1,1.1794883E0,4.052331E1,1.9633609E0,7.130331E1,1.7632E2,2.19851E0,3.331197E1,1.4932517E0,1.39497385E1,3.92801E0,3.65953E1,5.0076385E1,2.1226921E1,7.8504585E1,9.781542E1,8.547067E0,5.402672E0,2.1123459E1,1.5471841E1,4.8329918E1,1.7464671E0,4.1949776E1,3.655481E1,8.38389E0,8.943153E1,4.263478E0,1.1391935E0,1.1585459E1,9.538001E0,3.9953217E1,1.9965621E0,1.7207948E0,3.4834015E1,1.6720793E0,8.775945E1],"tree_param":{"num_deleted":"0","num_feature":"5","num_nodes":"47","size_leaf_vector":"1"}},{"base_weights":[-7.8744185E-4,-7.6667744E-1,3.7071116E-2,-9.375749E-2,-6.1379576E-1,-1.6154657E-1,1.7954907E-1,-6.5634644E-1,-2.6752232E-2,-2.0642284E-1,6.6009146E-4,9.001248E-3,3.2873127E-1,-5.7880484E-2,-5.105748E-1,-2.9803216E-1,-9.871079E-2,6.6009146E-4,1.2383525E-2,2.6786843E-1,7.9563487E-1,-3.9563585E-2,-3.744215E-2,-2.3195852E-2,-1.9837147E-1,-1.9837147E-1,-7.238791E-3,1.6886626E-1,3.920348E-1,7.04178E-1,6.1896887E-2,-1.8871546E-2,-1.4547241E-2,-1.4547241E-2,-1.0893015E-2,1.6886626E-1,2.8045052E-1,3.392362E-1,4.9282855E-1,3.8995117E-2,5.5893436E-2,1.2383525E-2,1.647495E-2,1.647495E-2,2.056637E-2,2.0820169E-2,2.748755E-2,3.050904E-2,3.8995117E-2],"categories":[],"categories_nodes":[],"categories_segments":[],"categories_sizes":[],"default_left":[0,0,0,0,0,0,0,0,0,0,0,0,0,0,0,0,0,0,0,0,0,0,0,0,0,0,0,0,0,0,0,0,0,0,0,0,0,0,0,0,0,0,0,0,0,0,0,0,0],"id":18,"left_children":[1,3,5,-1,7,9,11,13,-1,15,-1,17,19,-1,21,23,25,-1,-1,27,29,-1,-1,-1,31,33,-1,35,37,39,-1,-1,-1,-1,-1,41,43,45,47,-1,-1,-1,-1,-1,-1,-1,-1,-1,-1],"loss_changes":[1.2540995E1,1.7535782E0,1.008189E1,0E0,3.315177E-1,2.2647462E0,7.7960873E0,3.5533762E-1,0E0,2.0136676E0,0E0,9.7545666E-1,4.087145E0,0E0,6.3155174E-2,3.1529236E-1,7.8835475E-1,0E0,0E0,1.9368467E0,1.4713287E-2,0E0,0E0,0E0,1.4762151E-1,2.0873165E-1,0E0,7.826501E-1,3.5042667E-1,2.5792313E-1,0E0,0E0,0E0,0E0,0E0,3.1178528E-1,6.1645985E-2,6.6530704E-2,2.7705193E-1,0E0,0E0,0E0,0E0,0E0,0E0,0E0,0E0,0E0,0E0],"parents":[2147483647,0,0,1,1,2,2,4,4,5,5,6,6,7,7,9,9,11,11,12,12,14,14,15,15,16,16,19,19,20,20,24,24,25,25,27,27,28,28,29,29,35,35,36,36,37,37,38,38],"right_children":[2,4,6,-1,8,10,12,14,-1,16,-1,18,20,-1,22,24,26,-1,-1,28,30,-1,-1,-1,32,34,-1,36,38,40,-1,-1,-1,-1,-1,42,44,46,48,-1,-1,-1,-1,-1,-1,-1,-1,-1,-1],"split_conditions":[-2.1287246E0,-6.7519965E0,0E0,-9.375749E-2,2E0,2.9473588E0,0E0,-4.3314724E0,-2.6752232E-2,1E0,6.6009146E-4,2.7017007E0,2E0,-5.7880484E-2,1E0,9.9E-1,-3E0,6.6009146E-4,1.2383525E-2,2E0,1.4393541E-1,-3.9563585E-2,-3.744215E-2,-2.3195852E-2,-3E0,2E0,-7.238791E-3,1E0,5E0,1E0,6.1896887E-2,-1.8871546E-2,-1.4547241E-2,-1.4547241E-2,-1.0893015E-2,1.2786274E0,1E0,1E0,0E0,3.8995117E-2,5.5893436E-2,1.2383525E-2,1.647495E-2,1.647495E-2,2.056637E-2,2.0820169E-2,2.748755E-2,3.050904E-2,3.8995117E-2],"split_indices":[3,3,4,0,2,3,2,3,0,2,0,3,1,0,2,3,4,0,0,4,3,0,0,0,4,2,0,2,4,2,0,0,0,0,0,3,1,1,1,0,0,0,0,0,0,0,0,0,0],"split_type":[0,0,0,0,0,0,0,0,0,0,0,0,0,0,0,0,0,0,0,0,0,0,0,0,0,0,0,0,0,0,0,0,0,0,0,0,0,0,0,0,0,0,0,0,0,0,0,0,0],"sum_hessian":[3.5196732E2,1.7822706E1,3.3414462E2,2.5947433E0,1.5227964E1,1.3664273E2,1.9750188E2,1.4006405E1,1.2215593E0,1.3250998E2,4.1327524E0,6.796335E1,1.2953853E2,4.9834933E0,9.022911E0,8.4769615E1,4.7740356E1,6.48277E1,3.1356518E0,1.16494736E2,1.3043802E1,6.3301706E0,2.6927404E0,8.057451E1,4.1951056E0,1.5641845E1,3.2098515E1,5.9665604E1,5.682913E1,1.1664345E1,1.379458E0,2.6981132E0,1.4969922E0,1.41738825E1,1.4679624E0,3.771436E1,2.1951246E1,4.38044E1,1.3024727E1,2.4606683E0,9.203676E0,3.3873444E1,3.8409128E0,8.73108E0,1.3220166E1,2.814792E1,1.5656482E1,3.4778826E0,9.5468445E0],"tree_param":{"num_deleted":"0","num_feature":"5","num_nodes":"49","size_leaf_vector":"1"}},{"base_weights":[1.812853E-2,-5.0842177E-2,7.5039744E-1,-4.6557406E-1,4.166726E-3,6.9621676E-1,7.124494E-2,-7.309621E-1,-3.4338695E-1,-2.0456342E-2,3.4977764E-1,4.061578E-2,8.0085605E-1,-9.1002285E-2,-5.371745E-1,-4.682101E-1,-1.6918268E-2,-1.2007409E-1,1.4170961E-1,1.2075114E-2,3.4977764E-1,6.773538E-1,8.3386934E-1,-4.5420166E-2,-3.9392795E-2,-5.371745E-1,-2.5626836E-2,-1.6918268E-2,-4.563105E-2,3.1765766E-2,1.6466065E-1,1.8862735E-2,2.565036E-2,4.967261E-2,5.541151E-2,5.541151E-2,6.1150417E-2,-3.9392795E-2,-3.2509815E-2,-1.3816735E-1,1.0817759E-2,1.0817759E-2,7.2023016E-3,7.2023016E-3,1.2075114E-2,-1.0132272E-2,-4.6694847E-3,-4.6694847E-3,7.9330226E-4,7.9330226E-4,1.6523848E-3],"categories":[],"categories_nodes":[],"categories_segments":[],"categories_sizes":[],"default_left":[0,0,0,0,0,0,0,0,0,0,0,0,0,0,0,0,0,0,0,0,0,0,0,0,0,0,0,0,0,0,0,0,0,0,0,0,0,0,0,0,0,0,0,0,0,0,0,0,0,0,0],"id":19,"left_children":[1,3,5,7,9,11,-1,13,15,17,19,-1,21,-1,23,25,-1,27,29,-1,31,33,35,-1,-1,37,-1,-1,39,41,43,-1,-1,-1,-1,-1,-1,-1,-1,45,47,49,-1,-1,-1,-1,-1,-1,-1,-1,-1],"loss_changes":[2.0137505E1,8.648752E0,5.4683304E-1,1.4355564E0,3.793292E0,3.9578342E-1,0E0,2.4883757E0,1.09412E0,4.713321E0,1.7135763E-1,0E0,4.241333E-1,0E0,1.716069E-1,9.2206573E-1,0E0,2.8028882E0,1.0270195E0,0E0,6.22046E-2,2.5529504E-1,1.5723991E-1,0E0,0E0,9.782791E-3,0E0,0E0,2.9841678E0,6.6466534E-1,9.4807625E-2,0E0,0E0,0E0,0E0,0E0,0E0,0E0,0E0,4.9238873E-1,9.115968E-1,2.7902726E-2,0E0,0E0,0E0,0E0,0E0,0E0,0E0,0E0,0E0],"parents":[2147483647,0,0,1,1,2,2,3,3,4,4,5,5,7,7,8,8,9,9,10,10,12,12,14,14,15,15,17,17,18,18,20,20,21,21,22,22,25,25,28,28,29,29,30,30,39,39,40,40,41,41],"right_children":[2,4,6,8,10,12,-1,14,16,18,20,-1,22,-1,24,26,-1,28,30,-1,32,34,36,-1,-1,38,-1,-1,40,42,44,-1,-1,-1,-1,-1,-1,-1,-1,46,48,50,-1,-1,-1,-1,-1,-1,-1,-1,-1],"split_conditions":[3.3836685E8,-1.6298299E8,5E0,0E0,2.7017007E0,3.155829E9,7.124494E-2,-2.4433044E9,2E0,4.15024E5,-5E0,4.061578E-2,1E0,-9.1002285E-2,-1E0,1E0,-1.6918268E-2,-3E0,1E0,1.2075114E-2,4.3314724E0,1E0,3.8468004E9,-4.5420166E-2,-3.9392795E-2,-1.591975E9,-2.5626836E-2,-1.6918268E-2,0E0,5E0,7.265859E6,1.8862735E-2,2.565036E-2,4.967261E-2,5.541151E-2,5.541151E-2,6.1150417E-2,-3.9392795E-2,-3.2509815E-2,1.2786274E0,-2.3931804E0,1E0,7.2023016E-3,7.2023016E-3,1.2075114E-2,-1.0132272E-2,-4.6694847E-3,-4.6694847E-3,7.9330226E-4,7.9330226E-4,1.6523848E-3],"split_indices":[0,0,4,1,3,0,0,0,4,0,4,0,4,0,1,1,0,4,1,0,3,1,0,0,0,0,0,0,1,4,0,0,0,0,0,0,0,0,0,3,3,4,0,0,0,0,0,0,0,0,0],"split_type":[0,0,0,0,0,0,0,0,0,0,0,0,0,0,0,0,0,0,0,0,0,0,0,0,0,0,0,0,0,0,0,0,0,0,0,0,0,0,0,0,0,0,0,0,0,0,0,0,0,0,0],"sum_hessian":[3.538599E2,3.2215155E2,3.1708326E1,3.985433E1,2.8229724E2,2.910039E1,2.6079357E0,9.984348E0,2.9869982E1,2.6322528E2,1.9071947E1,1.6376398E1,1.2723991E1,3.7218199E0,6.262528E0,2.1694077E1,8.175905E0,1.668789E2,9.6346375E1,2.229459E0,1.6842487E1,5.6096897E0,7.114302E0,1.0694001E0,5.193128E0,7.951458E0,1.3742619E1,2.1071154E1,1.4580775E2,7.347571E1,2.2870667E1,9.25042E0,7.5920687E0,3.9438968E0,1.665793E0,1.171742E0,5.94256E0,5.2801294E0,2.6713288E0,4.1871754E1,1.03936E2,6.884128E1,4.634428E0,4.5628767E0,1.8307789E1,3.617987E1,5.6918826E0,1.0275778E1,9.3660225E1,3.624618E1,3.2595097E1],"tree_param":{"num_deleted":"0","num_feature":"5","num_nodes":"51","size_leaf_vector":"1"}},{"base_weights":[1.2565642E-2,-2.4272983E-1,1.6162856E-1,-7.943639E-2,-1.9941527E-1,1.2220179E-1,9.5882624E-1,-4.7686568E-1,-1.0148854E-1,5.2188944E-2,5.40514E-1,3.9637692E-2,1.0803447E0,-5.4592794E-1,-2.1206321E-2,-1.9330493E-1,-4.0550634E-2,-0E0,2.9635146E-1,2.173244E-2,5.40514E-1,5.9431482E-2,1.1124732E0,-5.8271605E-1,-3.2304376E-2,-2.8917712E-1,-1.1692778E-1,-8.574704E-3,-2.973713E-3,-2.973713E-3,5.6945745E-2,1.4817573E-1,2.173244E-2,3.9637692E-2,3.9637692E-2,7.050642E-2,8.371689E-2,-4.7030088E-2,-5.1161516E-1,-2.8917712E-1,-1.4890512E-2,-1.4890512E-2,-8.574704E-3,8.197555E-3,1.13344915E-1,1.086622E-2,1.629933E-2,-4.2274266E-2,-3.751844E-2,-2.1206321E-2,-1.8048417E-2,6.0115405E-4,4.456557E-3,4.456557E-3,1.086622E-2],"categories":[],"categories_nodes":[],"categories_segments":[],"categories_sizes":[],"default_left":[0,0,0,0,0,0,0,0,0,0,0,0,0,0,0,0,0,0,0,0,0,0,0,0,0,0,0,0,0,0,0,0,0,0,0,0,0,0,0,0,0,0,0,0,0,0,0,0,0,0,0,0,0,0,0],"id":20,"left_children":[1,3,5,-1,7,9,11,13,15,17,19,-1,21,23,-1,25,27,29,31,-1,33,-1,35,37,-1,39,41,-1,-1,-1,43,45,-1,-1,-1,-1,-1,-1,47,49,-1,-1,-1,51,53,-1,-1,-1,-1,-1,-1,-1,-1,-1,-1],"loss_changes":[1.4156154E1,5.451746E0,7.8510537E0,0E0,3.513764E0,6.7275496E0,9.86825E-1,8.922477E-1,1.4206927E0,3.2046106E0,2.4012136E0,0E0,8.680725E-2,3.6561966E-2,0E0,1.4169052E0,1.7191687E-1,1.1837986E0,7.2338796E-1,0E0,1.9073486E-6,0E0,6.432152E-2,6.839886E-1,0E0,2.1038342E-1,3.2001722E-1,0E0,0E0,0E0,8.703879E-1,2.4415582E-1,0E0,0E0,0E0,0E0,0E0,0E0,1.9445354E-1,1.2776375E-2,0E0,0E0,0E0,2.8008285E-1,7.850677E-1,0E0,0E0,0E0,0E0,0E0,0E0,0E0,0E0,0E0,0E0],"parents":[2147483647,0,0,1,1,2,2,4,4,5,5,6,6,7,7,8,8,9,9,10,10,12,12,13,13,15,15,16,16,17,17,18,18,20,20,22,22,23,23,25,25,26,26,30,30,31,31,38,38,39,39,43,43,44,44],"right_children":[2,4,6,-1,8,10,12,14,16,18,20,-1,22,24,-1,26,28,30,32,-1,34,-1,36,38,-1,40,42,-1,-1,-1,44,46,-1,-1,-1,-1,-1,-1,48,50,-1,-1,-1,52,54,-1,-1,-1,-1,-1,-1,-1,-1,-1,-1],"split_conditions":[-2.9481815E6,-5E0,3.96E0,-7.943639E-2,-3.3836685E8,4.2347696E8,-5E0,4E0,2E0,4E0,-1E0,3.9637692E-2,4.3314724E0,-3.155829E9,-2.1206321E-2,-3.3275898E7,-1E0,-7.366988E-1,2.05392E5,2.173244E-2,1.0068391E9,5.9431482E-2,0E0,0E0,-3.2304376E-2,1E0,-3E0,-8.574704E-3,-2.973713E-3,-2.973713E-3,-1E0,7E0,2.173244E-2,3.9637692E-2,3.9637692E-2,7.050642E-2,8.371689E-2,-4.7030088E-2,0E0,1E0,-1.4890512E-2,-1.4890512E-2,-8.574704E-3,6.4808356E5,-1E0,1.086622E-2,1.629933E-2,-4.2274266E-2,-3.751844E-2,-2.1206321E-2,-1.8048417E-2,6.0115405E-4,4.456557E-3,4.456557E-3,1.086622E-2],"split_indices":[0,4,3,0,0,0,4,4,4,4,4,0,3,0,0,0,1,3,0,0,0,0,1,4,0,1,4,0,0,0,4,4,0,0,0,0,0,0,1,4,0,0,0,0,1,0,0,0,0,0,0,0,0,0,0],"split_type":[0,0,0,0,0,0,0,0,0,0,0,0,0,0,0,0,0,0,0,0,0,0,0,0,0,0,0,0,0,0,0,0,0,0,0,0,0,0,0,0,0,0,0,0,0,0,0,0,0,0,0,0,0,0,0],"sum_hessian":[3.5353143E2,1.27853E2,2.2567845E2,5.1344795E0,1.2271851E2,2.162384E2,9.440044E0,2.9350273E1,9.336824E1,1.8747723E2,2.876118E1,1.2193403E0,8.220704E0,2.7124086E1,2.226187E0,6.787456E1,2.5493687E1,1.630506E2,2.4426626E1,7.6729035E0,2.1088278E1,1.4086654E0,6.812039E0,1.3074737E1,1.404935E1,3.7706066E1,3.0168488E1,2.4507005E0,2.3042986E1,2.4674078E1,1.3837653E2,1.2778777E1,1.1647849E1,1.2398401E0,1.9848438E1,1.8370993E0,4.9749393E0,7.921478E0,5.1532593E0,1.9294394E1,1.8411673E1,4.1024065E0,2.6066082E1,4.011053E1,9.826599E1,9.382627E0,3.3961508E0,1.5453012E0,3.607958E0,1.5096751E1,4.197643E0,1.532634E1,2.478419E1,1.3357645E1,8.490835E1],"tree_param":{"num_deleted":"0","num_feature":"5","num_nodes":"55","size_leaf_vector":"1"}},{"base_weights":[-4.7520623E-2,-2.03784E-1,2.2117509E-1,-5.286406E-1,-1.3744096E-1,8.695543E-3,4.2452222E-1,-7.386622E-1,-3.330408E-1,-2.4868537E-1,8.695543E-3,8.695543E-3,2.1660888E-1,2.1660888E-1,7.561718E-1,-1.0334466E0,-5.358515E-1,-4.589042E-1,-2.4422992E-2,-3.330408E-1,-1.19994916E-1,-0E0,8.695543E-3,6.3767313E-4,8.261162E-3,1.1265221E-1,1.588465E-2,2.1660888E-1,4.4469407E-1,6.708747E-1,8.214275E-2,-8.215143E-2,-5.7540927E-2,-6.326827E-1,-3.9295774E-2,-4.8591653E-1,-2.9037982E-2,-3.330408E-1,-2.2651786E-1,-2.2651786E-1,-8.7996265E-3,-4.579864E-4,3.1883657E-4,3.1883657E-4,6.3767313E-4,8.261162E-3,1.3860054E-1,1.588465E-2,2.4247773E-2,2.4247773E-2,3.5668623E-2,4.8639035E-1,7.2742164E-1,-5.2509144E-2,-4.284625E-2,-3.9295774E-2,-3.233593E-2,-3.330408E-1,-2.0517148E-2,-2.7977931E-1,-1.661131E-2,-1.661131E-2,-1.2705468E-2,9.212601E-3,1.2072906E-2,3.5668623E-2,6.06906E-1,4.857071E-2,5.580407E-2,-2.4422992E-2,-2.4422992E-2,-2.0517148E-2,-1.8564228E-2,4.008753E-2,4.4506438E-2],"categories":[],"categories_nodes":[],"categories_segments":[],"categories_sizes":[],"default_left":[0,0,0,0,0,0,0,0,0,0,0,0,0,0,0,0,0,0,0,0,0,0,0,0,0,0,0,0,0,0,0,0,0,0,0,0,0,0,0,0,0,0,0,0,0,0,0,0,0,0,0,0,0,0,0,0,0,0,0,0,0,0,0,0,0,0,0,0,0,0,0,0,0,0,0],"id":21,"left_children":[1,3,5,7,9,11,13,15,17,19,21,23,25,27,29,31,33,35,-1,37,39,41,43,-1,-1,45,-1,47,49,51,-1,-1,-1,53,-1,55,-1,57,59,61,-1,-1,-1,-1,-1,-1,63,-1,-1,-1,-1,65,67,-1,-1,-1,-1,69,-1,71,-1,-1,-1,-1,-1,-1,73,-1,-1,-1,-1,-1,-1,-1,-1],"loss_changes":[1.5577346E1,5.125516E0,8.898796E0,2.2922392E0,3.7186844E0,1.3043472E0,7.3431826E0,1.2798901E0,3.9562035E-1,5.608616E0,6.3546E-3,6.6749954E-1,1.11640096E-1,1.1136107E0,1.370945E0,3.1544495E-1,2.9401875E-1,5.264163E-2,0E0,1.1273804E0,6.2055194E-1,2.4969753E-2,1.33420415E-2,0E0,0E0,5.590359E-2,0E0,3.586257E-1,8.45325E-1,2.694111E-1,0E0,0E0,0E0,2.3484898E-1,0E0,1.6206527E-1,0E0,6.9999695E-4,2.5575632E-1,7.95871E-2,0E0,0E0,0E0,0E0,0E0,0E0,1.1989042E-1,0E0,0E0,0E0,0E0,3.844688E-1,1.3632774E-2,0E0,0E0,0E0,0E0,1.9073486E-6,0E0,2.2290945E-3,0E0,0E0,0E0,0E0,0E0,0E0,3.8432598E-2,0E0,0E0,0E0,0E0,0E0,0E0,0E0,0E0],"parents":[2147483647,0,0,1,1,2,2,3,3,4,4,5,5,6,6,7,7,8,8,9,9,10,10,11,11,12,12,13,13,14,14,15,15,16,16,17,17,19,19,20,20,21,21,22,22,25,25,27,27,28,28,29,29,33,33,35,35,37,37,38,38,39,39,46,46,51,51,52,52,57,57,59,59,66,66],"right_children":[2,4,6,8,10,12,14,16,18,20,22,24,26,28,30,32,34,36,-1,38,40,42,44,-1,-1,46,-1,48,50,52,-1,-1,-1,54,-1,56,-1,58,60,62,-1,-1,-1,-1,-1,-1,64,-1,-1,-1,-1,66,68,-1,-1,-1,-1,70,-1,72,-1,-1,-1,-1,-1,-1,74,-1,-1,-1,-1,-1,-1,-1,-1],"split_conditions":[4.15024E5,-3E0,0E0,1E0,-6.4808356E5,3.3836685E8,1E0,-1.187305E7,0E0,1E0,4E0,4E0,0E0,1.5578386E8,5E0,1E0,1E0,-4E0,-2.4422992E-2,2E0,-3.3836685E8,2E0,0E0,6.3767313E-4,8.261162E-3,1E0,1.588465E-2,2E0,-3E0,3.108945E7,8.214275E-2,-8.215143E-2,-5.7540927E-2,-5E0,-3.9295774E-2,-8.817042E7,-2.9037982E-2,2E0,0E0,-1E0,-8.7996265E-3,-4.579864E-4,3.1883657E-4,3.1883657E-4,6.3767313E-4,8.261162E-3,3.8468004E9,1.588465E-2,2.4247773E-2,2.4247773E-2,3.5668623E-2,1E0,2.4433044E9,-5.2509144E-2,-4.284625E-2,-3.9295774E-2,-3.233593E-2,-2.299519E9,-2.0517148E-2,-8.943216E6,-1.661131E-2,-1.661131E-2,-1.2705468E-2,9.212601E-3,1.2072906E-2,3.5668623E-2,3E0,4.857071E-2,5.580407E-2,-2.4422992E-2,-2.4422992E-2,-2.0517148E-2,-1.8564228E-2,4.008753E-2,4.4506438E-2],"split_indices":[0,4,2,2,0,0,4,0,0,2,4,4,1,0,4,1,1,4,0,4,0,1,1,0,0,4,0,2,4,0,0,0,0,4,0,0,0,1,2,4,0,0,0,0,0,0,0,0,0,0,0,1,0,0,0,0,0,0,0,0,0,0,0,0,0,0,4,0,0,0,0,0,0,0,0],"split_type":[0,0,0,0,0,0,0,0,0,0,0,0,0,0,0,0,0,0,0,0,0,0,0,0,0,0,0,0,0,0,0,0,0,0,0,0,0,0,0,0,0,0,0,0,0,0,0,0,0,0,0,0,0,0,0,0,0,0,0,0,0,0,0,0,0,0,0,0,0,0,0,0,0,0,0],"sum_hessian":[3.5343686E2,2.2582637E2,1.2761049E2,3.574136E1,1.90085E2,4.5178856E1,8.243163E1,1.9690392E1,1.6050968E1,1.1405595E2,7.602906E1,3.39088E1,1.1270058E1,4.7247025E1,3.518461E1,6.0590672E0,1.3631323E1,9.083254E0,6.9677143E0,7.493788E1,3.9118057E1,5.683418E1,1.9194885E1,2.8847267E1,5.0615306E0,9.182911E0,2.0871468E0,3.460949E1,1.2637533E1,3.073023E1,4.454379E0,4.589554E0,1.4695138E0,1.07032175E1,2.9281056E0,4.2757645E0,4.80749E0,4.8990906E1,2.5946978E1,7.524562E0,3.1593496E1,5.2459656E1,4.3745236E0,7.450203E0,1.1744682E1,3.2318254E0,5.9510856E0,3.217E1,2.4394922E0,3.7119954E0,8.925538E0,1.0036789E1,2.0693441E1,5.37001E0,5.333208E0,2.1045854E0,2.171179E0,4.7587643E1,1.403263E0,1.0049963E1,1.5897015E1,3.0902395E0,4.4343224E0,2.6459625E0,3.305123E0,6.2676997E0,3.7690892E0,1.717534E1,3.5180998E0,5.93084E0,4.1656803E1,8.812173E0,1.2377896E0,1.7922916E0,1.9767977E0],"tree_param":{"num_deleted":"0","num_feature":"5","num_nodes":"75","size_leaf_vector":"1"}},{"base_weights":[-2.9232241E-2,-2.9207996E-1,1.2405922E-1,-4.2763844E-1,-8.401036E-2,6.6281736E-2,7.13708E-1,-5.660699E-1,-2.558244E-1,-2.558244E-1,-6.16076E-3,-5.8415234E-3,3.483606E-1,3.831398E-2,9.001973E-1,-7.667024E-2,-4.949487E-1,-3.0136123E-2,-1.8760454E-2,-1.8760454E-2,-1.6991737E-1,-8.401036E-2,1.7125954E-1,1.7125954E-1,2.8599622E-2,5.2164223E-2,7.502227E-2,-5.648324E-2,-4.5575574E-1,-1.5610531E-2,-1.2460607E-2,-6.16076E-3,4.3624587E-2,3.1991364E-3,1.2559032E-2,1.2559032E-2,2.0579327E-2,-4.1385353E-2,-4.1094714E-1,-1.4808117E-3,4.3624587E-2,-3.555142E-2,-3.0136123E-2,8.591623E-4,3.1991364E-3],"categories":[],"categories_nodes":[],"categories_segments":[],"categories_sizes":[],"default_left":[0,0,0,0,0,0,0,0,0,0,0,0,0,0,0,0,0,0,0,0,0,0,0,0,0,0,0,0,0,0,0,0,0,0,0,0,0,0,0,0,0,0,0,0,0],"id":22,"left_children":[1,3,5,7,9,11,13,15,17,19,-1,21,23,-1,25,-1,27,-1,-1,-1,29,31,33,35,-1,-1,-1,-1,37,-1,-1,-1,39,-1,-1,-1,-1,-1,41,-1,43,-1,-1,-1,-1],"loss_changes":[1.5016404E1,3.6651888E0,7.966761E0,3.2168913E0,1.3057909E0,4.993413E0,6.347542E-1,2.253004E0,9.340837E-1,1.2842178E-1,0E0,5.078462E0,1.0586691E0,0E0,4.3951225E-1,0E0,8.368883E-1,0E0,0E0,0E0,3.5403326E-1,8.2784677E-1,7.5983286E-1,5.4545844E-1,0E0,0E0,0E0,0E0,3.6864853E-1,0E0,0E0,0E0,3.8065678E-1,0E0,0E0,0E0,0E0,0E0,1.6482115E-1,0E0,3.978926E-2,0E0,0E0,0E0,0E0],"parents":[2147483647,0,0,1,1,2,2,3,3,4,4,5,5,6,6,7,7,8,8,9,9,11,11,12,12,14,14,16,16,20,20,21,21,22,22,23,23,28,28,32,32,38,38,40,40],"right_children":[2,4,6,8,10,12,14,16,18,20,-1,22,24,-1,26,-1,28,-1,-1,-1,30,32,34,36,-1,-1,-1,-1,38,-1,-1,-1,40,-1,-1,-1,-1,-1,42,-1,44,-1,-1,-1,-1],"split_conditions":[-4.15024E5,1E0,2.3931804E0,2E0,0E0,1.48257E8,4.61201E0,-3.155829E9,0E0,-2.3388704E7,-6.16076E-3,3E0,3.155829E9,3.831398E-2,0E0,-7.667024E-2,-5E0,-3.0136123E-2,-1.8760454E-2,-1.8760454E-2,-2E0,1E0,-2.3931804E0,0E0,2.8599622E-2,5.2164223E-2,7.502227E-2,-5.648324E-2,-1.5578386E8,-1.5610531E-2,-1.2460607E-2,-6.16076E-3,-2.3931804E0,3.1991364E-3,1.2559032E-2,1.2559032E-2,2.0579327E-2,-4.1385353E-2,-3E0,-1.4808117E-3,0E0,-3.555142E-2,-3.0136123E-2,8.591623E-4,3.1991364E-3],"split_indices":[0,1,3,4,4,0,3,0,1,0,0,4,0,0,1,0,4,0,0,0,4,1,3,1,0,0,0,0,0,0,0,0,3,0,0,0,0,0,4,0,0,0,0,0,0],"split_type":[0,0,0,0,0,0,0,0,0,0,0,0,0,0,0,0,0,0,0,0,0,0,0,0,0,0,0,0,0,0,0,0,0,0,0,0,0,0,0,0,0,0,0,0,0],"sum_hessian":[3.493115E2,1.3107747E2,2.1823402E2,7.680205E1,5.4275425E1,2.0030301E2,1.7931019E1,5.4099827E1,2.2702219E1,2.9756569E1,2.4518856E1,1.5669371E2,4.3609303E1,1.15000105E1,6.43101E0,5.172322E0,4.8927505E1,1.0286036E1,1.24161825E1,1.9529922E1,1.0226645E1,1.2265591E2,3.4037804E1,2.9405857E1,1.4203444E1,2.0747304E0,4.3562794E0,2.1804981E0,4.6747005E1,4.5913424E0,5.635303E0,8.904256E1,3.361335E1,4.181336E0,2.9856468E1,1.2534447E1,1.687141E1,1.0425722E1,3.6321285E1,4.3522034E0,2.9261147E1,3.1414897E0,3.3179794E1,1.224026E0,2.803712E1],"tree_param":{"num_deleted":"0","num_feature":"5","num_nodes":"45","size_leaf_vector":"1"}},{"base_weights":[5.1021058E-2,-2.582085E-1,1.4776255E-1,-4.861251E-1,-5.522298E-2,-5.522298E-2,2.1443014E-1,-7.1870315E-1,-2.7067405E-1,-2.7067405E-1,-5.522298E-2,-4.0496853E-3,-0E0,1.2104303E-1,4.676698E-1,-7.408155E-2,-6.0295033E-1,-2.4393301E-2,-2.7067405E-1,-2.7067405E-1,-1.6294852E-1,-1.1949558E-2,-4.0496853E-3,7.960358E-2,2.943564E-1,2.943564E-1,5.572741E-1,-4.7772758E-2,-3.854511E-2,-2.2121366E-2,-1.9849429E-2,-1.9849429E-2,-2.1681128E-1,-1.298778E-2,-1.1949558E-2,7.960358E-2,1.8698E-1,1.3711866E-2,2.943564E-1,2.943564E-1,3.122645E-2,4.6414763E-1,8.0196775E-2,-1.7874463E-2,-1.5899494E-2,5.837596E-3,1.3329178E-1,9.774731E-3,1.8698E-1,1.7649E-2,2.1586135E-2,2.1586135E-2,2.4476914E-2,4.315622E-1,4.5440696E-2,7.806163E-3,9.774731E-3,1.1743299E-2,1.3711866E-2,3.122645E-2,3.7998367E-2],"categories":[],"categories_nodes":[],"categories_segments":[],"categories_sizes":[],"default_left":[0,0,0,0,0,0,0,0,0,0,0,0,0,0,0,0,0,0,0,0,0,0,0,0,0,0,0,0,0,0,0,0,0,0,0,0,0,0,0,0,0,0,0,0,0,0,0,0,0,0,0,0,0,0,0,0,0,0,0,0,0],"id":23,"left_children":[1,3,5,7,9,11,13,15,17,19,21,-1,-1,23,25,-1,27,-1,29,31,33,-1,-1,35,37,39,41,-1,-1,-1,-1,-1,43,-1,-1,45,47,-1,49,51,-1,53,-1,-1,-1,-1,55,-1,57,-1,-1,-1,-1,59,-1,-1,-1,-1,-1,-1,-1],"loss_changes":[1.1170606E1,4.031805E0,6.12565E0,3.04924E0,2.5814967E0,7.052839E-2,5.748872E0,9.019394E-1,1.3340786E-1,3.334422E-1,4.1265327E-1,0E0,0E0,2.7468622E0,1.7967911E0,0E0,3.814602E-2,0E0,8.731416E-2,9.5199585E-2,2.9158294E-2,0E0,0E0,8.3984756E-1,3.2872152E-1,4.8324466E-1,2.931181E0,0E0,0E0,0E0,0E0,0E0,6.0988814E-2,0E0,0E0,3.4429395E-1,3.375697E-2,0E0,8.958244E-2,8.108306E-2,0E0,3.4602737E-1,0E0,0E0,0E0,0E0,1.4961874E-1,0E0,3.775823E-2,0E0,0E0,0E0,0E0,1.80933E-1,0E0,0E0,0E0,0E0,0E0,0E0,0E0],"parents":[2147483647,0,0,1,1,2,2,3,3,4,4,5,5,6,6,7,7,8,8,9,9,10,10,13,13,14,14,16,16,18,18,19,19,20,20,23,23,24,24,25,25,26,26,32,32,35,35,36,36,38,38,39,39,41,41,46,46,48,48,53,53],"right_children":[2,4,6,8,10,12,14,16,18,20,22,-1,-1,24,26,-1,28,-1,30,32,34,-1,-1,36,38,40,42,-1,-1,-1,-1,-1,44,-1,-1,46,48,-1,50,52,-1,54,-1,-1,-1,-1,56,-1,58,-1,-1,-1,-1,60,-1,-1,-1,-1,-1,-1,-1],"split_conditions":[-3.3275898E7,0E0,-1.4393541E-1,1E0,-1.6298299E8,7E0,1E0,-4E0,-4E0,1E0,-1E0,-4.0496853E-3,-0E0,3.3836685E8,-3E0,-7.408155E-2,-2.4433044E9,-2.4393301E-2,-3.8468004E9,4E0,-1.591975E9,-1.1949558E-2,-4.0496853E-3,1.2786274E0,-3E0,2.9481815E6,2E0,-4.7772758E-2,-3.854511E-2,-2.2121366E-2,-1.9849429E-2,-1.9849429E-2,0E0,-1.298778E-2,-1.1949558E-2,3E0,0E0,1.3711866E-2,0E0,1.552126E0,3.122645E-2,2.4433044E9,8.0196775E-2,-1.7874463E-2,-1.5899494E-2,5.837596E-3,2.05392E5,9.774731E-3,-3E0,1.7649E-2,2.1586135E-2,2.1586135E-2,2.4476914E-2,4.61201E0,4.5440696E-2,7.806163E-3,9.774731E-3,1.1743299E-2,1.3711866E-2,3.122645E-2,3.7998367E-2],"split_indices":[0,4,3,2,0,4,2,4,4,2,2,0,0,0,4,0,0,0,0,4,0,0,0,3,4,0,2,0,0,0,0,0,2,0,0,4,2,0,2,3,0,0,0,0,0,0,0,0,4,0,0,0,0,3,0,0,0,0,0,0,0],"split_type":[0,0,0,0,0,0,0,0,0,0,0,0,0,0,0,0,0,0,0,0,0,0,0,0,0,0,0,0,0,0,0,0,0,0,0,0,0,0,0,0,0,0,0,0,0,0,0,0,0,0,0,0,0,0,0,0,0,0,0,0,0],"sum_hessian":[3.5336905E2,8.1743385E1,2.7162567E2,3.7398636E1,4.4344746E1,3.529671E1,2.3632896E2,2.1521936E1,1.5876701E1,1.9870926E1,2.447382E1,3.306277E1,2.2339408E0,1.755429E2,6.0786068E1,3.6616707E0,1.7860266E1,2.4702888E0,1.3406412E1,1.3178218E1,6.692708E0,1.2074665E0,2.3266354E1,1.542435E2,2.129939E1,1.0971854E1,4.9814213E1,3.0296576E0,1.4830607E1,2.578247E0,1.0828165E1,1.0495332E1,2.6828866E0,4.2065096E0,2.4861984E0,1.3395222E2,2.0291279E1,1.4920505E0,1.980734E1,6.2859273E0,4.6859264E0,4.4032894E1,5.7813206E0,1.4474716E0,1.235415E0,1.0237534E2,3.1576883E1,7.1602063E0,1.3131073E1,9.290228E0,1.0517113E1,4.8419013E0,1.444026E0,4.172099E1,2.3119044E0,1.2285566E1,1.9291317E1,1.6881648E0,1.1442908E1,4.0651943E1,1.0690451E0],"tree_param":{"num_deleted":"0","num_feature":"5","num_nodes":"61","size_leaf_vector":"1"}},{"base_weights":[-1.6776267E-3,-4.234166E-2,8.0132306E-1,-9.544465E-1,-1.1766503E-2,2.7829317E-2,8.6502296E-1,-8.5591115E-2,-3.542781E-2,-2.7060604E-1,9.3058385E-2,6.222568E-1,8.4449224E-2,-4.0203613E-1,-8.877383E-2,-6.4384125E-2,3.7485832E-1,4.5632165E-2,7.52628E-1,-4.831065E-1,-1.7996365E-2,-7.0067495E-3,-6.510081E-3,-8.877383E-2,1.552371E-1,1.1384053E-2,3.794907E-1,5.0412443E-2,6.137752E-2,-3.542781E-2,-2.6712086E-2,-6.510081E-3,3.323163E-2,3.323163E-2,1.552371E-1,1.9606685E-2,3.794907E-1,-2.0365473E-3,2.4369862E-3,2.4369862E-3,6.9105197E-3,6.9105197E-3,1.1384053E-2,2.3718003E-2,2.7829317E-2],"categories":[],"categories_nodes":[],"categories_segments":[],"categories_sizes":[],"default_left":[0,0,0,0,0,0,0,0,0,0,0,0,0,0,0,0,0,0,0,0,0,0,0,0,0,0,0,0,0,0,0,0,0,0,0,0,0,0,0,0,0,0,0,0,0],"id":24,"left_children":[1,3,5,7,9,-1,11,-1,-1,13,15,17,-1,19,21,23,25,-1,27,29,-1,-1,-1,31,33,-1,35,-1,-1,-1,-1,-1,37,39,41,-1,43,-1,-1,-1,-1,-1,-1,-1,-1],"loss_changes":[1.2076002E1,9.979156E0,6.8374157E-1,8.019953E-1,9.474392E0,0E0,1.3533001E0,0E0,0E0,3.8370929E0,1.0881876E1,3.0588174E-1,0E0,2.6708193E0,1.3893366E-2,4.911268E0,3.4815788E-1,0E0,1.9162464E-1,4.5842838E-1,0E0,0E0,0E0,7.612519E-1,1.0721424E0,0E0,2.5248623E-1,0E0,0E0,0E0,0E0,0E0,2.9420453E-1,1.941365E-1,2.290225E-2,0E0,1.2948036E-2,0E0,0E0,0E0,0E0,0E0,0E0,0E0,0E0],"parents":[2147483647,0,0,1,1,2,2,3,3,4,4,6,6,9,9,10,10,11,11,13,13,14,14,15,15,16,16,18,18,19,19,23,23,24,24,26,26,32,32,33,33,34,34,36,36],"right_children":[2,4,6,8,10,-1,12,-1,-1,14,16,18,-1,20,22,24,26,-1,28,30,-1,-1,-1,32,34,-1,36,-1,-1,-1,-1,-1,38,40,42,-1,44,-1,-1,-1,-1,-1,-1,-1,-1],"split_conditions":[2.3931804E0,-3.96E0,-1E0,1E0,0E0,2.7829317E-2,4.3314724E0,-8.5591115E-2,-3.542781E-2,3E0,1E0,3E0,8.4449224E-2,0E0,4E0,1E0,-2.1287246E0,4.5632165E-2,0E0,1.4393541E-1,-1.7996365E-2,-7.0067495E-3,-6.510081E-3,0E0,-3E0,1.1384053E-2,2E0,5.0412443E-2,6.137752E-2,-3.542781E-2,-2.6712086E-2,-6.510081E-3,0E0,2E0,-1.4393541E-1,1.9606685E-2,1E0,-2.0365473E-3,2.4369862E-3,2.4369862E-3,6.9105197E-3,6.9105197E-3,1.1384053E-2,2.3718003E-2,2.7829317E-2],"split_indices":[3,3,2,1,2,0,3,0,0,4,4,4,0,1,4,2,3,0,1,3,0,0,0,4,4,0,4,0,0,0,0,0,1,2,3,0,1,0,0,0,0,0,0,0,0],"split_type":[0,0,0,0,0,0,0,0,0,0,0,0,0,0,0,0,0,0,0,0,0,0,0,0,0,0,0,0,0,0,0,0,0,0,0,0,0,0,0,0,0,0,0,0,0],"sum_hessian":[3.4149768E2,3.2622302E2,1.5274637E1,9.520008E0,3.1670303E2,1.3850663E0,1.3889571E1,5.324788E0,4.1952195E0,9.403823E1,2.226648E2,8.183399E0,5.7061725E0,6.810546E1,2.593277E1,1.4057596E2,8.2088844E1,5.5276046E0,2.6557944E0,4.9805584E1,1.8299877E1,7.582944E0,1.8349827E1,7.453336E1,6.604259E1,1.2404294E0,8.084842E1,1.1246246E0,1.5311698E0,4.8328102E1,1.4774808E0,5.2466156E1,2.206721E1,1.6737215E1,4.930537E1,2.6430517E1,5.4417896E1,3.1678627E0,1.8899345E1,1.4784025E1,1.9531894E0,1.988998E0,4.7316376E1,3.0300167E1,2.4117731E1],"tree_param":{"num_deleted":"0","num_feature":"5","num_nodes":"45","size_leaf_vector":"1"}},{"base_weights":[-4.517563E-2,-1.1174163E-1,7.350927E-1,-7.2646016E-1,-5.031293E-2,4.371837E-2,8.2137716E-1,-8.539347E-1,-2.8481679E-2,-2.5784218E-1,2.7537478E-2,5.1976345E-2,9.932599E-1,-9.712899E-1,-4.5551777E-2,-3.3175272E-1,-1.1515235E-1,-1.1515235E-1,1.02516755E-1,6.2407702E-2,7.708875E-2,-9.909005E-1,-5.838985E-2,-3.8838655E-1,-1.6386518E-2,-1.6386518E-2,-8.444506E-3,-8.444506E-3,-6.317798E-3,5.227935E-2,3.1167555E-1,-1.0769815E0,-6.5527946E-2,-3.8838655E-1,-3.0591953E-1,-4.4539054E-3,-4.6330516E-4,-6.317798E-3,1.8197745E-1,1.3345012E-2,3.1167555E-1,-8.8448115E-2,-7.2253294E-2,-2.8481679E-2,-2.5457889E-2,-2.5457889E-2,-2.2434099E-2,-4.6330516E-4,6.4408537E-3,6.4408537E-3,1.3345012E-2,1.810061E-2,2.2856206E-2],"categories":[],"categories_nodes":[],"categories_segments":[],"categories_sizes":[],"default_left":[0,0,0,0,0,0,0,0,0,0,0,0,0,0,0,0,0,0,0,0,0,0,0,0,0,0,0,0,0,0,0,0,0,0,0,0,0,0,0,0,0,0,0,0,0,0,0,0,0,0,0,0,0],"id":25,"left_children":[1,3,5,7,9,-1,11,13,-1,15,17,-1,19,21,-1,23,25,27,29,-1,-1,31,-1,33,-1,-1,-1,-1,35,37,39,41,-1,43,45,-1,-1,47,49,-1,51,-1,-1,-1,-1,-1,-1,-1,-1,-1,-1,-1,-1],"loss_changes":[1.8818111E1,1.254729E1,2.5682354E-1,1.2763824E0,5.389762E0,0E0,7.313261E-1,1.228878E0,0E0,1.5491576E0,4.3208146E0,0E0,1.5808582E-1,1.1174393E-1,0E0,1.0040879E0,7.243757E-1,2.9777646E-1,2.5686474E0,0E0,0E0,3.5833168E-1,0E0,1.812563E-1,0E0,0E0,0E0,0E0,3.1315303E-1,2.6958346E0,4.6167326E-1,4.7302628E-1,0E0,1.2051201E-1,1.0291967E-1,0E0,0E0,1.0309337E0,3.6000943E-1,0E0,3.821087E-2,0E0,0E0,0E0,0E0,0E0,0E0,0E0,0E0,0E0,0E0,0E0,0E0],"parents":[2147483647,0,0,1,1,2,2,3,3,4,4,6,6,7,7,9,9,10,10,12,12,13,13,15,15,16,16,17,17,18,18,21,21,23,23,28,28,29,29,30,30,31,31,33,33,34,34,37,37,38,38,40,40],"right_children":[2,4,6,8,10,-1,12,14,-1,16,18,-1,20,22,-1,24,26,28,30,-1,-1,32,-1,34,-1,-1,-1,-1,36,38,40,42,-1,44,46,-1,-1,48,50,-1,52,-1,-1,-1,-1,-1,-1,-1,-1,-1,-1,-1,-1],"split_conditions":[3.3836685E8,-3.3836685E8,1E0,2E0,0E0,4.371837E-2,0E0,2E0,-2.8481679E-2,4E0,-3E0,5.1976345E-2,2.299519E9,-4.2347696E8,-4.5551777E-2,0E0,2.05392E5,1E0,2E0,6.2407702E-2,7.708875E-2,1E0,-5.838985E-2,3E0,-1.6386518E-2,-1.6386518E-2,-8.444506E-3,-8.444506E-3,0E0,1E0,1E0,-2.4433044E9,-6.5527946E-2,2.83565E7,-1E0,-4.4539054E-3,-4.6330516E-4,1.4443346E8,6.4808356E5,1.3345012E-2,-1.4293789E8,-8.8448115E-2,-7.2253294E-2,-2.8481679E-2,-2.5457889E-2,-2.5457889E-2,-2.2434099E-2,-4.6330516E-4,6.4408537E-3,6.4408537E-3,1.3345012E-2,1.810061E-2,2.2856206E-2],"split_indices":[0,0,4,4,2,0,2,1,0,4,4,0,0,0,0,1,0,1,1,0,0,1,0,4,0,0,0,0,0,4,2,0,0,0,1,0,0,0,0,0,0,0,0,0,0,0,0,0,0,0,0,0,0],"split_type":[0,0,0,0,0,0,0,0,0,0,0,0,0,0,0,0,0,0,0,0,0,0,0,0,0,0,0,0,0,0,0,0,0,0,0,0,0,0,0,0,0,0,0,0,0,0,0,0,0,0,0,0,0],"sum_hessian":[3.4344186E2,3.1762625E2,2.5815617E1,2.7377716E1,2.9024854E2,1.4330527E1,1.1485089E1,1.915028E1,8.227438E0,8.268272E1,2.0756581E2,4.897099E0,6.5879908E0,1.6573912E1,2.5763671E0,6.57517E1,1.6931019E1,3.0339024E1,1.7722678E2,2.209475E0,4.3785157E0,1.5316482E1,1.2574304E0,4.5977093E1,1.9774605E1,8.996971E0,7.9340487E0,1.6217659E1,1.4121365E1,1.5489513E2,2.2331657E1,9.847299E0,5.469183E0,4.2523083E1,3.4540098E0,6.6779737E0,7.443391E0,8.563678E1,6.925835E1,4.1154814E0,1.8216175E1,6.101901E0,3.7453973E0,2.8631405E1,1.3891679E1,1.2452163E0,2.2087934E0,8.078214E1,4.8546414E0,4.4902596E1,2.435575E1,1.7284045E0,1.648777E1],"tree_param":{"num_deleted":"0","num_feature":"5","num_nodes":"53","size_leaf_vector":"1"}},{"base_weights":[-0E0,-6.144588E-1,2.9858716E-2,-6.6213086E-2,-5.248336E-1,-6.337228E-2,1.6685928E-1,-5.606878E-1,-2.1435335E-2,-1.7666727E-1,5.1743504E-2,5.1743504E-2,3.169142E-1,-6.02948E-1,-3.127622E-2,-2.6049682E-1,-4.580538E-3,-6.2461883E-2,3.7945234E-3,5.1743504E-2,1.5997717E-1,1.8432885E-1,4.0437704E-1,-6.479756E-1,-3.7746202E-2,-2.1435335E-2,-1.6147935E-1,-4.580538E-3,-3.930072E-4,3.7945234E-3,7.763091E-3,7.763091E-3,1.3517449E-2,1.3517449E-2,2.1585882E-2,3.5697776E-1,5.030791E-1,-5.2350443E-2,-4.2632207E-2,-1.6638577E-2,-1.1841819E-2,2.1585882E-2,3.5960433E-1,3.1535417E-2,8.8839775E-1,2.397843E-2,3.0852884E-2,4.834229E-2,7.601455E-2],"categories":[],"categories_nodes":[],"categories_segments":[],"categories_sizes":[],"default_left":[0,0,0,0,0,0,0,0,0,0,0,0,0,0,0,0,0,0,0,0,0,0,0,0,0,0,0,0,0,0,0,0,0,0,0,0,0,0,0,0,0,0,0,0,0,0,0,0,0],"id":26,"left_children":[1,3,5,-1,7,9,11,13,-1,15,17,19,21,23,-1,25,-1,27,-1,29,31,33,35,37,-1,-1,39,-1,-1,-1,-1,-1,-1,-1,-1,41,43,-1,-1,-1,-1,-1,45,-1,47,-1,-1,-1,-1],"loss_changes":[8.022398E0,6.400118E-1,4.6642656E0,0E0,2.6584673E-1,3.9835312E0,4.6754847E0,2.3660517E-1,0E0,2.88277E0,6.8495893E-1,4.2952442E-1,1.6111965E0,2.0037127E-1,0E0,9.0340567E-1,0E0,2.572496E-1,0E0,1.4195609E-1,4.254073E-1,4.4029725E-1,3.3936596E-1,2.0257378E-1,0E0,0E0,4.984902E-1,0E0,0E0,0E0,0E0,0E0,0E0,0E0,0E0,1.6237259E-2,1.4625134E0,0E0,0E0,0E0,0E0,0E0,2.5627232E-1,0E0,4.5794058E-1,0E0,0E0,0E0,0E0],"parents":[2147483647,0,0,1,1,2,2,4,4,5,5,6,6,7,7,9,9,10,10,11,11,12,12,13,13,15,15,17,17,19,19,20,20,21,21,22,22,23,23,26,26,35,35,36,36,42,42,44,44],"right_children":[2,4,6,-1,8,10,12,14,-1,16,18,20,22,24,-1,26,-1,28,-1,30,32,34,36,38,-1,-1,40,-1,-1,-1,-1,-1,-1,-1,-1,42,44,-1,-1,-1,-1,-1,46,-1,48,-1,-1,-1,-1],"split_conditions":[-2.3931804E0,-7.6087313E0,1E0,-6.6213086E-2,2E0,1E0,0E0,-2.7017007E0,-2.1435335E-2,1.2786274E0,1E0,4E0,2E0,5E0,-3.127622E-2,0E0,-4.580538E-3,1.2786274E0,3.7945234E-3,1.4393541E-1,0E0,2E0,5E0,-4.61201E0,-3.7746202E-2,-2.1435335E-2,0E0,-4.580538E-3,-3.930072E-4,3.7945234E-3,7.763091E-3,7.763091E-3,1.3517449E-2,1.3517449E-2,2.1585882E-2,-9.9E-1,1E0,-5.2350443E-2,-4.2632207E-2,-1.6638577E-2,-1.1841819E-2,2.1585882E-2,1E0,3.1535417E-2,1E0,2.397843E-2,3.0852884E-2,4.834229E-2,7.601455E-2],"split_indices":[3,3,4,0,2,2,2,3,0,3,1,4,4,4,0,1,0,3,0,3,1,2,4,3,0,0,4,0,0,0,0,0,0,0,0,3,2,0,0,0,0,0,1,0,1,0,0,0,0],"split_type":[0,0,0,0,0,0,0,0,0,0,0,0,0,0,0,0,0,0,0,0,0,0,0,0,0,0,0,0,0,0,0,0,0,0,0,0,0,0,0,0,0,0,0,0,0,0,0,0,0],"sum_hessian":[3.4276315E2,1.7065887E1,3.2569727E2,1.4006156E0,1.5665271E1,1.8946451E2,1.3623276E2,1.4454531E1,1.21074E0,1.20135704E2,6.932881E1,4.8333447E1,8.789931E1,1.3244549E1,1.2099828E0,1.09185684E2,1.095002E1,1.9270374E1,5.0058437E1,3.0146019E1,1.8187428E1,2.6326242E1,6.1573067E1,1.2018603E1,1.2259454E0,4.6036304E1,6.3149376E1,1.741622E1,1.8541551E0,2.8735186E1,1.4108346E0,1.3174617E1,5.0128117E0,2.4913687E1,1.4125543E0,4.8441643E1,1.3131421E1,4.064764E0,7.953839E0,4.5430176E1,1.77192E1,1.2417951E0,4.719985E1,9.504859E0,3.6265616E0,2.6229626E1,2.0970222E1,1.1538182E0,2.4727435E0],"tree_param":{"num_deleted":"0","num_feature":"5","num_nodes":"49","size_leaf_vector":"1"}},{"base_weights":[1.8740457E-2,-1.7858142E-2,4.7907618E-1,-6.404798E-1,1.7746025E-3,2.3060901E-1,7.1001416E-1,-8.131341E-2,-3.156403E-2,-3.1366307E-1,3.476215E-2,1.6911328E-2,2.80687E-1,4.7031158E-1,8.834029E-1,-3.193526E-1,-1.3945046E-1,-1.3945046E-1,8.103951E-2,1.874752E-2,3.4489516E-2,3.4489516E-2,4.5215767E-2,4.9636196E-2,7.787294E-2,-3.193526E-1,-1.6822778E-2,-1.3240053E-2,-1.0226367E-2,-1.0226367E-2,-2.9205475E-2,1.923861E-2,2.3060901E-1,-2.341919E-2,-2.0120982E-2,-8.119184E-2,-2.1417348E-3,-2.9205475E-2,1.0639374E-1,1.7342345E-1,2.3060901E-1,-6.184051E-3,-4.0479014E-3,-2.1417348E-3,2.4468622E-3,2.8302365E-3,9.161079E-3,9.161079E-3,1.3004194E-2,1.4814523E-2,1.6911328E-2],"categories":[],"categories_nodes":[],"categories_segments":[],"categories_sizes":[],"default_left":[0,0,0,0,0,0,0,0,0,0,0,0,0,0,0,0,0,0,0,0,0,0,0,0,0,0,0,0,0,0,0,0,0,0,0,0,0,0,0,0,0,0,0,0,0,0,0,0,0,0,0],"id":27,"left_children":[1,3,5,7,9,11,13,-1,-1,15,17,-1,19,21,23,25,27,29,31,-1,-1,-1,-1,-1,-1,33,-1,-1,-1,-1,35,37,39,-1,-1,41,-1,43,45,47,49,-1,-1,-1,-1,-1,-1,-1,-1,-1,-1],"loss_changes":[7.328915E0,5.835963E0,2.5375848E0,1.3828688E0,3.6565943E0,1.1008108E-1,8.102865E-1,0E0,0E0,9.988823E-1,3.4068494E0,0E0,7.517924E-1,3.6630797E-1,9.0511894E-1,3.2113075E-1,8.861789E-2,1.6151857E-1,2.3742347E0,0E0,0E0,0E0,0E0,0E0,0E0,8.949375E-2,0E0,0E0,0E0,0E0,1.1795302E-1,2.0746284E0,7.37381E-2,0E0,0E0,6.0623407E-2,0E0,2.2871697E-1,1.4602166E0,2.3171663E-2,3.0213118E-2,0E0,0E0,0E0,0E0,0E0,0E0,0E0,0E0,0E0,0E0],"parents":[2147483647,0,0,1,1,2,2,3,3,4,4,5,5,6,6,9,9,10,10,12,12,13,13,14,14,15,15,16,16,17,17,18,18,25,25,30,30,31,31,32,32,35,35,37,37,38,38,39,39,40,40],"right_children":[2,4,6,8,10,12,14,-1,-1,16,18,-1,20,22,24,26,28,30,32,-1,-1,-1,-1,-1,-1,34,-1,-1,-1,-1,36,38,40,-1,-1,42,-1,44,46,48,50,-1,-1,-1,-1,-1,-1,-1,-1,-1,-1],"split_conditions":[3.3836685E8,-1E0,0E0,-4.08396E7,-3.3836685E8,0E0,2.7398075E9,-8.131341E-2,-3.156403E-2,1E0,-3E0,1.6911328E-2,-1E0,1E0,-1E0,2E0,-1E0,2.05392E5,1E0,1.874752E-2,3.4489516E-2,3.4489516E-2,4.5215767E-2,4.9636196E-2,7.787294E-2,-1.591975E9,-1.6822778E-2,-1.3240053E-2,-1.0226367E-2,-1.0226367E-2,1E0,-4.15024E5,3.8214836E7,-2.341919E-2,-2.0120982E-2,-4E0,-2.1417348E-3,1E0,0E0,0E0,1E0,-6.184051E-3,-4.0479014E-3,-2.1417348E-3,2.4468622E-3,2.8302365E-3,9.161079E-3,9.161079E-3,1.3004194E-2,1.4814523E-2,1.6911328E-2],"split_indices":[0,2,1,0,0,2,0,0,0,1,4,0,4,2,4,4,4,0,2,0,0,0,0,0,0,0,0,0,0,0,1,0,0,0,0,4,0,4,2,1,1,0,0,0,0,0,0,0,0,0,0],"split_type":[0,0,0,0,0,0,0,0,0,0,0,0,0,0,0,0,0,0,0,0,0,0,0,0,0,0,0,0,0,0,0,0,0,0,0,0,0,0,0,0,0,0,0,0,0,0,0,0,0,0,0],"sum_hessian":[3.5086862E2,3.2301526E2,2.7853378E1,1.1431102E1,3.1158414E2,1.1339981E1,1.6513397E1,2.065492E0,9.36561E0,2.6629524E1,2.8495462E2,