{"learner":{"attributes":{"scikit_learn":"{\"_estimator_type\": \"classifier\"}"},"feature_names":["city_populationSize","city_populationDensity","city_elevation","EmissionReduction_Diff_stationary_energy","EmissionReduction_Diff_transportation","EmissionReduction_Diff_waste","EmissionReduction_Diff_ippu","EmissionReduction_Diff_afolu","actionA_mitigation","actionA_adaptation","actionB_mitigation","actionB_adaptation","CostInvestmentNeeded_Diff","TimelineForImplementation_Diff","weighted_risk_score_diff","CoBenefits_Diff_air_quality","CoBenefits_Diff_water_quality","CoBenefits_Diff_habitat","CoBenefits_Diff_cost_of_living","CoBenefits_Diff_housing","CoBenefits_Diff_mobility","CoBenefits_Diff_stakeholder_engagement","biome_temperate_forest","biome_desert","biome_grassland_savanna","biome_tundra","biome_wetlands","biome_mountains","biome_boreal_forest_taiga","biome_coastal_marine"],"feature_types":["int","float","int","float","float","float","float","float","int","int","int","int","int","int","float","int","int","int","int","int","int","int","int","int","int","int","int","int","int","int"],"gradient_booster":{"model":{"gbtree_model_param":{"num_parallel_tree":"1","num_trees":"600"},"iteration_indptr":[0,1,2,3,4,5,6,7,8,9,10,11,12,13,14,15,16,17,18,19,20,21,22,23,24,25,26,27,28,29,30,31,32,33,34,35,36,37,38,39,40,41,42,43,44,45,46,47,48,49,50,51,52,53,54,55,56,57,58,59,60,61,62,63,64,65,66,67,68,69,70,71,72,73,74,75,76,77,78,79,80,81,82,83,84,85,86,87,88,89,90,91,92,93,94,95,96,97,98,99,100,101,102,103,104,105,106,107,108,109,110,111,112,113,114,115,116,117,118,119,120,121,122,123,124,125,126,127,128,129,130,131,132,133,134,135,136,137,138,139,140,141,142,143,144,145,146,147,148,149,150,151,152,153,154,155,156,157,158,159,160,161,162,163,164,165,166,167,168,169,170,171,172,173,174,175,176,177,178,179,180,181,182,183,184,185,186,187,188,189,190,191,192,193,194,195,196,197,198,199,200,201,202,203,204,205,206,207,208,209,210,211,212,213,214,215,216,217,218,219,220,221,222,223,224,225,226,227,228,229,230,231,232,233,234,235,236,237,238,239,240,241,242,243,244,245,246,247,248,249,250,251,252,253,254,255,256,257,258,259,260,261,262,263,264,265,266,267,268,269,270,271,272,273,274,275,276,277,278,279,280,281,282,283,284,285,286,287,288,289,290,291,292,293,294,295,296,297,298,299,300,301,302,303,304,305,306,307,308,309,310,311,312,313,314,315,316,317,318,319,320,321,322,323,324,325,326,327,328,329,330,331,332,333,334,335,336,337,338,339,340,341,342,343,344,345,346,347,348,349,350,351,352,353,354,355,356,357,358,359,360,361,362,363,364,365,366,367,368,369,370,371,372,373,374,375,376,377,378,379,380,381,382,383,384,385,386,387,388,389,390,391,392,393,394,395,396,397,398,399,400,401,402,403,404,405,406,407,408,409,410,411,412,413,414,415,416,417,418,419,420,421,422,423,424,425,426,427,428,429,430,431,432,433,434,435,436,437,438,439,440,441,442,443,444,445,446,447,448,449,450,451,452,453,454,455,456,457,458,459,460,461,462,463,464,465,466,467,468,469,470,471,472,473,474,475,476,477,478,479,480,481,482,483,484,485,486,487,488,489,490,491,492,493,494,495,496,497,498,499,500,501,502,503,504,505,506,507,508,509,510,511,512,513,514,515,516,517,518,519,520,521,522,523,524,525,526,527,528,529,530,531,532,533,534,535,536,537,538,539,540,541,542,543,544,545,546,547,548,549,550,551,552,553,554,555,556,557,558,559,560,561,562,563,564,565,566,567,568,569,570,571,572,573,574,575,576,577,578,579,580,581,582,583,584,585,586,587,588,589,590,591,592,593,594,595,596,597,598,599,600],"tree_info":[0,0,0,0,0,0,0,0,0,0,0,0,0,0,0,0,0,0,0,0,0,0,0,0,0,0,0,0,0,0,0,0,0,0,0,0,0,0,0,0,0,0,0,0,0,0,0,0,0,0,0,0,0,0,0,0,0,0,0,0,0,0,0,0,0,0,0,0,0,0,0,0,0,0,0,0,0,0,0,0,0,0,0,0,0,0,0,0,0,0,0,0,0,0,0,0,0,0,0,0,0,0,0,0,0,0,0,0,0,0,0,0,0,0,0,0,0,0,0,0,0,0,0,0,0,0,0,0,0,0,0,0,0,0,0,0,0,0,0,0,0,0,0,0,0,0,0,0,0,0,0,0,0,0,0,0,0,0,0,0,0,0,0,0,0,0,0,0,0,0,0,0,0,0,0,0,0,0,0,0,0,0,0,0,0,0,0,0,0,0,0,0,0,0,0,0,0,0,0,0,0,0,0,0,0,0,0,0,0,0,0,0,0,0,0,0,0,0,0,0,0,0,0,0,0,0,0,0,0,0,0,0,0,0,0,0,0,0,0,0,0,0,0,0,0,0,0,0,0,0,0,0,0,0,0,0,0,0,0,0,0,0,0,0,0,0,0,0,0,0,0,0,0,0,0,0,0,0,0,0,0,0,0,0,0,0,0,0,0,0,0,0,0,0,0,0,0,0,0,0,0,0,0,0,0,0,0,0,0,0,0,0,0,0,0,0,0,0,0,0,0,0,0,0,0,0,0,0,0,0,0,0,0,0,0,0,0,0,0,0,0,0,0,0,0,0,0,0,0,0,0,0,0,0,0,0,0,0,0,0,0,0,0,0,0,0,0,0,0,0,0,0,0,0,0,0,0,0,0,0,0,0,0,0,0,0,0,0,0,0,0,0,0,0,0,0,0,0,0,0,0,0,0,0,0,0,0,0,0,0,0,0,0,0,0,0,0,0,0,0,0,0,0,0,0,0,0,0,0,0,0,0,0,0,0,0,0,0,0,0,0,0,0,0,0,0,0,0,0,0,0,0,0,0,0,0,0,0,0,0,0,0,0,0,0,0,0,0,0,0,0,0,0,0,0,0,0,0,0,0,0,0,0,0,0,0,0,0,0,0,0,0,0,0,0,0,0,0,0,0,0,0,0,0,0,0,0,0,0,0,0,0,0,0,0,0,0,0,0,0,0,0,0,0,0,0,0,0,0,0,0,0,0,0,0,0,0,0,0,0,0,0,0,0,0,0,0,0,0,0,0,0,0,0,0,0,0,0,0,0,0,0,0,0,0,0,0,0,0,0,0,0,0,0,0,0,0,0,0,0,0,0,0,0,0,0,0,0,0,0,0,0,0,0,0,0,0,0,0,0],"trees":[{"base_weights":[1.2882058E-5,1.6354126E-1,-9.286625E-1,8.776112E-1,3.0930975E-2,-1.0871838E0,3.2092652E-1,2.8182168E-3,1.1111293E0,-9.085839E-1,1.1094529E-1,-1.407866E-1,-5.148732E-1,1.0450355E-1,-5.951764E-2,-4.8040915E-1,5.036506E-1,3.2092652E-1,1.219368E0,-1.0619874E0,4.914395E-2,-2.2482897E-1,2.3443884E-1,1.4849438E-2,-6.4538103E-1,-8.7762475E-2,-2.8222239E-2,8.049407E-2,-2.5736345E-3,-4.3231644E-2,9.770417E-2,3.8333753E-1,1.3130518E0,-1.2388704E0,-2.8222239E-2,-5.5414736E-1,4.900755E-3,3.3911803E-1,-2.9006687E-1,-2.659416E-1,-1.07847996E-1,1.4849438E-2,-1.9445073E-2,8.170657E-2,-1.7819704E-2,4.2305112E-1,1.686508E-1,-1.4058564E0,-2.3882817E-1,1.4849438E-2,-1.9445073E-2,-6.921809E-1,5.3461723E-2,-7.9331E-2,8.170657E-2,2.3757268E-1,1.0697156E0,1.6870016E-2,-1.5778916E-1,4.914395E-2,-7.227665E-2,-3.458283E-2,1.0221802E-1,-3.458283E-2,-1.8073136E-1,1.4849438E-2,-5.3739585E-2,-8.043307E-1,4.914395E-2,5.5007905E-1,-1.9732E-1,-3.2412776E-1,3.5708958E-1,1.3433737E-1,2.9435562E-2,7.220858E-2,-9.504634E-2,7.054678E-2,-1.1385731E-1,9.345395E-2,1.0120849E-2,4.2199157E-2,-2.582737E-1,-5.45895E-1,1.2653334E-1,2.710514E-1,1.2382962E-1,6.144476E-2,-1.9952115E-1,-1.9445073E-2,2.9435562E-2,-1.859442E-2,-6.0533E-2,-8.063895E-2,1.0120849E-2,-3.9553355E-2,5.3507965E-2,1.2478708E-2,7.630182E-2,1.3496081E-2,-3.698127E-2],"categories":[],"categories_nodes":[],"categories_segments":[],"categories_sizes":[],"default_left":[0,0,0,0,0,0,0,0,0,0,0,0,0,0,0,0,0,0,0,0,0,0,0,0,0,0,0,0,0,0,0,0,0,0,0,0,0,0,0,0,0,0,0,0,0,0,0,0,0,0,0,0,0,0,0,0,0,0,0,0,0,0,0,0,0,0,0,0,0,0,0,0,0,0,0,0,0,0,0,0,0,0,0,0,0,0,0,0,0,0,0,0,0,0,0,0,0,0,0,0,0],"id":0,"left_children":[1,3,5,7,9,11,13,15,17,19,21,-1,23,-1,-1,25,27,29,31,33,-1,35,37,-1,39,-1,41,-1,-1,-1,-1,43,45,47,49,51,53,55,57,59,-1,-1,-1,-1,-1,61,-1,63,65,-1,-1,67,-1,69,-1,71,73,75,-1,-1,-1,-1,-1,-1,-1,-1,-1,77,-1,79,81,83,85,-1,-1,-1,87,89,-1,-1,-1,-1,91,93,95,97,-1,-1,99,-1,-1,-1,-1,-1,-1,-1,-1,-1,-1,-1,-1],"loss_changes":[4.7386227E1,2.5062016E1,1.0039253E1,8.464809E0,1.7222973E1,7.0755005E-1,4.11504E0,3.2050605E0,1.9187622E0,4.6159487E0,8.840976E0,0E0,9.7103214E-1,0E0,0E0,7.1914184E-1,6.025497E-1,3.0109386E0,1.0590668E0,2.982254E0,0E0,4.3721266E0,8.725552E0,0E0,2.548995E-1,0E0,1.4167787E-1,0E0,0E0,0E0,0E0,1.1765585E0,6.545334E-1,1.622755E0,1.4167787E-1,3.968903E0,2.1842048E0,9.084466E0,8.537495E0,2.0311344E0,0E0,0E0,0E0,0E0,0E0,2.2288873E0,0E0,3.3903122E-1,4.844996E-1,0E0,0E0,3.4267836E0,0E0,2.7860353E0,0E0,8.1261835E0,7.3928833E-3,1.633204E0,0E0,0E0,0E0,0E0,0E0,0E0,0E0,0E0,0E0,2.740199E0,0E0,4.9102402E-1,1.2242773E0,2.327752E0,5.042115E0,0E0,0E0,0E0,1.5767859E0,2.9257777E-1,0E0,0E0,0E0,0E0,5.548756E-1,1.3188481E0,1.6410798E0,5.317102E0,0E0,0E0,7.470728E-1,0E0,0E0,0E0,0E0,0E0,0E0,0E0,0E0,0E0,0E0,0E0,0E0],"parents":[2147483647,0,0,1,1,2,2,3,3,4,4,5,5,6,6,7,7,8,8,9,9,10,10,12,12,15,15,16,16,17,17,18,18,19,19,21,21,22,22,24,24,26,26,31,31,32,32,33,33,34,34,35,35,36,36,37,37,38,38,39,39,45,45,47,47,48,48,51,51,53,53,55,55,56,56,57,57,67,67,69,69,70,70,71,71,72,72,76,76,77,77,82,82,83,83,84,84,85,85,88,88],"right_children":[2,4,6,8,10,12,14,16,18,20,22,-1,24,-1,-1,26,28,30,32,34,-1,36,38,-1,40,-1,42,-1,-1,-1,-1,44,46,48,50,52,54,56,58,60,-1,-1,-1,-1,-1,62,-1,64,66,-1,-1,68,-1,70,-1,72,74,76,-1,-1,-1,-1,-1,-1,-1,-1,-1,78,-1,80,82,84,86,-1,-1,-1,88,90,-1,-1,-1,-1,92,94,96,98,-1,-1,100,-1,-1,-1,-1,-1,-1,-1,-1,-1,-1,-1,-1],"split_conditions":[1.514766E5,0E0,1E0,0E0,-3.5847348E7,1E0,1.05093E5,-9.33804E5,0E0,2.9087196E7,0E0,-1.407866E-1,-6.958E6,1.0450355E-1,-5.951764E-2,0E0,-3.060802E5,1E0,-1.50381E8,5.2786264E7,4.914395E-2,1.05093E5,4.63501E5,1.4849438E-2,1.2152E8,-8.7762475E-2,-2.11141E8,8.049407E-2,-2.5736345E-3,-4.3231644E-2,9.770417E-2,-2.11141E8,0E0,0E0,-1.2639475E8,2.7398075E9,1E0,1.19E7,1.19E7,1.05093E5,-1.07847996E-1,1.4849438E-2,-1.9445073E-2,8.170657E-2,-1.7819704E-2,1.05093E5,1.686508E-1,-4.110849E9,3.30505E6,1.4849438E-2,-1.9445073E-2,7.1478E6,5.3461723E-2,-1E0,8.170657E-2,0E0,3.00372E5,-9.899636E7,-1.5778916E-1,4.914395E-2,-7.227665E-2,-3.458283E-2,1.0221802E-1,-3.458283E-2,-1.8073136E-1,1.4849438E-2,-5.3739585E-2,-1E0,4.914395E-2,0E0,-1E0,1.8011E2,6.958E6,1.3433737E-1,2.9435562E-2,7.220858E-2,-2.1783648E8,0E0,-1.1385731E-1,9.345395E-2,1.0120849E-2,4.2199157E-2,1E0,1E0,1E0,1E0,1.2382962E-1,6.144476E-2,1E0,-1.9445073E-2,2.9435562E-2,-1.859442E-2,-6.0533E-2,-8.063895E-2,1.0120849E-2,-3.9553355E-2,5.3507965E-2,1.2478708E-2,7.630182E-2,1.3496081E-2,-3.698127E-2],"split_indices":[6,6,17,15,7,21,0,6,18,3,18,0,4,0,0,17,6,15,6,4,0,0,0,0,6,0,6,0,0,0,0,6,19,17,7,7,19,7,7,0,0,0,0,0,0,0,0,7,4,0,0,3,0,15,0,3,0,3,0,0,0,0,0,0,0,0,0,17,0,17,17,1,4,0,0,0,4,19,0,0,0,0,17,17,19,21,0,0,8,0,0,0,0,0,0,0,0,0,0,0,0],"split_type":[0,0,0,0,0,0,0,0,0,0,0,0,0,0,0,0,0,0,0,0,0,0,0,0,0,0,0,0,0,0,0,0,0,0,0,0,0,0,0,0,0,0,0,0,0,0,0,0,0,0,0,0,0,0,0,0,0,0,0,0,0,0,0,0,0,0,0,0,0,0,0,0,0,0,0,0,0,0,0,0,0,0,0,0,0,0,0,0,0,0,0,0,0,0,0,0,0,0,0,0,0],"sum_hessian":[3.0752893E2,2.630609E2,4.4468037E1,3.9221806E1,2.238391E2,3.9721447E1,4.746588E0,8.743715E0,3.0478092E1,1.5738687E1,2.0810042E2,3.2476654E1,7.2447925E0,2.7480247E0,1.9985634E0,4.4967675E0,4.2469473E0,4.746588E0,2.5731504E1,1.4489585E1,1.2491021E0,5.5460136E1,1.5264027E2,1.2491021E0,5.9956903E0,1.9985634E0,2.4982042E0,2.7480247E0,1.4989226E0,2.2483838E0,2.4982042E0,3.7473063E0,2.1984198E1,1.1991381E1,2.4982042E0,2.1484556E1,3.397558E1,1.2790806E2,2.4732222E1,4.2469473E0,1.7487429E0,1.2491021E0,1.2491021E0,1.9985634E0,1.7487429E0,3.2476656E0,1.8736532E1,9.493176E0,2.4982042E0,1.2491021E0,1.2491021E0,1.9485992E1,1.9985634E0,3.1977015E1,1.9985634E0,1.149174E2,1.2990663E1,2.0735096E1,3.9971268E0,1.2491021E0,2.9978452E0,1.4989226E0,1.7487429E0,1.4989226E0,7.9942536E0,1.2491021E0,1.2491021E0,1.823689E1,1.2491021E0,3.7473063E0,2.8229708E1,1.9485992E1,9.5431404E1,1.1491739E1,1.4989226E0,1.7487429E0,1.8986353E1,2.7480247E0,1.5488867E1,1.4989226E0,2.2483838E0,1.7487429E0,2.6480965E1,1.2740842E1,6.7451515E0,8.743715E1,7.9942536E0,1.4989226E0,1.748743E1,1.2491021E0,1.4989226E0,2.1234735E1,5.246229E0,1.0492458E1,2.2483838E0,2.7480247E0,3.9971268E0,6.1955467E1,2.5481684E1,4.4967675E0,1.2990663E1],"tree_param":{"num_deleted":"0","num_feature":"30","num_nodes":"101","size_leaf_vector":"1"}},{"base_weights":[2.574468E-3,1.4901361E-1,-8.2832795E-1,7.959829E-1,2.9408004E-2,-9.7137487E-1,2.975689E-1,-1.0286767E-1,9.332898E-1,-8.270656E-1,1.0232583E-1,-4.3503505E-1,-1.1083289E0,9.79211E-2,-5.6137487E-2,-6.516827E-2,7.058336E-2,8.449742E-3,1.0901461E0,-9.755228E-1,4.975624E-2,-6.420094E-1,1.9253717E-1,1.0468637E-1,-9.716906E-1,-1.4248437E-1,-4.1663134E-1,-3.715531E-1,8.175285E-2,3.0390197E-1,1.2071666E0,-1.1379305E0,-2.7011428E-2,4.1223988E-2,-7.581845E-1,-1.449527E-1,2.3357166E-1,-1.4003725E-2,-1.2797508E-1,-8.20363E-2,-7.608837E-2,-8.716759E-2,4.504756E-2,7.6823354E-2,-3.0237969E-2,1.6010374E-1,4.886819E-1,-1.3521425E0,-1.9116122E-1,1.50945475E-2,-1.9494092E-2,-8.256035E-1,1.4308203E-2,-3.5292444E-1,3.1717268E-1,1.8696304E-2,-2.721273E-2,-1.8206444E-1,1.15475595E-1,-1.7473339E-1,-3.2545056E-2,-4.4504303E-2,1.6447505E-2,-1.0636265E-1,-3.1727257E-3,3.4305933E-1,-5.982012E-1,-2.8405407E-1,4.0041602E-1,2.1480199E-2,-5.402707E-2,5.941766E-1,-1.6232172E-2,-7.5620484E-1,5.86321E-2,-5.453493E-1,1.1529074E-1,3.3082068E-1,1.1256772E0,1.4031194E-2,8.0690056E-2,-1.1542785E-1,9.182406E-3,-8.62254E-2,8.199324E-2,3.0589946E-2,1.18496165E-1,1.3230955E-2,1.4673835E-1],"categories":[],"categories_nodes":[],"categories_segments":[],"categories_sizes":[],"default_left":[0,0,0,0,0,0,0,0,0,0,0,0,0,0,0,0,0,0,0,0,0,0,0,0,0,0,0,0,0,0,0,0,0,0,0,0,0,0,0,0,0,0,0,0,0,0,0,0,0,0,0,0,0,0,0,0,0,0,0,0,0,0,0,0,0,0,0,0,0,0,0,0,0,0,0,0,0,0,0,0,0,0,0,0,0,0,0,0,0],"id":1,"left_children":[1,3,5,7,9,11,13,15,17,19,21,23,25,-1,-1,-1,-1,27,29,31,-1,33,35,-1,37,-1,39,41,-1,43,45,47,49,-1,51,-1,53,-1,-1,-1,55,-1,-1,-1,-1,-1,57,59,61,-1,-1,63,-1,65,67,-1,-1,69,-1,-1,-1,-1,-1,-1,-1,71,73,75,77,-1,-1,79,-1,81,-1,83,-1,85,87,-1,-1,-1,-1,-1,-1,-1,-1,-1,-1],"loss_changes":[3.7894558E1,2.0433157E1,8.166027E0,5.3033066E0,1.4290208E1,1.9952049E0,3.6297457E0,2.9968894E0,5.198925E0,4.2210245E0,1.438301E1,1.0490504E1,6.3365555E-1,0E0,0E0,0E0,0E0,2.4833097E0,2.0033836E0,2.5055676E0,0E0,3.245266E0,1.150099E1,0E0,5.08975E-1,0E0,4.960512E-1,2.267313E0,0E0,1.6697173E0,9.065399E-1,2.3015385E0,1.4424089E-1,0E0,1.4920225E0,0E0,9.351434E0,0E0,0E0,0E0,2.715066E-1,0E0,0E0,0E0,0E0,0E0,2.7632785E0,3.7267113E-1,4.2365372E-1,0E0,0E0,9.2942524E-1,0E0,4.596059E0,8.444643E0,0E0,0E0,6.633652E-1,0E0,0E0,0E0,0E0,0E0,0E0,0E0,1.1106477E0,4.0472245E0,8.079304E0,6.463398E0,0E0,0E0,2.8217673E-2,0E0,3.1175108E0,0E0,5.141269E0,0E0,6.1709957E0,8.535805E-1,0E0,0E0,0E0,0E0,0E0,0E0,0E0,0E0,0E0,0E0],"parents":[2147483647,0,0,1,1,2,2,3,3,4,4,5,5,6,6,7,7,8,8,9,9,10,10,11,11,12,12,17,17,18,18,19,19,21,21,22,22,24,24,26,26,27,27,29,29,30,30,31,31,32,32,34,34,36,36,40,40,46,46,47,47,48,48,51,51,53,53,54,54,57,57,65,65,66,66,67,67,68,68,71,71,73,73,75,75,77,77,78,78],"right_children":[2,4,6,8,10,12,14,16,18,20,22,24,26,-1,-1,-1,-1,28,30,32,-1,34,36,-1,38,-1,40,42,-1,44,46,48,50,-1,52,-1,54,-1,-1,-1,56,-1,-1,-1,-1,-1,58,60,62,-1,-1,64,-1,66,68,-1,-1,70,-1,-1,-1,-1,-1,-1,-1,72,74,76,78,-1,-1,80,-1,82,-1,84,-1,86,88,-1,-1,-1,-1,-1,-1,-1,-1,-1,-1],"split_conditions":[1.514766E5,0E0,1E0,0E0,-3.5847348E7,0E0,4.128E1,1.3718E6,0E0,2E0,-1.9670271E0,-1.722105E7,1E0,9.79211E-2,-5.6137487E-2,-6.516827E-2,7.058336E-2,1E0,-1.50381E8,5.2786264E7,4.975624E-2,-1E0,-4.329673E8,1.0468637E-1,1.18E2,-1.4248437E-1,-5.149879E7,3.1311E7,8.175285E-2,-2.11141E8,2E0,4.471608E6,-1E0,4.1223988E-2,2E0,-1.449527E-1,-1.3414825E7,-1.4003725E-2,-1.2797508E-1,-8.20363E-2,-3.30505E6,-8.716759E-2,4.504756E-2,7.6823354E-2,-3.0237969E-2,1.6010374E-1,4.128E1,0E0,1E0,1.50945475E-2,-1.9494092E-2,2E0,1.4308203E-2,-5.899783E7,-3.0989806E7,1.8696304E-2,-2.721273E-2,1.3718E6,1.15475595E-1,-1.7473339E-1,-3.2545056E-2,-4.4504303E-2,1.6447505E-2,-1.0636265E-1,-3.1727257E-3,5.2786264E7,3.8468004E9,1.8377749E8,1.5538838E7,2.1480199E-2,-5.402707E-2,-1.2285292E8,-1.6232172E-2,3.0989806E7,5.86321E-2,1E0,1.1529074E-1,3.9729729E0,-1.25240664E8,1.4031194E-2,8.0690056E-2,-1.1542785E-1,9.182406E-3,-8.62254E-2,8.199324E-2,3.0589946E-2,1.18496165E-1,1.3230955E-2,1.4673835E-1],"split_indices":[6,6,17,17,7,16,1,3,18,12,14,4,12,0,0,0,0,16,6,4,0,17,5,0,2,0,4,4,0,6,12,3,17,0,16,0,3,0,0,0,4,0,0,0,0,0,1,17,18,0,0,18,0,3,4,0,0,3,0,0,0,0,0,0,0,4,7,5,3,0,0,3,0,4,0,20,0,14,5,0,0,0,0,0,0,0,0,0,0],"split_type":[0,0,0,0,0,0,0,0,0,0,0,0,0,0,0,0,0,0,0,0,0,0,0,0,0,0,0,0,0,0,0,0,0,0,0,0,0,0,0,0,0,0,0,0,0,0,0,0,0,0,0,0,0,0,0,0,0,0,0,0,0,0,0,0,0,0,0,0,0,0,0,0,0,0,0,0,0,0,0,0,0,0,0,0,0,0,0,0,0],"sum_hessian":[3.0690414E2,2.6248923E2,4.4414898E1,3.8969883E1,2.2351935E2,3.9682034E1,4.732866E0,5.2388983E0,3.3730984E1,1.5711047E1,2.078083E2,9.983145E0,2.9698889E1,2.732883E0,1.9999827E0,3.4946678E0,1.7442304E0,5.2351613E0,2.8495823E1,1.4464053E1,1.2469938E0,2.0975607E1,1.8683269E2,2.49562E0,7.487525E0,2.5206203E1,4.492686E0,3.9894516E0,1.2457095E0,4.740216E0,2.3755608E1,1.1965882E1,2.4981716E0,1.7475322E0,1.9228075E1,3.4970596E0,1.8333563E2,1.248081E0,6.239444E0,1.2476285E0,3.2450573E0,2.74658E0,1.2428718E0,2.7408419E0,1.9993737E0,1.8548063E1,5.2075443E0,8.972445E0,2.9934373E0,1.2491957E0,1.2489759E0,1.7979446E1,1.2486274E0,2.196856E1,1.6136708E2,1.2480251E0,1.9970322E0,2.7284727E0,2.4790716E0,7.4727373E0,1.4997072E0,1.7454413E0,1.247996E0,1.6481085E1,1.498363E0,5.4908996E0,1.6477661E1,1.8964903E1,1.4240218E2,1.4816257E0,1.246847E0,3.2432716E0,2.2476277E0,1.4983704E1,1.493957E0,1.6719608E1,2.2452953E0,1.329233E2,9.478871E0,1.2473328E0,1.9959388E0,1.1735786E1,3.2479167E0,1.5472602E1,1.2470068E0,1.2195008E2,1.0973222E1,1.2470777E0,8.231793E0],"tree_param":{"num_deleted":"0","num_feature":"30","num_nodes":"89","size_leaf_vector":"1"}},{"base_weights":[3.564259E-3,1.3519071E-1,-7.4594474E-1,7.2798526E-1,2.658077E-2,-8.764974E-1,2.7665994E-1,-1.9903708E-2,9.3249756E-1,-5.830342E-2,5.8696765E-1,-6.5991914E-1,-1.4206712E-1,9.201354E-2,-5.2992243E-2,-4.5951244E-1,4.450242E-1,3.0571187E-1,1.0157117E0,-1.0924129E-1,7.918932E-1,7.044939E-1,-2.8734521E-3,-7.7878505E-2,-8.231849E-1,-8.275786E-2,-4.2294115E-3,6.069649E-1,-4.5439126E-3,-3.7821647E-2,9.009345E-2,3.4759578E-1,1.0881419E0,-2.1846674E-1,2.181447E-1,9.61175E-2,1.2472146E-1,3.7917405E-1,1.3305989E-1,3.295288E-1,-5.4811914E-2,-1.1118898E-1,8.375324E-1,-7.927079E-3,-1.0543677E-1,1.1146706E-2,8.6629204E-2,7.763128E-2,-1.9916806E-2,1.4601968E-1,4.121959E-1,-2.82791E-1,3.946449E-1,-1.0279239E-1,3.6562333E-1,-1.7214594E-2,3.53071E-2,-3.584588E-1,6.630766E-1,7.74409E-2,-1.2807053E-2,1.13224804E-1,2.0139437E-2,-1.7500225E-1,1.0325314E-1,-3.287434E-1,1.6141215E-1,5.882237E-1,-1.0035179E-1,-4.909444E-1,5.0976753E-1,1.1433201E-2,-6.987808E-2,1.0429515E-1,1.6438093E-2,2.1068584E-2,-5.2367426E-2,-1.4893636E-3,-4.1122082E-1,6.5380657E-1,-3.1457564E-1,9.106832E-2,5.015248E-2,2.36818E-2,-5.2736197E-2,7.438215E-2,-1.1538969E-1,-7.126981E-2,5.9770364E-1,5.8424313E-2,-5.209265E-2,-7.108893E-2,6.386799E-2,-5.4109547E-2,2.2539565E-2,-3.903928E-3,1.1004399E-1,1.0629821E-2,-5.899348E-2,-5.3514067E-2,5.8035385E-2,-2.7890202E-2,4.7929674E-2,-3.1055642E-2,8.7146305E-2],"categories":[],"categories_nodes":[],"categories_segments":[],"categories_sizes":[],"default_left":[0,0,0,0,0,0,0,0,0,0,0,0,0,0,0,0,0,0,0,0,0,0,0,0,0,0,0,0,0,0,0,0,0,0,0,0,0,0,0,0,0,0,0,0,0,0,0,0,0,0,0,0,0,0,0,0,0,0,0,0,0,0,0,0,0,0,0,0,0,0,0,0,0,0,0,0,0,0,0,0,0,0,0,0,0,0,0,0,0,0,0,0,0,0,0,0,0,0,0,0,0,0,0,0,0],"id":2,"left_children":[1,3,5,7,9,11,13,15,17,19,21,23,-1,-1,-1,25,27,29,31,33,35,37,39,41,43,-1,-1,45,-1,-1,-1,47,49,51,53,55,-1,57,-1,59,-1,-1,61,-1,-1,-1,-1,-1,-1,-1,63,65,67,-1,69,-1,-1,71,73,-1,-1,-1,-1,75,-1,77,79,81,83,85,87,-1,-1,-1,89,-1,-1,91,93,95,97,-1,99,-1,-1,101,-1,-1,103,-1,-1,-1,-1,-1,-1,-1,-1,-1,-1,-1,-1,-1,-1,-1,-1],"loss_changes":[3.0585249E1,1.6931664E1,6.728636E0,6.273239E0,1.0787736E1,1.0123272E0,3.209744E0,2.6984456E0,9.7245026E-1,8.751857E0,2.0719786E0,2.6585655E0,0E0,0E0,0E0,6.0300815E-1,5.5731046E-1,2.4595942E0,4.7083473E-1,6.8442497E0,1.7452111E0,2.326398E0,1.4243491E0,8.696432E0,8.266344E-1,0E0,0E0,1.4303017E-1,0E0,0E0,0E0,1.1605344E0,9.233093E-1,5.866825E0,8.353611E0,3.5510588E-1,0E0,4.13782E0,0E0,9.073432E-1,0E0,0E0,3.315687E-2,0E0,0E0,0E0,0E0,0E0,0E0,0E0,2.2273772E0,2.7767324E0,1.5183761E0,0E0,5.997166E0,0E0,0E0,7.5885653E-1,1.7283578E0,0E0,0E0,0E0,0E0,6.283685E-1,0E0,3.203001E0,3.6769364E0,8.9910936E-1,7.995759E-1,2.1525853E0,4.56205E0,0E0,0E0,0E0,1.6383573E0,0E0,0E0,8.958701E0,2.4450092E0,1.4169796E0,7.041031E-1,0E0,1.5586659E0,0E0,0E0,7.562495E-1,0E0,0E0,4.4995356E0,0E0,0E0,0E0,0E0,0E0,0E0,0E0,0E0,0E0,0E0,0E0,0E0,0E0,0E0,0E0,0E0],"parents":[2147483647,0,0,1,1,2,2,3,3,4,4,5,5,6,6,7,7,8,8,9,9,10,10,11,11,15,15,16,16,17,17,18,18,19,19,20,20,21,21,22,22,23,23,24,24,27,27,31,31,32,32,33,33,34,34,35,35,37,37,39,39,42,42,50,50,51,51,52,52,54,54,57,57,58,58,63,63,65,65,66,66,67,67,68,68,69,69,70,70,74,74,77,77,78,78,79,79,80,80,82,82,85,85,88,88],"right_children":[2,4,6,8,10,12,14,16,18,20,22,24,-1,-1,-1,26,28,30,32,34,36,38,40,42,44,-1,-1,46,-1,-1,-1,48,50,52,54,56,-1,58,-1,60,-1,-1,62,-1,-1,-1,-1,-1,-1,-1,64,66,68,-1,70,-1,-1,72,74,-1,-1,-1,-1,76,-1,78,80,82,84,86,88,-1,-1,-1,90,-1,-1,92,94,96,98,-1,100,-1,-1,102,-1,-1,104,-1,-1,-1,-1,-1,-1,-1,-1,-1,-1,-1,-1,-1,-1,-1,-1],"split_conditions":[1.514766E5,0E0,1E0,0E0,9.5640033E-1,3.64756E5,1.05093E5,-9.33804E5,0E0,1.8377749E8,2E0,-1.408995E7,-1.4206712E-1,9.201354E-2,-5.2992243E-2,1E0,-3.060802E5,1E0,-1.50381E8,1E0,1.05093E5,3.9729729E0,1.8011E2,-3.0989806E7,-4.04E6,-8.275786E-2,-4.2294115E-3,1E0,-4.5439126E-3,-3.7821647E-2,9.009345E-2,1E0,2E0,2E0,-3.94532E0,0E0,1.2472146E-1,0E0,1.3305989E-1,0E0,-5.4811914E-2,-1.1118898E-1,1.2152E8,-7.927079E-3,-1.0543677E-1,1.1146706E-2,8.6629204E-2,7.763128E-2,-1.9916806E-2,1.4601968E-1,1.05093E5,5.2786264E7,3.64756E5,-1.0279239E-1,-4.2598E6,-1.7214594E-2,3.53071E-2,0E0,1E0,7.74409E-2,-1.2807053E-2,1.13224804E-1,2.0139437E-2,-1.23039E8,1.0325314E-1,0E0,4.63501E5,2.124014E6,1E0,-8.943216E6,-3.8209018E8,1.1433201E-2,-6.987808E-2,1.0429515E-1,2.0135996E0,2.1068584E-2,-5.2367426E-2,-3.0989806E7,3.8243E2,1E0,-1.3526615E7,9.106832E-2,-3.30505E6,2.36818E-2,-5.2736197E-2,-3.5551016E7,-1.1538969E-1,-7.126981E-2,-3.1311E7,5.8424313E-2,-5.209265E-2,-7.108893E-2,6.386799E-2,-5.4109547E-2,2.2539565E-2,-3.903928E-3,1.1004399E-1,1.0629821E-2,-5.899348E-2,-5.3514067E-2,5.8035385E-2,-2.7890202E-2,4.7929674E-2,-3.1055642E-2,8.7146305E-2],"split_indices":[6,6,17,15,14,0,0,6,18,5,17,4,0,0,0,12,6,15,6,18,0,14,1,4,5,0,0,12,0,0,0,18,12,12,14,12,0,18,0,12,0,0,6,0,0,0,0,0,0,0,0,4,0,0,3,0,0,12,17,0,0,0,0,6,0,4,0,3,15,3,5,0,0,0,14,0,0,4,1,15,3,0,4,0,0,3,0,0,4,0,0,0,0,0,0,0,0,0,0,0,0,0,0,0,0],"split_type":[0,0,0,0,0,0,0,0,0,0,0,0,0,0,0,0,0,0,0,0,0,0,0,0,0,0,0,0,0,0,0,0,0,0,0,0,0,0,0,0,0,0,0,0,0,0,0,0,0,0,0,0,0,0,0,0,0,0,0,0,0,0,0,0,0,0,0,0,0,0,0,0,0,0,0,0,0,0,0,0,0,0,0,0,0,0,0,0,0,0,0,0,0,0,0,0,0,0,0,0,0,0,0,0,0],"sum_hessian":[3.0547168E2,2.6140814E2,4.406353E1,3.8491245E1,2.229169E2,3.9360035E1,4.703495E0,8.701483E0,2.9789762E1,1.9534332E2,2.7573578E1,2.724479E1,1.2115247E1,2.705418E0,1.9980768E0,4.4859953E0,4.2154875E0,4.7239633E0,2.5065798E1,1.8615134E2,9.191997E0,2.2627651E1,4.945926E0,6.6961937E0,2.0548597E1,1.9959432E0,2.490052E0,2.7238915E0,1.491596E0,2.2465441E0,2.477419E0,3.72776E0,2.133804E1,1.4014384E2,4.6007484E1,3.2310467E0,5.96095E0,1.495513E1,7.672522E0,3.2109296E0,1.7349968E0,3.4604754E0,3.2357183E0,1.7388134E0,1.8809784E1,1.2411761E0,1.4827155E0,1.9859828E0,1.7417773E0,1.6412872E1,4.925165E0,1.27933945E2,1.2209902E1,4.246013E0,4.176147E1,1.7434334E0,1.4876133E0,3.9920766E0,1.0963053E1,1.237041E0,1.9738886E0,1.9992499E0,1.2364682E0,2.7258723E0,2.199293E0,1.16470055E2,1.1463887E1,8.47271E0,3.737192E0,5.2356462E0,3.6525826E1,1.7458385E0,2.2462382E0,7.7267804E0,3.2362726E0,1.4798553E0,1.2460171E0,2.3906088E1,9.256397E1,5.221676E0,6.2422113E0,5.731286E0,2.7414234E0,2.4910183E0,1.2461735E0,3.2391675E0,1.9964786E0,1.7400595E0,3.4785767E1,1.4944478E0,1.7418246E0,1.1227742E1,1.2678347E1,8.733378E1,5.2301927E0,1.9941171E0,3.2275589E0,2.2477372E0,3.9944744E0,1.2481698E0,1.4932536E0,1.9961194E0,1.2430481E0,4.2409244E0,3.0544842E1],"tree_param":{"num_deleted":"0","num_feature":"30","num_nodes":"105","size_leaf_vector":"1"}},{"base_weights":[5.861106E-3,1.2447532E-1,-6.74642E-1,6.7030984E-1,2.5687648E-2,-7.945553E-1,2.578519E-1,-1.6225945E-2,8.609939E-1,-8.635856E-2,3.6259952E-1,-3.4157994E-1,-1.0947467E-1,8.667265E-2,-5.0059546E-2,-4.3384635E-1,4.252445E-1,1.9833516E-1,9.38893E-1,-1.19448625E-1,-5.823603E-2,5.018403E-1,-3.2318896E-1,-9.247322E-1,3.4547937E-1,-7.819895E-2,-3.3040456E-2,6.96526E-2,-4.3261573E-3,-5.7161994E-2,9.304938E-2,1.2988986E-1,5.325351E-1,-1.1601762E-1,3.0191043E-1,-2.1728362E-1,5.9651905E-1,-6.779688E-1,7.215268E-2,-1.1419586E-2,-1.2758945E-1,8.545165E-2,-2.8632533E-2,1.3873027E-2,-1.9255053E-2,1.4707677E-1,6.8357027E-1,-3.3785284E-1,5.824933E-2,6.514779E-1,-1.1968073E-1,-4.885033E-1,4.655756E-2,7.3695433E-1,9.210894E-2,2.4540305E-2,-1.0987959E-1,-2.0350905E-1,6.691526E-2,2.015626E-2,9.130408E-2,6.926149E-2,-3.9526802E-1,-5.4317224E-3,7.917354E-1,8.8563466E-1,-1.4272118E-1,-7.811321E-2,1.7409587E-1,-7.2268276E-3,-7.2023444E-2,8.036326E-1,-7.283224E-3,4.6047002E-1,-6.3550584E-2,-3.7899427E-2,5.839491E-3,-4.3598711E-1,4.751384E-2,-3.964172E-1,7.7299766E-2,1.0796166E-1,1.3451064E-2,2.4332833E-2,9.8914456E-1,-5.0555896E-2,2.43979E-2,-1.7342454E-1,3.59201E-1,8.9591527E-1,1.4786685E-1,-3.932377E-2,4.0918063E-2,6.109614E-1,1.1577406E-2,-5.670106E-2,4.1315958E-2,4.9467057E-2,-8.642306E-2,1.8628934E-2,-6.3059725E-2,1.2184854E-2,1.328943E-1,-3.8145925E-3,-2.5629124E-2,6.09415E-2,7.59495E-3,1.2158821E-1,3.807345E-2,-4.757677E-2,6.4516224E-2,-4.1076513E-3,1.02901086E-1],"categories":[],"categories_nodes":[],"categories_segments":[],"categories_sizes":[],"default_left":[0,0,0,0,0,0,0,0,0,0,0,0,0,0,0,0,0,0,0,0,0,0,0,0,0,0,0,0,0,0,0,0,0,0,0,0,0,0,0,0,0,0,0,0,0,0,0,0,0,0,0,0,0,0,0,0,0,0,0,0,0,0,0,0,0,0,0,0,0,0,0,0,0,0,0,0,0,0,0,0,0,0,0,0,0,0,0,0,0,0,0,0,0,0,0,0,0,0,0,0,0,0,0,0,0,0,0,0,0,0,0,0,0],"id":3,"left_children":[1,3,5,7,9,11,13,15,17,19,21,23,-1,-1,-1,25,27,29,31,-1,33,35,37,39,41,-1,43,-1,-1,-1,-1,-1,45,47,49,51,53,55,-1,-1,-1,-1,-1,-1,-1,57,59,61,63,65,67,69,-1,71,73,-1,-1,75,-1,-1,-1,-1,77,79,81,83,85,-1,87,-1,-1,89,91,93,-1,-1,-1,95,-1,97,99,-1,-1,-1,101,-1,-1,103,105,107,109,-1,-1,111,-1,-1,-1,-1,-1,-1,-1,-1,-1,-1,-1,-1,-1,-1,-1,-1,-1,-1,-1],"loss_changes":[2.4878252E1,1.4108798E1,5.5768642E0,5.283409E0,8.545385E0,1.4902E0,2.8447099E0,2.4300659E0,1.2039394E0,4.2230163E0,5.75646E0,5.556098E0,0E0,0E0,0E0,5.390835E-1,5.0877523E-1,3.2293243E0,3.0862236E-1,0E0,3.565936E0,3.5471E0,4.491438E0,5.9304905E-1,1.9199715E0,0E0,1.3151234E-1,0E0,0E0,0E0,0E0,0E0,4.4996023E-1,5.6895294E0,3.6818426E0,1.6103613E0,2.8827896E0,2.2950864E0,0E0,0E0,0E0,0E0,0E0,0E0,0E0,1.1385903E0,2.0438194E-2,3.9059691E0,3.9193141E0,2.768271E0,2.2349207E0,2.0455074E-1,0E0,1.6606216E0,3.2747605E0,0E0,0E0,1.7502132E-1,0E0,0E0,0E0,0E0,2.3891134E0,2.63243E0,2.647643E-1,2.998953E-1,6.7269623E-1,0E0,7.798401E-1,0E0,0E0,1.5469837E0,8.048514E-1,3.427571E-1,0E0,0E0,0E0,2.0796156E0,0E0,4.3877993E0,3.345138E0,0E0,0E0,0E0,6.551628E-1,0E0,0E0,1.3006836E-2,2.4528831E-1,1.0608997E0,1.8493519E0,0E0,0E0,9.7560287E-1,0E0,0E0,0E0,0E0,0E0,0E0,0E0,0E0,0E0,0E0,0E0,0E0,0E0,0E0,0E0,0E0,0E0,0E0,0E0],"parents":[2147483647,0,0,1,1,2,2,3,3,4,4,5,5,6,6,7,7,8,8,9,9,10,10,11,11,15,15,16,16,17,17,18,18,20,20,21,21,22,22,23,23,24,24,26,26,32,32,33,33,34,34,35,35,36,36,37,37,45,45,46,46,47,47,48,48,49,49,50,50,51,51,53,53,54,54,57,57,62,62,63,63,64,64,65,65,66,66,68,68,71,71,72,72,73,73,77,77,79,79,80,80,84,84,87,87,88,88,89,89,90,90,93,93],"right_children":[2,4,6,8,10,12,14,16,18,20,22,24,-1,-1,-1,26,28,30,32,-1,34,36,38,40,42,-1,44,-1,-1,-1,-1,-1,46,48,50,52,54,56,-1,-1,-1,-1,-1,-1,-1,58,60,62,64,66,68,70,-1,72,74,-1,-1,76,-1,-1,-1,-1,78,80,82,84,86,-1,88,-1,-1,90,92,94,-1,-1,-1,96,-1,98,100,-1,-1,-1,102,-1,-1,104,106,108,110,-1,-1,112,-1,-1,-1,-1,-1,-1,-1,-1,-1,-1,-1,-1,-1,-1,-1,-1,-1,-1,-1],"split_conditions":[1.514766E5,0E0,1E0,0E0,1E0,0E0,1.05093E5,-9.33804E5,0E0,-4.329673E8,4.63501E5,0E0,-1.0947467E-1,8.667265E-2,-5.0059546E-2,0E0,-3.060802E5,1.05093E5,1E0,-1.19448625E-1,8.7362E6,0E0,1.919E6,1.18E2,1E0,-7.819895E-2,-2.11141E8,6.96526E-2,-4.3261573E-3,-5.7161994E-2,9.304938E-2,1.2988986E-1,-1.23039E8,1.05093E5,1.53E2,1E0,2E0,1E0,7.215268E-2,-1.1419586E-2,-1.2758945E-1,8.545165E-2,-2.8632533E-2,1.3873027E-2,-1.9255053E-2,1.3718E6,1.18E2,-1.8377749E8,1.4039E7,1E0,0E0,1E0,4.655756E-2,2E0,1.05093E5,2.4540305E-2,-1.0987959E-1,1E0,6.691526E-2,2.015626E-2,9.130408E-2,6.926149E-2,2E0,-4.5833985E6,5.606771E8,0E0,0E0,-7.811321E-2,0E0,-7.2268276E-3,-7.2023444E-2,1E0,1E0,2E0,-6.3550584E-2,-3.7899427E-2,5.839491E-3,2E0,4.751384E-2,-5.899783E7,1E0,1.0796166E-1,1.3451064E-2,2.4332833E-2,1.4436608E7,-5.0555896E-2,2.43979E-2,1E0,4.63501E5,1E0,1E0,-3.932377E-2,4.0918063E-2,1E0,1.1577406E-2,-5.670106E-2,4.1315958E-2,4.9467057E-2,-8.642306E-2,1.8628934E-2,-6.3059725E-2,1.2184854E-2,1.328943E-1,-3.8145925E-3,-2.5629124E-2,6.09415E-2,7.59495E-3,1.2158821E-1,3.807345E-2,-4.757677E-2,6.4516224E-2,-4.1076513E-3,1.02901086E-1],"split_indices":[6,6,17,15,16,16,0,6,19,5,0,17,0,0,0,17,6,0,20,0,3,19,5,2,20,0,6,0,0,0,0,0,6,0,2,23,16,8,0,0,0,0,0,0,0,3,2,5,5,23,20,17,0,21,0,0,0,21,0,0,0,0,21,3,5,15,17,0,15,0,0,20,15,17,0,0,0,19,0,3,17,0,0,0,3,0,0,21,0,19,19,0,0,15,0,0,0,0,0,0,0,0,0,0,0,0,0,0,0,0,0,0,0],"split_type":[0,0,0,0,0,0,0,0,0,0,0,0,0,0,0,0,0,0,0,0,0,0,0,0,0,0,0,0,0,0,0,0,0,0,0,0,0,0,0,0,0,0,0,0,0,0,0,0,0,0,0,0,0,0,0,0,0,0,0,0,0,0,0,0,0,0,0,0,0,0,0,0,0,0,0,0,0,0,0,0,0,0,0,0,0,0,0,0,0,0,0,0,0,0,0,0,0,0,0,0,0,0,0,0,0,0,0,0,0,0,0,0,0],"sum_hessian":[3.0362357E2,2.601218E2,4.350176E1,3.7868546E1,2.2225327E2,3.8839993E1,4.661767E0,8.679076E0,2.9189468E1,1.6804132E2,5.4211945E1,9.823267E0,2.9016726E1,2.6683686E0,1.9933983E0,4.4799805E0,4.199096E0,3.9097023E0,2.5279766E1,2.7202785E0,1.6532104E2,4.5564217E1,8.647729E0,4.8924155E0,4.930851E0,1.9902211E0,2.4897592E0,2.7071898E0,1.4919064E0,1.9834697E0,1.9262323E0,1.5915283E1,9.364483E0,1.4377852E2,2.1542519E1,4.9620194E0,4.0602196E1,6.682945E0,1.9647835E0,1.2431138E0,3.6493018E0,2.726408E0,2.2044432E0,1.2453951E0,1.2443641E0,3.886567E0,5.477916E0,6.2326786E1,8.145174E1,1.1106522E1,1.0435996E1,3.7262998E0,1.2357198E0,3.0948402E1,9.653795E0,1.4847629E0,5.198182E0,2.7084174E0,1.1781496E0,1.6449283E0,3.8329873E0,2.4772909E0,5.98495E1,7.699996E1,4.451776E0,8.377508E0,2.7290144E0,2.7419612E0,7.6940346E0,1.4871299E0,2.2391698E0,2.8238844E1,2.7095587E0,6.4284077E0,3.2253873E0,1.4808519E0,1.2275656E0,5.7880894E1,1.9686034E0,1.1957623E1,6.5042336E1,3.213018E0,1.2387581E0,1.9790819E0,6.398426E0,1.2407647E0,1.4882497E0,2.7232764E0,4.9707584E0,2.4032845E1,4.206E0,1.4804205E0,1.2291384E0,3.4679565E0,2.9604511E0,5.6140694E1,1.7401993E0,3.2431195E0,8.714502E0,5.9074577E1,5.9677596E0,1.244288E0,5.1541376E0,1.4918939E0,1.2313825E0,2.236035E0,2.734723E0,1.8576502E1,5.4563427E0,1.7388562E0,2.4671435E0,1.4945291E0,1.9734274E0],"tree_param":{"num_deleted":"0","num_feature":"30","num_nodes":"113","size_leaf_vector":"1"}},{"base_weights":[8.5461205E-3,1.1547326E-1,-6.114885E-1,-7.5024956E-1,1.7696173E-1,-7.220823E-1,2.4086013E-1,-8.865792E-1,4.530324E-2,-5.244361E-1,2.4740034E-1,-5.211966E-1,-1.0209776E0,8.181232E-2,-4.7319915E-2,-1.0378845E0,-2.0113753E-2,4.0782977E-2,-6.3069856E-1,-1.2402002E-1,2.7760056E-1,-2.5182929E-2,-6.6499954E-1,-1.3084288E-1,-2.6860828E-2,-1.2263548E0,-1.926883E-1,1.5703877E-2,-1.8988531E-2,-2.2821404E-1,-9.3428004E-1,-7.9045676E-2,3.9369813E-1,-9.8364316E-2,7.9961073E-1,-8.188596E-1,-1.3933286E-1,-1.575441E-1,-3.2228615E-2,-4.083151E-2,1.2042776E-2,3.3670817E-2,-9.440553E-2,-1.4640285E-1,-2.1479462E-1,-1.93543E-1,7.345377E-1,-6.274117E-2,5.015839E-1,1.9531813E-2,1.0781608E-1,-5.4986123E-3,-9.009073E-1,-3.4470484E-1,1.6906867E-2,-2.4973482E-1,7.599359E-2,1.9906975E-2,-5.50908E-2,-3.002087E-1,9.9572204E-2,1.3676143E-2,1.0558289E-1,-1.8373226E-1,5.441098E-1,-2.2048858E-1,5.7994133E-1,-1.3004835E-1,-1.6836336E-1,8.133016E-3,-7.053637E-2,2.3318705E-1,-7.134033E-2,-4.0071562E-1,4.2539003E-1,-2.6815423E-1,7.599181E-2,9.6822925E-2,4.424876E-3,-4.498688E-1,8.822932E-2,5.098298E-1,1.4088275E-1,-4.5667876E-2,1.2822809E-2,6.640782E-2,-2.7289016E-2,-6.444223E-2,3.3537034E-2,-2.4836216E-2,8.216758E-2,5.4956153E-2,-4.4079315E-2,-8.036013E-2,7.38742E-2,4.892867E-2,1.1532583E-1],"categories":[],"categories_nodes":[],"categories_segments":[],"categories_sizes":[],"default_left":[0,0,0,0,0,0,0,0,0,0,0,0,0,0,0,0,0,0,0,0,0,0,0,0,0,0,0,0,0,0,0,0,0,0,0,0,0,0,0,0,0,0,0,0,0,0,0,0,0,0,0,0,0,0,0,0,0,0,0,0,0,0,0,0,0,0,0,0,0,0,0,0,0,0,0,0,0,0,0,0,0,0,0,0,0,0,0,0,0,0,0,0,0,0,0,0,0],"id":4,"left_children":[1,3,5,7,9,11,13,15,-1,17,19,21,23,-1,-1,25,27,-1,29,-1,31,33,35,-1,-1,37,39,-1,-1,41,43,45,47,-1,49,51,53,-1,-1,-1,-1,55,-1,-1,57,59,61,63,65,-1,-1,-1,67,69,-1,71,-1,-1,-1,73,-1,-1,-1,75,77,79,81,-1,83,-1,-1,85,-1,87,89,91,-1,-1,-1,93,-1,95,-1,-1,-1,-1,-1,-1,-1,-1,-1,-1,-1,-1,-1,-1,-1],"loss_changes":[2.0300922E1,1.4193037E1,4.6373577E0,3.4804106E0,1.2422247E1,1.2304821E0,2.5262642E0,2.115881E0,0E0,2.6064177E0,9.335678E0,2.0149827E0,2.1990776E-1,0E0,0E0,1.6985283E0,1.4558733E-1,0E0,2.1330853E0,0E0,9.230904E0,7.2458E0,1.5405159E0,0E0,0E0,1.2046814E-1,3.0266967E-1,0E0,0E0,1.8398285E0,1.766901E0,5.555828E0,8.308643E0,0E0,1.469779E-2,9.6813583E-1,5.548663E-1,0E0,0E0,0E0,0E0,2.1305697E0,0E0,0E0,7.2833693E-1,6.1331916E0,4.4204545E-1,2.719976E0,7.9575005E0,0E0,0E0,0E0,1.5987825E0,6.03127E-1,0E0,1.7613381E0,0E0,0E0,0E0,3.8758507E0,0E0,0E0,0E0,2.4522681E0,7.616041E-1,4.0107903E0,3.7725601E0,0E0,4.220769E-1,0E0,0E0,1.056331E0,0E0,4.3446827E0,1.4533119E0,2.4513226E0,0E0,0E0,0E0,4.0686655E0,0E0,4.365614E0,0E0,0E0,0E0,0E0,0E0,0E0,0E0,0E0,0E0,0E0,0E0,0E0,0E0,0E0,0E0],"parents":[2147483647,0,0,1,1,2,2,3,3,4,4,5,5,6,6,7,7,9,9,10,10,11,11,12,12,15,15,16,16,18,18,20,20,21,21,22,22,25,25,26,26,29,29,30,30,31,31,32,32,34,34,35,35,36,36,41,41,44,44,45,45,46,46,47,47,48,48,52,52,53,53,55,55,59,59,63,63,64,64,65,65,66,66,68,68,71,71,73,73,74,74,75,75,79,79,81,81],"right_children":[2,4,6,8,10,12,14,16,-1,18,20,22,24,-1,-1,26,28,-1,30,-1,32,34,36,-1,-1,38,40,-1,-1,42,44,46,48,-1,50,52,54,-1,-1,-1,-1,56,-1,-1,58,60,62,64,66,-1,-1,-1,68,70,-1,72,-1,-1,-1,74,-1,-1,-1,76,78,80,82,-1,84,-1,-1,86,-1,88,90,92,-1,-1,-1,94,-1,96,-1,-1,-1,-1,-1,-1,-1,-1,-1,-1,-1,-1,-1,-1,-1],"split_conditions":[1.514766E5,-3.5847348E7,1E0,2E0,-1.9670271E0,3.64756E5,1.05093E5,5.2786264E7,4.530324E-2,-1E0,-4.329673E8,-1.408995E7,1E0,8.181232E-2,-4.7319915E-2,4.471608E6,-1E0,4.0782977E-2,0E0,-1.2402002E-1,0E0,-3.0989806E7,1E0,-1.3084288E-1,-2.6860828E-2,0E0,1E0,1.5703877E-2,-1.8988531E-2,-3.9264004E0,-3.3068757E0,1.919E6,0E0,-9.8364316E-2,0E0,-4.04E6,0E0,-1.575441E-1,-3.2228615E-2,-4.083151E-2,1.2042776E-2,-4.615676E0,-9.440553E-2,-1.4640285E-1,1.05093E5,3.9729729E0,1.05093E5,1.6328146E9,-3.0989806E7,1.9531813E-2,1.0781608E-1,-5.4986123E-3,1E0,-1E0,1.6906867E-2,1.18E2,7.599359E-2,1.9906975E-2,-5.50908E-2,1.00358E7,9.9572204E-2,1.3676143E-2,1.0558289E-1,2E0,1E0,1E0,1.7746334E8,-1.3004835E-1,-1.6609491E9,8.133016E-3,-7.053637E-2,1E0,-7.134033E-2,3.75634E7,-1.5578386E8,-9.899636E7,7.599181E-2,9.6822925E-2,4.424876E-3,1.8377749E8,8.822932E-2,8.7362E6,1.4088275E-1,-4.5667876E-2,1.2822809E-2,6.640782E-2,-2.7289016E-2,-6.444223E-2,3.3537034E-2,-2.4836216E-2,8.216758E-2,5.4956153E-2,-4.4079315E-2,-8.036013E-2,7.38742E-2,4.892867E-2,1.1532583E-1],"split_indices":[6,7,17,12,14,0,0,4,0,17,5,4,21,0,0,3,17,0,21,0,18,4,19,0,0,17,15,0,0,14,14,5,3,0,20,5,15,0,0,0,0,14,0,0,0,14,0,7,4,0,0,0,12,12,0,2,0,0,0,3,0,0,0,17,17,20,7,0,7,0,0,15,0,4,4,3,0,0,0,5,0,3,0,0,0,0,0,0,0,0,0,0,0,0,0,0,0],"split_type":[0,0,0,0,0,0,0,0,0,0,0,0,0,0,0,0,0,0,0,0,0,0,0,0,0,0,0,0,0,0,0,0,0,0,0,0,0,0,0,0,0,0,0,0,0,0,0,0,0,0,0,0,0,0,0,0,0,0,0,0,0,0,0,0,0,0,0,0,0,0,0,0,0,0,0,0,0,0,0,0,0,0,0,0,0,0,0,0,0,0,0,0,0,0,0,0,0],"sum_hessian":[3.0155835E2,2.587645E2,4.2793873E1,1.5488724E1,2.4327576E2,3.8183384E1,4.6104913E0,1.4247627E1,1.2410971E0,2.0878141E1,2.2239761E2,2.6527699E1,1.16556835E1,2.6240573E0,1.986434E0,1.1750568E1,2.4970584E0,1.7443302E0,1.9133812E1,3.4009836E0,2.1899663E2,6.556535E0,1.9971163E1,9.961068E0,1.694615E0,8.77839E0,2.9721785E0,1.2495012E0,1.2475572E0,9.921469E0,9.212343E0,5.3958076E1,1.6503856E2,3.3466303E0,3.2099047E0,1.4478448E1,5.492716E0,7.28611E0,1.4922805E0,1.7356061E0,1.2365723E0,8.193716E0,1.7277522E0,5.4733152E0,3.739028E0,4.8804466E1,5.153608E0,3.1731497E1,1.3330707E2,1.2314345E0,1.9784702E0,1.7257103E0,1.2752737E1,2.8709176E0,2.6217983E0,6.455435E0,1.7382816E0,1.7437897E0,1.9952384E0,4.563734E1,3.1671278E0,1.7395695E0,3.4140384E0,2.7764687E1,3.96681E0,1.2650466E1,1.2065659E2,9.342375E0,3.4103627E0,1.6663029E0,1.2046148E0,2.9922853E0,3.4631495E0,4.09698E1,4.667541E0,2.6534346E1,1.2303413E0,1.7376456E0,2.2291644E0,1.1162362E1,1.4881046E0,1.1165979E2,8.996806E0,1.4393531E0,1.9710095E0,1.497715E0,1.49457E0,3.4524967E1,6.4448323E0,1.4896462E0,3.1778946E0,2.2103758E0,2.432397E1,9.946382E0,1.21598E0,9.455039E1,1.7109394E1],"tree_param":{"num_deleted":"0","num_feature":"30","num_nodes":"97","size_leaf_vector":"1"}},{"base_weights":[7.7082254E-3,-9.915368E-1,6.440013E-2,-1.0975349E0,-4.550057E-3,1.4807804E-1,-4.6687272E-1,-1.4216447E-1,-3.0514168E-2,-4.8300588E-1,2.1005107E-1,-1.4258302E-2,-8.543674E-1,-1.2713398E-1,-7.781078E-1,1.5846443E-1,9.607511E-1,9.919922E-2,-2.4492432E-1,7.071548E-2,-1.0059135E0,8.0404446E-2,-6.440574E-2,-1.2774216E-1,-1.2283301E-1,-3.620414E-1,2.1602628E-1,2.5969762E-2,1.0072874E0,-4.5817566E-1,7.1539626E-2,-4.7988167E-1,-1.4136574E-1,-1.7211266E-1,7.204673E-2,1.885672E-2,-3.7251193E-2,2.7447984E-1,-6.010807E-1,1.055488E-1,5.354388E-1,1.3381892E-1,3.441177E-1,-6.0614586E-1,2.2599345E-2,-2.175641E-3,-5.8585584E-1,-4.7440115E-2,1.2976703E-1,5.1199096E-1,-1.7981289E-2,-7.9736984E-1,1.3807596E-1,6.3441426E-2,9.940171E-2,-4.5357797E-2,6.3027626E-1,-2.6135411E-2,7.807047E-2,-9.053575E-2,8.645498E-3,-2.1816293E-2,2.4296032E-2,-2.2665793E-1,-8.877657E-2,4.57342E-2,-2.5998833E-2,1.07887285E-2,7.043238E-2,-1.6940909E-2,-8.490056E-1,-2.7051277E-2,4.8096757E-2,5.7685752E-3,5.085501E-1,-3.6310264E-1,4.6716444E-2,-2.417132E-2,6.6551006E-1,-1.1677546E-3,-3.411295E-2,-1.1747365E-2,-1.0944035E-1,-9.605938E-3,3.7489865E-2,-4.5308292E-2,8.4788956E-2,-7.701359E-2,3.5620533E-2,9.727083E-2,3.7152853E-2],"categories":[],"categories_nodes":[],"categories_segments":[],"categories_sizes":[],"default_left":[0,0,0,0,0,0,0,0,0,0,0,0,0,0,0,0,0,0,0,0,0,0,0,0,0,0,0,0,0,0,0,0,0,0,0,0,0,0,0,0,0,0,0,0,0,0,0,0,0,0,0,0,0,0,0,0,0,0,0,0,0,0,0,0,0,0,0,0,0,0,0,0,0,0,0,0,0,0,0,0,0,0,0,0,0,0,0,0,0,0,0],"id":5,"left_children":[1,3,5,7,-1,9,11,-1,-1,13,15,17,19,21,23,25,27,-1,29,-1,31,33,-1,-1,35,37,39,-1,41,43,-1,45,-1,47,-1,-1,-1,49,51,53,55,-1,57,59,61,-1,63,-1,65,67,-1,69,71,73,-1,75,77,-1,-1,-1,-1,-1,-1,79,-1,-1,-1,-1,-1,-1,81,-1,-1,83,85,87,-1,-1,89,-1,-1,-1,-1,-1,-1,-1,-1,-1,-1,-1,-1],"loss_changes":[1.719582E1,1.5538235E0,1.2912823E1,3.9443016E-1,0E0,9.99117E0,6.916088E0,0E0,0E0,2.193201E0,8.520768E0,4.441425E0,5.9918633E0,1.2121247E0,1.9834442E0,6.6730785E0,3.8785934E-3,0E0,3.8182273E0,0E0,5.4800606E-1,1.632588E0,0E0,0E0,4.372034E-1,3.7846239E0,6.812771E0,0E0,5.34153E-2,1.1349804E0,0E0,4.0437555E-1,0E0,7.169196E-1,0E0,0E0,0E0,9.4555277E-1,2.7163339E0,4.4143834E0,2.8177738E0,0E0,1.1879935E0,1.3242345E0,2.9686147E-1,0E0,1.2376308E-2,0E0,6.6368836E-1,5.2928805E-2,0E0,1.9710922E-1,7.2742885E-1,3.6685584E0,0E0,1.5770484E0,1.5652962E0,0E0,0E0,0E0,0E0,0E0,0E0,6.0741454E-2,0E0,0E0,0E0,0E0,0E0,0E0,3.82205E-1,0E0,0E0,3.4515202E0,3.4773808E0,1.611238E0,0E0,0E0,1.5984669E0,0E0,0E0,0E0,0E0,0E0,0E0,0E0,0E0,0E0,0E0,0E0,0E0],"parents":[2147483647,0,0,1,1,2,2,3,3,5,5,6,6,9,9,10,10,11,11,12,12,13,13,14,14,15,15,16,16,18,18,20,20,21,21,24,24,25,25,26,26,28,28,29,29,31,31,33,33,37,37,38,38,39,39,40,40,42,42,43,43,44,44,46,46,48,48,49,49,51,51,52,52,53,53,55,55,56,56,63,63,70,70,73,73,74,74,75,75,78,78],"right_children":[2,4,6,8,-1,10,12,-1,-1,14,16,18,20,22,24,26,28,-1,30,-1,32,34,-1,-1,36,38,40,-1,42,44,-1,46,-1,48,-1,-1,-1,50,52,54,56,-1,58,60,62,-1,64,-1,66,68,-1,70,72,74,-1,76,78,-1,-1,-1,-1,-1,-1,80,-1,-1,-1,-1,-1,-1,82,-1,-1,84,86,88,-1,-1,90,-1,-1,-1,-1,-1,-1,-1,-1,-1,-1,-1,-1],"split_conditions":[-1.6328146E9,3.1311E7,1.514766E5,1.3718E6,-4.550057E-3,-1.9670271E0,1.05093E5,-1.4216447E-1,-3.0514168E-2,0E0,3.8468004E9,0E0,-4.13525E7,-3.9264004E0,-3.3068757E0,-1.3414825E7,1E0,9.919922E-2,1E0,7.071548E-2,3.00372E5,-4.615676E0,-6.440574E-2,-1.2774216E-1,1.05093E5,-5.899783E7,1E0,2.5969762E-2,1E0,1E0,7.1539626E-2,-1.408995E7,-1.4136574E-1,1.8011E2,7.204673E-2,1.885672E-2,-3.7251193E-2,5.2786264E7,3.0989806E7,3.9729729E0,0E0,1.3381892E-1,1E0,1E0,0E0,-2.175641E-3,0E0,-4.7440115E-2,1E0,-1.2285292E8,-1.7981289E-2,-1E0,0E0,2E0,9.940171E-2,3.30505E6,-8.7130654E-1,-2.6135411E-2,7.807047E-2,-9.053575E-2,8.645498E-3,-2.1816293E-2,2.4296032E-2,-2.9602E6,-8.877657E-2,4.57342E-2,-2.5998833E-2,1.07887285E-2,7.043238E-2,-1.6940909E-2,-4.4829468E7,-2.7051277E-2,4.8096757E-2,1E0,-6.2279E7,1.3414825E7,4.6716444E-2,-2.417132E-2,3.30505E6,-1.1677546E-3,-3.411295E-2,-1.1747365E-2,-1.0944035E-1,-9.605938E-3,3.7489865E-2,-4.5308292E-2,8.4788956E-2,-7.701359E-2,3.5620533E-2,9.727083E-2,3.7152853E-2],"split_indices":[7,4,6,3,0,14,0,0,0,21,7,16,7,14,14,3,16,0,16,0,0,14,0,0,0,3,15,0,15,19,0,4,0,1,0,0,0,4,4,14,16,0,12,21,15,0,12,0,15,3,0,12,12,12,0,4,14,0,0,0,0,0,0,3,0,0,0,0,0,0,3,0,0,19,6,3,0,0,4,0,0,0,0,0,0,0,0,0,0,0,0],"split_type":[0,0,0,0,0,0,0,0,0,0,0,0,0,0,0,0,0,0,0,0,0,0,0,0,0,0,0,0,0,0,0,0,0,0,0,0,0,0,0,0,0,0,0,0,0,0,0,0,0,0,0,0,0,0,0,0,0,0,0,0,0,0,0,0,0,0,0,0,0,0,0,0,0,0,0,0,0,0,0,0,0,0,0,0,0,0,0,0,0,0,0],"sum_hessian":[2.9876352E2,1.4048254E1,2.8471527E2,1.2337357E1,1.7108974E0,2.4737538E2,3.7339886E1,1.035577E1,1.9815862E0,2.0753384E1,2.26622E2,1.8298756E1,1.9041132E1,1.0867402E1,9.8859825E0,2.1460005E2,1.2021946E1,2.6875286E0,1.5611227E1,1.1914883E0,1.7849644E1,8.412839E0,2.454563E0,5.9013767E0,3.9846056E0,2.0183962E1,1.9441609E2,1.4554756E0,1.056647E1,1.3270839E1,2.3403876E0,6.5021358E0,1.1347507E1,6.67605E0,1.7367887E0,1.7452269E0,2.2393787E0,5.419407E0,1.4764556E1,1.4667728E2,4.7738815E1,7.769233E0,2.7972372E0,9.699005E0,3.5718334E0,1.7055666E0,4.7965693E0,3.437605E0,3.238445E0,3.1765213E0,2.2428856E0,1.152642E1,3.2381363E0,1.4091557E2,5.7616916E0,6.8657875E0,4.0873028E1,1.2169589E0,1.5802783E0,7.7508645E0,1.9481412E0,1.6605633E0,1.9112701E0,3.1078668E0,1.6887023E0,1.7461622E0,1.4922829E0,1.2252415E0,1.9512798E0,1.4537337E0,1.0072686E1,1.4925556E0,1.7455808E0,1.2676922E2,1.4146362E1,4.180322E0,2.6854653E0,1.2298152E0,3.964321E1,1.2041737E0,1.9036931E0,1.2241118E0,8.848574E0,1.00348404E2,2.642081E1,2.2112856E0,1.1935077E1,2.9827106E0,1.1976118E0,2.6120813E1,1.3522398E1],"tree_param":{"num_deleted":"0","num_feature":"30","num_nodes":"91","size_leaf_vector":"1"}},{"base_weights":[6.684015E-3,-9.199315E-1,5.841616E-2,-1.17348105E-1,-2.8794544E-2,-6.8453684E-2,3.860094E-1,-1.4532182E-1,8.2798666E-1,-4.6042427E-1,4.581748E-1,-6.835287E-1,-3.45223E-2,2.8886475E-2,1.0478847E0,-9.381232E-2,-7.876079E-2,-7.798993E-2,4.9989197E-1,-8.4653187E-1,1.3903682E-1,-6.6561764E-1,3.3867795E-2,-5.3546123E-2,4.9548067E-2,1.3399646E-1,2.3632957E-2,2.2918157E-2,-4.288292E-2,2.1781881E-1,6.829172E-1,5.519028E-2,-1.0417396E0,-2.5230654E-2,2.848584E-1,1.2912624E-1,-9.049516E-1,-8.4025246E-1,7.27319E-2,4.3323133E-2,6.9471437E-1,1.7283748E-1,8.5305613E-1,6.718213E-2,-3.0015045E-1,-1.3634892E-1,-2.2125688E-1,5.2872933E-2,-1.4517858E-2,5.1087674E-2,-3.3502445E-2,-1.2759414E-1,-1.5298782E-2,-1.1341884E-1,-1.6270772E-2,-5.824418E-2,4.1490144E-1,4.3242565E-1,-2.2041883E-1,9.2686586E-2,1.5032281E-2,-3.3210263E-1,6.1761534E-1,1.2590683E-1,9.58735E-1,-6.410803E-2,1.2797756E-2,3.3358682E-2,-6.322898E-2,-4.9453953E-1,5.410798E-2,1.0994444E-1,6.5100485E-1,-1.03814624E-1,6.3140535E-1,-4.0812153E-1,4.200447E-1,3.3905268E-2,-6.0710394E-1,1.9265082E-2,8.987286E-2,4.257448E-1,-3.8833346E-2,1.0247005E0,-2.09182E-2,-7.380728E-2,6.728304E-2,-1.0660548E-3,6.468602E-2,-1.02283955E-1,4.1945543E-2,1.1474766E-2,8.492157E-2,-1.7584134E-2,-1.4642545E-4,8.896051E-2,-2.3758376E-3,2.5914073E-2,-7.380357E-2,9.79284E-3,5.784907E-2,-9.473805E-2,-9.183822E-4,7.948308E-2,-6.2256227E-3,2.0147434E-2,1.351114E-1],"categories":[],"categories_nodes":[],"categories_segments":[],"categories_sizes":[],"default_left":[0,0,0,0,0,0,0,0,0,0,0,0,0,0,0,0,0,0,0,0,0,0,0,0,0,0,0,0,0,0,0,0,0,0,0,0,0,0,0,0,0,0,0,0,0,0,0,0,0,0,0,0,0,0,0,0,0,0,0,0,0,0,0,0,0,0,0,0,0,0,0,0,0,0,0,0,0,0,0,0,0,0,0,0,0,0,0,0,0,0,0,0,0,0,0,0,0,0,0,0,0,0,0,0,0,0,0],"id":6,"left_children":[1,3,5,-1,-1,7,9,11,13,15,17,19,21,23,25,27,-1,-1,29,31,33,35,37,-1,-1,-1,-1,-1,-1,39,41,43,45,-1,47,49,51,53,55,57,59,61,63,-1,65,-1,67,-1,-1,-1,-1,-1,-1,-1,-1,69,71,73,75,-1,-1,77,79,81,83,-1,-1,-1,-1,85,87,89,91,93,95,97,99,-1,101,-1,-1,103,-1,105,-1,-1,-1,-1,-1,-1,-1,-1,-1,-1,-1,-1,-1,-1,-1,-1,-1,-1,-1,-1,-1,-1,-1],"loss_changes":[1.44318495E1,9.958458E-2,1.1899273E1,0E0,0E0,1.4552401E1,5.3530817E0,1.1444376E1,2.8671942E0,3.9271414E-1,4.1849823E0,4.6621494E0,7.0538645E0,1.4943693E0,2.6785183E-1,5.439527E-1,0E0,0E0,3.4484825E0,5.00333E0,5.094696E-1,3.3011656E0,5.1834974E0,0E0,0E0,0E0,0E0,0E0,0E0,2.6069112E0,3.4337502E0,1.6449134E0,1.2080002E0,0E0,5.083915E-1,9.536244E-1,1.240758E0,1.9230366E-1,6.5205297E0,2.8755116E0,1.5650415E-1,3.5325656E0,2.1847E0,0E0,6.6242105E-1,0E0,1.116449E0,0E0,0E0,0E0,0E0,0E0,0E0,0E0,0E0,5.271637E0,2.7346487E0,1.3463008E0,2.42281E0,0E0,0E0,1.7157414E0,2.1309471E-1,1.2057875E0,2.4624405E0,0E0,0E0,0E0,0E0,3.572968E0,2.6553204E0,5.3410125E0,5.4683685E-1,2.1393493E-2,6.424048E-1,2.1383314E0,1.5389025E-2,0E0,6.587672E-1,0E0,0E0,6.376962E-1,0E0,1.8625679E0,0E0,0E0,0E0,0E0,0E0,0E0,0E0,0E0,0E0,0E0,0E0,0E0,0E0,0E0,0E0,0E0,0E0,0E0,0E0,0E0,0E0,0E0,0E0],"parents":[2147483647,0,0,1,1,2,2,5,5,6,6,7,7,8,8,9,9,10,10,11,11,12,12,13,13,14,14,15,15,18,18,19,19,20,20,21,21,22,22,29,29,30,30,31,31,32,32,34,34,35,35,36,36,37,37,38,38,39,39,40,40,41,41,42,42,44,44,46,46,55,55,56,56,57,57,58,58,61,61,62,62,63,63,64,64,69,69,70,70,71,71,72,72,73,73,74,74,75,75,76,76,78,78,81,81,83,83],"right_children":[2,4,6,-1,-1,8,10,12,14,16,18,20,22,24,26,28,-1,-1,30,32,34,36,38,-1,-1,-1,-1,-1,-1,40,42,44,46,-1,48,50,52,54,56,58,60,62,64,-1,66,-1,68,-1,-1,-1,-1,-1,-1,-1,-1,70,72,74,76,-1,-1,78,80,82,84,-1,-1,-1,-1,86,88,90,92,94,96,98,100,-1,102,-1,-1,104,-1,106,-1,-1,-1,-1,-1,-1,-1,-1,-1,-1,-1,-1,-1,-1,-1,-1,-1,-1,-1,-1,-1,-1,-1],"split_conditions":[-1.6328146E9,1.3718E6,1E0,-1.17348105E-1,-2.8794544E-2,1.6328146E9,-2.97E0,0E0,0E0,-5.9253197E0,-1.7646643E9,1E0,-1.7334794E7,3.8468004E9,1.05093E5,1E0,-7.876079E-2,-7.798993E-2,1.05093E5,0E0,1E0,-7.070671E7,-3.0837238E8,-5.3546123E-2,4.9548067E-2,1.3399646E-1,2.3632957E-2,2.2918157E-2,-4.288292E-2,1E0,0E0,0E0,2.888E6,-2.5230654E-2,1.3718E6,1E0,1E0,1E0,1E0,0E0,1E0,3.64756E5,-1.106723E7,6.718213E-2,1.05093E5,-1.3634892E-1,3.00372E5,5.2872933E-2,-1.4517858E-2,5.1087674E-2,-3.3502445E-2,-1.2759414E-1,-1.5298782E-2,-1.1341884E-1,-1.6270772E-2,0E0,0E0,0E0,1E0,9.2686586E-2,1.5032281E-2,1E0,0E0,-3.999853E7,2.136357E7,-6.410803E-2,1.2797756E-2,3.3358682E-2,-6.322898E-2,3.9729729E0,1.98E0,0E0,-4.04E6,2.888E6,1E0,0E0,0E0,3.3905268E-2,1.3718E6,1.9265082E-2,8.987286E-2,0E0,-3.8833346E-2,0E0,-2.09182E-2,-7.380728E-2,6.728304E-2,-1.0660548E-3,6.468602E-2,-1.02283955E-1,4.1945543E-2,1.1474766E-2,8.492157E-2,-1.7584134E-2,-1.4642545E-4,8.896051E-2,-2.3758376E-3,2.5914073E-2,-7.380357E-2,9.79284E-3,5.784907E-2,-9.473805E-2,-9.183822E-4,7.948308E-2,-6.2256227E-3,2.0147434E-2,1.351114E-1],"split_indices":[7,3,13,0,0,7,14,20,18,14,5,21,3,7,0,18,0,0,0,17,8,3,5,0,0,0,0,0,0,15,17,13,3,0,3,15,17,18,15,20,20,0,3,0,0,0,0,0,0,0,0,0,0,0,0,18,13,18,18,0,0,8,21,3,7,0,0,0,0,14,14,3,5,3,21,17,17,0,3,0,0,15,0,7,0,0,0,0,0,0,0,0,0,0,0,0,0,0,0,0,0,0,0,0,0,0,0],"split_type":[0,0,0,0,0,0,0,0,0,0,0,0,0,0,0,0,0,0,0,0,0,0,0,0,0,0,0,0,0,0,0,0,0,0,0,0,0,0,0,0,0,0,0,0,0,0,0,0,0,0,0,0,0,0,0,0,0,0,0,0,0,0,0,0,0,0,0,0,0,0,0,0,0,0,0,0,0,0,0,0,0,0,0,0,0,0,0,0,0,0,0,0,0,0,0,0,0,0,0,0,0,0,0,0,0,0,0],"sum_hessian":[2.962938E2,1.3670464E1,2.8262332E2,1.1688208E1,1.9822556E0,2.0500797E2,7.761536E1,1.905536E2,1.4454372E1,5.1464877E0,7.2468864E1,3.0546087E1,1.600075E2,3.6685567E0,1.0785816E1,2.9512603E0,2.1952274E0,1.4391522E0,7.102972E1,2.5439358E1,5.1067305E0,1.3723183E1,1.4628433E2,1.4768854E0,2.1916711E0,9.329506E0,1.45631E0,1.7161772E0,1.2350831E0,2.989073E1,4.1138985E1,4.8143444E0,2.0625011E1,1.2112269E0,3.8955038E0,3.415981E0,1.0307201E1,4.252083E0,1.4203224E2,2.3680466E1,6.2102633E0,1.1424325E1,2.9714659E1,1.4541652E0,3.3601794E0,1.7718353E1,2.9066582E0,2.6758442E0,1.2196596E0,1.9230636E0,1.4929175E0,7.876036E0,2.431165E0,3.0326965E0,1.2193863E0,1.0406509E2,3.7967155E1,8.985286E0,1.469518E1,4.759223E0,1.4510406E0,5.6172533E0,5.8070717E0,4.3962E0,2.531846E1,1.6854697E0,1.6747096E0,1.1810998E0,1.7255585E0,1.9743124E1,8.432196E1,1.800683E1,1.9960325E1,2.7230093E0,6.262276E0,1.1995775E1,2.6994045E0,1.7172875E0,3.8999655E0,2.41217E0,3.3949015E0,2.7085402E0,1.6876597E0,2.4128859E1,1.1896005E0,1.8561687E1,1.1814371E0,7.658297E1,7.7389936E0,2.4425635E0,1.5564267E1,2.4081411E0,1.7552185E1,1.2421384E0,1.480871E0,5.091359E0,1.170917E0,2.9623795E0,9.033396E0,1.2251441E0,1.4742603E0,2.4433208E0,1.4566447E0,1.2293011E0,1.4792391E0,3.1815596E0,2.09473E1],"tree_param":{"num_deleted":"0","num_feature":"30","num_nodes":"107","size_leaf_vector":"1"}},{"base_weights":[5.5162967E-3,8.753043E-2,-4.84822E-1,5.1546526E-1,1.2815736E-2,-2.0392665E-1,-7.670148E-1,-6.834409E-2,6.900776E-1,-9.699189E-2,3.028927E-1,-3.57212E-1,7.214317E-2,-8.78894E-1,1.1693664E-2,-4.294685E-1,3.3725062E-1,1.1026755E-1,7.6328874E-1,-2.1675368E-1,2.274456E-1,-4.3703976E-1,3.884782E-1,-4.719888E-3,-5.276134E-1,-2.3869185E-2,-1.1031764E-1,-7.5857535E-2,-5.11236E-3,-2.930853E-3,6.484863E-2,-5.36553E-2,7.630433E-2,9.949738E-1,3.5909012E-1,-3.267353E-1,1.1900755E-1,3.608199E-1,-2.5848866E-1,-8.3863094E-2,-1.0539537E-1,-7.48644E-2,4.406836E-1,1.0342556E-1,-5.33643E-1,-7.0675087E-1,2.1462956E-2,1.3247159E-1,3.8677022E-1,-1.4951284E-1,1.1780272E-1,-7.604541E-1,-2.1273333E-1,6.809051E-1,-4.555244E-3,4.9008116E-1,6.717445E-3,-6.580081E-1,2.674028E-1,2.2315564E-2,-4.7169633E-2,-4.3332517E-2,4.8245984E-1,1.4333172E-2,-9.202591E-2,-8.079406E-1,-1.5545264E-2,-2.069963E-2,2.296224E-2,5.904559E-4,7.045228E-2,2.1692555E-1,-4.928056E-1,9.500009E-2,-9.584715E-1,-2.7564484E-1,4.2734313E-1,9.419282E-2,1.3295394E-2,-1.4334308E-1,4.610177E-1,-3.5896868E-2,5.8106226E-1,6.841786E-2,-2.3212211E-1,-1.13302775E-1,-2.5330489E-3,-1.7536331E-2,5.8375996E-2,1.1164831E-1,6.2754345E-1,-1.3287889E-2,-1.1051635E-1,7.801549E-2,-3.3406872E-2,-1.7389436E-3,-8.415417E-2,3.502807E-2,-2.5252089E-2,-1.0597286E0,-2.897952E-3,-3.618182E-1,1.131399E-1,5.515104E-1,8.9421665E-6,-3.418565E-1,3.3498856E-1,8.0099456E-2,-1.4240278E-2,7.6359963E-1,-6.1894734E-3,8.8431716E-2,-5.1104826E-1,-4.8786655E-2,8.3941564E-2,-1.5185401E-1,7.290731E-1,-1.2152686E-2,-1.4194266E-1,-4.8651922E-2,3.833273E-2,-8.4467724E-2,4.143168E-2,7.622261E-2,1.3508217E-2,-5.380005E-2,4.4895817E-2,7.8005284E-2,-3.576764E-2,2.7122408E-2,1.1858773E-1,6.6953436E-2,-3.4474943E-2,-2.4840962E-2,4.0938694E-2,1.8756535E-2,-9.875821E-2,-3.2699384E-2,3.4464013E-2,4.065448E-2,-8.1869245E-2,4.6977922E-2,1.1420267E-1],"categories":[],"categories_nodes":[],"categories_segments":[],"categories_sizes":[],"default_left":[0,0,0,0,0,0,0,0,0,0,0,0,0,0,0,0,0,0,0,0,0,0,0,0,0,0,0,0,0,0,0,0,0,0,0,0,0,0,0,0,0,0,0,0,0,0,0,0,0,0,0,0,0,0,0,0,0,0,0,0,0,0,0,0,0,0,0,0,0,0,0,0,0,0,0,0,0,0,0,0,0,0,0,0,0,0,0,0,0,0,0,0,0,0,0,0,0,0,0,0,0,0,0,0,0,0,0,0,0,0,0,0,0,0,0,0,0,0,0,0,0,0,0,0,0,0,0,0,0,0,0,0,0,0,0,0,0,0,0,0,0,0,0],"id":7,"left_children":[1,3,5,7,9,11,13,15,17,19,21,23,-1,25,-1,27,29,31,33,35,37,39,41,43,45,-1,-1,-1,-1,-1,-1,-1,-1,47,49,51,53,55,57,-1,59,-1,61,-1,63,65,67,-1,69,71,-1,73,75,77,79,81,83,85,87,-1,-1,-1,89,-1,-1,91,-1,-1,-1,-1,-1,93,95,97,99,101,103,-1,-1,105,107,-1,109,-1,111,-1,-1,-1,-1,113,115,-1,-1,-1,-1,-1,-1,-1,-1,117,-1,119,121,123,-1,125,127,-1,-1,129,131,133,135,137,-1,139,141,-1,-1,-1,-1,-1,-1,-1,-1,-1,-1,-1,-1,-1,-1,-1,-1,-1,-1,-1,-1,-1,-1,-1,-1,-1,-1],"loss_changes":[1.1988329E1,8.146675E0,3.0343952E0,3.9681673E0,7.061834E0,3.5036602E0,2.1750069E0,1.9033185E0,1.0571604E0,6.3674965E0,4.23581E0,1.314115E0,0E0,9.3520164E-2,0E0,4.6371257E-1,4.9500567E-1,2.3747134E0,1.602232E0,4.473044E0,3.094706E0,4.74041E-1,3.5643063E0,5.3574166E0,1.4889789E0,0E0,0E0,0E0,0E0,0E0,0E0,0E0,0E0,3.7413597E-2,4.409434E0,4.088953E0,2.1559727E0,1.6341848E0,2.6853812E0,0E0,6.590166E-1,0E0,2.2115593E0,0E0,1.3098106E0,4.197693E-1,2.6611885E-1,0E0,4.3348664E-1,1.3780688E0,0E0,3.2321024E0,3.2625237E0,1.3613868E-1,1.9325807E0,2.2754192E0,1.8954172E0,1.2023575E0,7.310672E-1,0E0,0E0,0E0,2.671918E0,0E0,0E0,4.889083E-1,0E0,0E0,0E0,0E0,0E0,1.6809793E0,5.112797E-1,4.633391E-1,1.3345232E0,2.408637E0,4.0012765E-1,0E0,0E0,2.440123E0,1.0009415E0,0E0,2.614911E0,0E0,9.901439E-1,0E0,0E0,0E0,0E0,1.7299386E0,3.2020855E0,0E0,0E0,0E0,0E0,0E0,0E0,0E0,0E0,1.290987E0,0E0,1.9890409E0,3.2511182E0,5.380106E-2,0E0,1.7006121E0,2.0070808E0,0E0,0E0,1.7377138E0,1.6281542E0,6.4731896E-1,1.4646293E0,1.3691826E0,0E0,2.1238778E0,1.6721363E0,0E0,0E0,0E0,0E0,0E0,0E0,0E0,0E0,0E0,0E0,0E0,0E0,0E0,0E0,0E0,0E0,0E0,0E0,0E0,0E0,0E0,0E0,0E0,0E0,0E0,0E0],"parents":[2147483647,0,0,1,1,2,2,3,3,4,4,5,5,6,6,7,7,8,8,9,9,10,10,11,11,13,13,15,15,16,16,17,17,18,18,19,19,20,20,21,21,22,22,23,23,24,24,33,33,34,34,35,35,36,36,37,37,38,38,40,40,42,42,44,44,45,45,46,46,48,48,49,49,51,51,52,52,53,53,54,54,55,55,56,56,57,57,58,58,62,62,65,65,71,71,72,72,73,73,74,74,75,75,76,76,79,79,80,80,82,82,84,84,89,89,90,90,99,99,101,101,102,102,103,103,105,105,106,106,109,109,110,110,111,111,112,112,113,113,115,115,116,116],"right_children":[2,4,6,8,10,12,14,16,18,20,22,24,-1,26,-1,28,30,32,34,36,38,40,42,44,46,-1,-1,-1,-1,-1,-1,-1,-1,48,50,52,54,56,58,-1,60,-1,62,-1,64,66,68,-1,70,72,-1,74,76,78,80,82,84,86,88,-1,-1,-1,90,-1,-1,92,-1,-1,-1,-1,-1,94,96,98,100,102,104,-1,-1,106,108,-1,110,-1,112,-1,-1,-1,-1,114,116,-1,-1,-1,-1,-1,-1,-1,-1,118,-1,120,122,124,-1,126,128,-1,-1,130,132,134,136,138,-1,140,142,-1,-1,-1,-1,-1,-1,-1,-1,-1,-1,-1,-1,-1,-1,-1,-1,-1,-1,-1,-1,-1,-1,-1,-1,-1,-1],"split_conditions":[1.514766E5,0E0,4.128E1,0E0,1E0,1E0,1E0,-9.33804E5,0E0,1E0,-2.97E0,-3.30505E6,7.214317E-2,2.07512E5,1.1693664E-2,1E0,0E0,4.128E1,5.9475385E6,1E0,2.8052E2,0E0,-1.7646643E9,0E0,1E0,-2.3869185E-2,-1.1031764E-1,-7.5857535E-2,-5.11236E-3,-2.930853E-3,6.484863E-2,-5.36553E-2,7.630433E-2,2.8052E2,5.149879E7,0E0,-3.30505E6,2E0,0E0,-8.3863094E-2,1E0,-7.48644E-2,-1E0,1.0342556E-1,0E0,1E0,0E0,1.3247159E-1,-3.568686E5,1E0,1.1780272E-1,0E0,1.98E0,4.128E1,2E0,0E0,0E0,1E0,3.8243E2,2.2315564E-2,-4.7169633E-2,-4.3332517E-2,0E0,1.4333172E-2,-9.202591E-2,0E0,-1.5545264E-2,-2.069963E-2,2.296224E-2,5.904559E-4,7.045228E-2,1.2521134E7,1E0,0E0,1.408995E7,2.8052E2,2.8052E2,9.419282E-2,1.3295394E-2,1E0,1.8011E2,-3.5896868E-2,1E0,6.841786E-2,4.128E1,-1.13302775E-1,-2.5330489E-3,-1.7536331E-2,5.8375996E-2,3.8243E2,-1.7334794E7,-1.3287889E-2,-1.1051635E-1,7.801549E-2,-3.3406872E-2,-1.7389436E-3,-8.415417E-2,3.502807E-2,-2.5252089E-2,0E0,-2.897952E-3,1.7998224E7,-3.0837238E8,1E0,8.9421665E-6,5.2786264E7,0E0,8.0099456E-2,-1.4240278E-2,0E0,-1E0,1E0,2E0,0E0,8.3941564E-2,-3.999853E7,4.128E1,-1.2152686E-2,-1.4194266E-1,-4.8651922E-2,3.833273E-2,-8.4467724E-2,4.143168E-2,7.622261E-2,1.3508217E-2,-5.380005E-2,4.4895817E-2,7.8005284E-2,-3.576764E-2,2.7122408E-2,1.1858773E-1,6.6953436E-2,-3.4474943E-2,-2.4840962E-2,4.0938694E-2,1.8756535E-2,-9.875821E-2,-3.2699384E-2,3.4464013E-2,4.065448E-2,-8.1869245E-2,4.6977922E-2,1.1420267E-1],"split_indices":[6,6,1,15,13,17,13,6,19,16,14,4,0,6,0,12,21,1,4,19,1,19,5,16,19,0,0,0,0,0,0,0,0,1,4,20,4,17,13,0,20,0,19,0,15,21,15,0,6,12,0,17,14,1,19,19,3,19,1,0,0,0,16,0,0,21,0,0,0,0,0,4,15,21,4,1,1,0,0,23,1,0,19,0,1,0,0,0,0,1,3,0,0,0,0,0,0,0,0,13,0,3,5,21,0,4,3,0,0,18,12,18,16,17,0,3,1,0,0,0,0,0,0,0,0,0,0,0,0,0,0,0,0,0,0,0,0,0,0,0,0,0,0],"split_type":[0,0,0,0,0,0,0,0,0,0,0,0,0,0,0,0,0,0,0,0,0,0,0,0,0,0,0,0,0,0,0,0,0,0,0,0,0,0,0,0,0,0,0,0,0,0,0,0,0,0,0,0,0,0,0,0,0,0,0,0,0,0,0,0,0,0,0,0,0,0,0,0,0,0,0,0,0,0,0,0,0,0,0,0,0,0,0,0,0,0,0,0,0,0,0,0,0,0,0,0,0,0,0,0,0,0,0,0,0,0,0,0,0,0,0,0,0,0,0,0,0,0,0,0,0,0,0,0,0,0,0,0,0,0,0,0,0,0,0,0,0,0,0],"sum_hessian":[2.9348404E2,2.530133E2,4.047073E1,3.563541E1,2.1737788E2,2.2224438E1,1.8246292E1,8.519648E0,2.7115763E1,1.5877272E2,5.860518E1,1.9721437E1,2.5030003E0,1.6122187E1,2.1241052E0,4.436837E0,4.0828104E0,3.672168E0,2.3443596E1,1.1651102E2,4.2261696E1,5.117974E0,5.3487206E1,7.180399E0,1.25410385E1,1.6520542E0,1.4470133E1,1.9753904E0,2.4614468E0,2.1804588E0,1.9023517E0,1.9452184E0,1.7269495E0,1.2811502E1,1.0632092E1,8.780891E1,2.8702114E1,3.3614765E1,8.646929E0,1.4678469E0,3.6501267E0,1.4147499E0,5.2072453E1,2.1846485E0,4.9957504E0,8.9688225E0,3.5722163E0,9.309803E0,3.5016994E0,6.7927527E0,3.8393395E0,1.5620857E1,7.218805E1,3.3444576E0,2.5357656E1,2.3992533E1,9.622233E0,4.5926447E0,4.054284E0,2.2087479E0,1.4413788E0,1.7270806E0,5.0345375E1,1.6035293E0,3.3922212E0,6.865771E0,2.1030517E0,1.6518196E0,1.9203967E0,1.9982096E0,1.5034899E0,3.6862257E0,3.1065273E0,3.1562216E0,1.2464636E1,6.689423E1,5.293815E0,2.1113281E0,1.2331295E0,2.0734064E1,4.623591E0,1.9478558E0,2.2044678E1,1.9354107E0,7.686823E0,2.4197755E0,2.1728692E0,1.6633418E0,2.3909423E0,1.52781725E1,3.50672E1,1.5791602E0,5.2866106E0,1.5912617E0,2.0949638E0,1.6734712E0,1.433056E0,1.9796929E0,1.1765287E0,1.0973394E1,1.4912419E0,5.488512E1,1.200911E1,3.5948644E0,1.6989508E0,1.5106601E1,5.627464E0,3.1579454E0,1.4656457E0,1.6301857E1,5.74282E0,4.2915E0,3.3953223E0,1.3623451E1,1.6547214E0,3.9130707E0,3.115413E1,1.7160203E0,9.257374E0,5.2438923E1,2.4462E0,1.6452311E0,1.036388E1,2.174394E0,1.4204705E0,1.38831005E1,1.2235004E0,3.717138E0,1.9103259E0,6.1346216E0,1.0167235E1,1.1729481E0,4.569872E0,2.1661894E0,2.125311E0,1.4391035E0,1.956219E0,8.433443E0,5.1900077E0,2.4549282E0,1.4581426E0,1.4846541E1,1.6307589E1],"tree_param":{"num_deleted":"0","num_feature":"30","num_nodes":"143","size_leaf_vector":"1"}},{"base_weights":[7.0672845E-3,8.176473E-2,-4.4567072E-1,4.122453E-2,8.3122474E-1,-1.8660156E-1,-7.0763874E-1,4.244234E-1,-2.3830695E-2,1.6747448E-1,1.2090136E-1,-3.124716E-1,6.268888E-2,-8.14527E-1,1.0999041E-2,-2.3868684E-1,6.230264E-1,-6.5180264E-2,6.47119E-1,-9.785783E-3,4.0162046E-2,3.7707318E-2,-4.932125E-1,-3.4995365E-1,-1.18506595E-1,-5.5430484E-1,2.5588307E-1,1.0692376E-1,6.902814E-1,-1.0974738E-1,-4.0792413E-2,1.02115594E-1,1.6113073E-2,9.822687E-2,-4.3865067E-1,-6.6384E-1,1.9728988E-2,2.5185155E-2,-7.6905675E-2,-8.2574636E-2,-1.6954288E-2,4.9375124E-2,-7.2191507E-3,-5.0731942E-2,7.330191E-2,9.0814364E-1,3.3399355E-1,-1.2523897E-1,1.8751708E-1,-3.4461115E-2,4.0159464E-2,-8.809293E-2,3.2787237E-3,-9.27274E-2,-1.4351604E-2,-1.969214E-2,2.1646034E-2,-3.253686E-2,2.3232248E-1,1.2508297E-1,1.8134499E-1,-1.4165935E-1,1.11635655E-1,-6.592922E-1,-6.846308E-2,-4.1956586E-1,2.7022767E-1,3.0123894E-3,-2.207537E-3,-3.1082667E-2,6.818424E-2,-1.9975584E-2,5.5071183E-2,2.090181E-1,-4.6772215E-1,-3.5349287E-2,-1.05682105E-1,1.047304E-1,-1.199831E-1,-8.031937E-2,-1.0245264E-1,1.666791E-1,9.247098E-2,7.48961E-2,-3.1399664E-2,-1.6497482E-3,-7.974457E-2,2.4194552E-2,-3.9969463E-2,-1.9101888E-2,4.73401E-2,2.1255542E-2,-4.5522336E-2,2.8431214E-2,-8.711496E-2],"categories":[],"categories_nodes":[],"categories_segments":[],"categories_sizes":[],"default_left":[0,0,0,0,0,0,0,0,0,0,0,0,0,0,0,0,0,0,0,0,0,0,0,0,0,0,0,0,0,0,0,0,0,0,0,0,0,0,0,0,0,0,0,0,0,0,0,0,0,0,0,0,0,0,0,0,0,0,0,0,0,0,0,0,0,0,0,0,0,0,0,0,0,0,0,0,0,0,0,0,0,0,0,0,0,0,0,0,0,0,0,0,0,0,0],"id":8,"left_children":[1,3,5,7,9,11,13,15,17,19,-1,21,-1,23,-1,25,27,29,31,-1,-1,33,35,37,-1,39,41,43,45,-1,47,-1,49,-1,51,53,55,57,-1,-1,-1,-1,-1,-1,-1,59,61,63,65,-1,-1,-1,67,-1,-1,-1,-1,-1,69,-1,71,73,-1,75,77,79,81,-1,-1,-1,-1,-1,-1,83,85,87,-1,-1,89,-1,91,93,-1,-1,-1,-1,-1,-1,-1,-1,-1,-1,-1,-1,-1],"loss_changes":[9.980715E0,7.6144238E0,2.539938E0,6.0687265E0,1.1266756E0,2.515659E0,1.8749094E0,4.985765E0,5.9060283E0,2.8626448E-1,0E0,1.4248824E0,0E0,6.572714E-1,0E0,1.8436484E0,7.989197E-1,4.0453854E0,1.5596433E0,0E0,0E0,4.3524094E0,1.3048906E0,9.453244E-1,0E0,1.5003419E-1,3.1845546E-1,2.1472502E0,1.1947012E0,0E0,3.8343146E0,0E0,7.295053E-1,0E0,9.6949196E-1,4.4394636E-1,2.3856153E-1,4.9791405E-1,0E0,0E0,0E0,0E0,0E0,0E0,0E0,9.109001E-1,3.9086785E0,4.280667E0,2.9594781E0,0E0,0E0,0E0,3.4981447E-3,0E0,0E0,0E0,0E0,0E0,1.0947831E0,0E0,6.4101464E-1,1.253283E0,0E0,1.8124094E0,6.6921816E0,4.2701495E-1,2.2378502E0,0E0,0E0,0E0,0E0,0E0,0E0,1.522044E0,4.5994604E-1,5.6828994E-1,0E0,0E0,2.7270916E0,0E0,6.071993E-1,3.1007957E0,0E0,0E0,0E0,0E0,0E0,0E0,0E0,0E0,0E0,0E0,0E0,0E0,0E0],"parents":[2147483647,0,0,1,1,2,2,3,3,4,4,5,5,6,6,7,7,8,8,9,9,11,11,13,13,15,15,16,16,17,17,18,18,21,21,22,22,23,23,25,25,26,26,27,27,28,28,30,30,32,32,34,34,35,35,36,36,37,37,45,45,46,46,47,47,48,48,52,52,58,58,60,60,61,61,63,63,64,64,65,65,66,66,73,73,74,74,75,75,78,78,80,80,81,81],"right_children":[2,4,6,8,10,12,14,16,18,20,-1,22,-1,24,-1,26,28,30,32,-1,-1,34,36,38,-1,40,42,44,46,-1,48,-1,50,-1,52,54,56,58,-1,-1,-1,-1,-1,-1,-1,60,62,64,66,-1,-1,-1,68,-1,-1,-1,-1,-1,70,-1,72,74,-1,76,78,80,82,-1,-1,-1,-1,-1,-1,84,86,88,-1,-1,90,-1,92,94,-1,-1,-1,-1,-1,-1,-1,-1,-1,-1,-1,-1,-1],"split_conditions":[1.514766E5,1.8377749E8,1.05093E5,0E0,1.05093E5,1E0,1E0,0E0,3.9729729E0,0E0,1.2090136E-1,-3.30505E6,6.268888E-2,3.64756E5,1.0999041E-2,-7.211042E5,0E0,-4.329673E8,2E0,-9.785783E-3,4.0162046E-2,0E0,1E0,0E0,-1.18506595E-1,1E0,-3.060802E5,1.05093E5,5.9475385E6,-1.0974738E-1,1E0,1.02115594E-1,7.92E0,9.822687E-2,-3.7876428E7,1E0,0E0,-6.958E6,-7.6905675E-2,-8.2574636E-2,-1.6954288E-2,4.9375124E-2,-7.2191507E-3,-5.0731942E-2,7.330191E-2,3.00372E5,5.149879E7,-3.0989806E7,-2.97E0,-3.4461115E-2,4.0159464E-2,-8.809293E-2,0E0,-9.27274E-2,-1.4351604E-2,-1.969214E-2,2.1646034E-2,-3.253686E-2,-1E0,1.2508297E-1,-3.568686E5,1E0,1.11635655E-1,0E0,-1.722105E7,0E0,2E0,3.0123894E-3,-2.207537E-3,-3.1082667E-2,6.818424E-2,-1.9975584E-2,5.5071183E-2,1.2521134E7,1E0,1.8011E2,-1.05682105E-1,1.047304E-1,2E0,-8.031937E-2,-5.9253197E0,4.033174E7,9.247098E-2,7.48961E-2,-3.1399664E-2,-1.6497482E-3,-7.974457E-2,2.4194552E-2,-3.9969463E-2,-1.9101888E-2,4.73401E-2,2.1255542E-2,-4.5522336E-2,2.8431214E-2,-8.711496E-2],"split_indices":[6,5,0,6,0,16,13,15,14,12,0,4,0,0,0,6,19,5,16,0,0,16,19,13,0,12,6,0,4,0,13,0,14,0,4,12,15,4,0,0,0,0,0,0,0,0,4,4,14,0,0,0,12,0,0,0,0,0,12,0,6,12,0,13,4,19,13,0,0,0,0,0,0,4,15,1,0,0,15,0,14,5,0,0,0,0,0,0,0,0,0,0,0,0,0],"split_type":[0,0,0,0,0,0,0,0,0,0,0,0,0,0,0,0,0,0,0,0,0,0,0,0,0,0,0,0,0,0,0,0,0,0,0,0,0,0,0,0,0,0,0,0,0,0,0,0,0,0,0,0,0,0,0,0,0,0,0,0,0,0,0,0,0,0,0,0,0,0,0,0,0,0,0,0,0,0,0,0,0,0,0,0,0,0,0,0,0,0,0,0,0,0,0],"sum_hessian":[2.9045255E2,2.5090009E2,3.9552467E1,2.4027667E2,1.0623414E1,2.1823324E1,1.7729145E1,3.3067574E1,2.072091E2,3.150134E0,7.47328E0,1.9601812E1,2.2215116E0,1.5600107E1,2.1290374E0,7.5165715E0,2.5551E1,1.9709393E2,1.0115168E1,1.7285287E0,1.4216053E0,7.2792063E0,1.2322606E1,6.0789776E0,9.521129E0,4.422513E0,3.0940585E0,3.6175668E0,2.1933434E1,3.2088654E0,1.9388507E2,7.052554E0,3.0626132E0,2.145675E0,5.133531E0,8.750037E0,3.5725696E0,3.552889E0,2.5260887E0,2.2083411E0,2.214172E0,1.6181852E0,1.4758734E0,1.9403664E0,1.6772004E0,1.1448121E1,1.0485313E1,1.422761E2,5.160897E1,1.6824031E0,1.3802102E0,2.1850917E0,2.9484396E0,6.5041366E0,2.2459002E0,1.6435997E0,1.9289697E0,1.1757145E0,2.3771746E0,8.83897E0,2.6091506E0,6.78701E0,3.6983032E0,1.1377553E1,1.3089854E2,5.0894713E0,4.6519497E1,1.2918153E0,1.6566243E0,1.1742561E0,1.2029184E0,1.557858E0,1.0512928E0,3.659221E0,3.1277893E0,3.663124E0,7.714429E0,4.9319444E0,1.25966606E2,1.4490929E0,3.6403782E0,4.1028336E1,5.4911613E0,1.5546002E0,2.1046207E0,1.6739151E0,1.4538741E0,2.4441063E0,1.2190177E0,1.1849234E2,7.4742646E0,2.2148147E0,1.4255635E0,3.9567314E1,1.4610239E0],"tree_param":{"num_deleted":"0","num_feature":"30","num_nodes":"95","size_leaf_vector":"1"}},{"base_weights":[6.959074E-3,-8.183931E-1,5.2147843E-2,-9.22737E-1,8.13305E-4,1.3703843E-2,8.982139E-1,-1.1998571E-1,-2.659685E-2,-5.710335E-1,7.5168185E-2,1.301583E-1,3.1340003E-3,-6.831716E-1,7.174066E-2,-4.9425605E-1,1.4209338E-1,-7.716005E-1,4.2695135E-2,-6.873593E-1,1.1916946E-1,-1.1416809E-1,1.7280793E-1,-9.518923E-1,-1.8846917E-1,-8.2124263E-1,4.9209237E-2,3.646675E-1,-4.1455816E-2,1.1164257E-1,8.604202E-1,-1.008536E0,-9.042102E-3,4.7520787E-2,-6.5082535E-2,7.6072044E-3,-9.2705214E-1,-1.1554801E-2,5.783955E-1,6.016727E-3,4.3960828E-1,-1.2512841E-2,9.6396244E-1,-1.36426E-1,-3.386808E-1,-1.24816775E-1,-3.098484E-1,8.3096385E-2,1.0968186E-2,-3.0219418E-1,1.1255522E-1,1.1844388E-1,6.0050553E-1,2.9976994E-1,1.304338E-1,-6.917504E-2,2.2717983E-2,-7.2898425E-2,2.8260576E-2,-4.717026E-2,1.6871577E-2,8.9353524E-2,4.591621E-3,7.9162225E-2,-1.7783782E-2,7.9840146E-2,-2.3379258E-3,8.3624735E-2,-3.2047763E-2],"categories":[],"categories_nodes":[],"categories_segments":[],"categories_sizes":[],"default_left":[0,0,0,0,0,0,0,0,0,0,0,0,0,0,0,0,0,0,0,0,0,0,0,0,0,0,0,0,0,0,0,0,0,0,0,0,0,0,0,0,0,0,0,0,0,0,0,0,0,0,0,0,0,0,0,0,0,0,0,0,0,0,0,0,0,0,0,0,0],"id":9,"left_children":[1,3,5,7,-1,9,11,-1,-1,13,15,-1,-1,17,-1,19,21,23,-1,25,27,-1,29,31,33,35,-1,37,-1,39,41,43,-1,-1,-1,-1,45,-1,47,49,51,-1,53,-1,55,-1,57,-1,-1,59,61,63,65,67,-1,-1,-1,-1,-1,-1,-1,-1,-1,-1,-1,-1,-1,-1,-1],"loss_changes":[1.0913101E1,1.3219366E0,8.984925E0,2.3157883E-1,0E0,9.704548E0,1.8887396E0,0E0,0E0,4.286171E0,9.452409E0,0E0,0E0,2.8677387E0,0E0,3.2821856E0,7.758488E0,2.0438128E0,0E0,3.7291327E0,1.2164218E0,0E0,8.863446E0,6.8430996E-1,2.2006629E0,1.8895149E0,0E0,7.603793E-1,0E0,6.9512296E0,1.9541273E0,5.091629E-1,0E0,0E0,0E0,0E0,4.5529747E-1,0E0,1.2009418E-1,5.1395564E0,2.3664846E0,0E0,5.6095505E-1,0E0,9.708615E-1,0E0,1.2671639E0,0E0,0E0,1.7429574E0,5.393277E0,2.9795842E0,1.3162031E0,1.6751983E0,0E0,0E0,0E0,0E0,0E0,0E0,0E0,0E0,0E0,0E0,0E0,0E0,0E0,0E0,0E0],"parents":[2147483647,0,0,1,1,2,2,3,3,5,5,6,6,9,9,10,10,13,13,15,15,16,16,17,17,19,19,20,20,22,22,23,23,24,24,25,25,27,27,29,29,30,30,31,31,36,36,38,38,39,39,40,40,42,42,44,44,46,46,49,49,50,50,51,51,52,52,53,53],"right_children":[2,4,6,8,-1,10,12,-1,-1,14,16,-1,-1,18,-1,20,22,24,-1,26,28,-1,30,32,34,36,-1,38,-1,40,42,44,-1,-1,-1,-1,46,-1,48,50,52,-1,54,-1,56,-1,58,-1,-1,60,62,64,66,68,-1,-1,-1,-1,-1,-1,-1,-1,-1,-1,-1,-1,-1,-1,-1],"split_conditions":[-1.6328146E9,3.1311E7,1.8377749E8,1.3718E6,8.13305E-4,-3.0989806E7,1E0,-1.1998571E-1,-2.659685E-2,1E0,-1.3414825E7,1.301583E-1,3.1340003E-3,3.8468004E9,7.174066E-2,3.0989806E7,-4.329673E8,1E0,4.2695135E-2,3.8468004E9,1E0,-1.1416809E-1,1.3414825E7,5.2146204E7,-1.10845144E8,-5.899783E7,4.9209237E-2,0E0,-4.1455816E-2,1E0,-1.25240664E8,-5.149879E7,-9.042102E-3,4.7520787E-2,-6.5082535E-2,7.6072044E-3,1E0,-1.1554801E-2,5.91386E7,0E0,0E0,-1.2512841E-2,0E0,-1.36426E-1,0E0,-1.24816775E-1,0E0,8.3096385E-2,1.0968186E-2,1E0,-1.026305E7,-1E0,1.53E2,1E0,1.304338E-1,-6.917504E-2,2.2717983E-2,-7.2898425E-2,2.8260576E-2,-4.717026E-2,1.6871577E-2,8.9353524E-2,4.591621E-3,7.9162225E-2,-1.7783782E-2,7.9840146E-2,-2.3379258E-3,8.3624735E-2,-3.2047763E-2],"split_indices":[7,4,5,3,0,4,18,0,0,20,3,0,0,7,0,4,5,13,0,7,16,0,3,3,4,3,0,13,0,16,5,4,0,0,0,0,17,0,4,18,12,0,15,0,20,0,13,0,0,21,4,12,2,21,0,0,0,0,0,0,0,0,0,0,0,0,0,0,0],"split_type":[0,0,0,0,0,0,0,0,0,0,0,0,0,0,0,0,0,0,0,0,0,0,0,0,0,0,0,0,0,0,0,0,0,0,0,0,0,0,0,0,0,0,0,0,0,0,0,0,0,0,0,0,0,0,0,0,0,0,0,0,0,0,0,0,0,0,0,0,0],"sum_hessian":[2.8777814E2,1.2939804E1,2.7483832E2,1.1251059E1,1.6887454E0,2.6507993E2,9.758399E0,9.271958E0,1.9791001E0,2.3439173E1,2.4164076E2,7.5878615E0,2.1705375E0,2.2240435E1,1.1987389E0,2.3902529E1,2.1773824E2,2.1029562E1,1.2108717E0,1.7973406E1,5.9291215E0,4.106167E0,2.1363206E2,1.4976339E1,6.0532236E0,1.652382E1,1.4495864E0,4.196119E0,1.7330025E0,1.985828E2,1.50492735E1,1.3749034E1,1.2273055E0,2.1818616E0,3.871362E0,1.8615997E0,1.4662221E1,1.7208959E0,2.475223E0,1.5193979E2,4.6643005E1,1.457159E0,1.3592114E1,1.0221778E1,3.527256E0,1.1088685E1,3.5735354E0,1.2362947E0,1.2389282E0,3.796801E1,1.1397177E2,1.6871803E1,2.9771204E1,3.33195E0,1.0260165E1,2.2896323E0,1.2376236E0,2.145974E0,1.4275614E0,3.1711239E1,6.256772E0,9.851976E0,1.041198E2,4.4738946E0,1.2397908E1,2.680389E1,2.9673138E0,1.6557903E0,1.6761596E0],"tree_param":{"num_deleted":"0","num_feature":"30","num_nodes":"69","size_leaf_vector":"1"}},{"base_weights":[6.7333067E-3,-7.656572E-1,4.8218668E-2,-8.666039E-1,7.7141414E-4,1.2907998E-2,8.336075E-1,-9.4143724E-1,-2.511044E-2,-5.223891E-1,6.8524554E-2,1.212985E-1,2.949721E-3,-3.1775795E-2,-1.2532707E-1,-5.9785646E-1,4.0977377E-2,-4.514092E-1,1.2880303E-1,-7.777194E-1,-8.360452E-2,-6.352378E-1,1.16328545E-1,-4.044432E-1,1.8782556E-1,-8.6206913E-1,6.5860497E-3,5.7441324E-2,-6.0391873E-2,-7.6439995E-1,4.7058918E-2,3.5012883E-1,-3.9325707E-2,4.2186026E-2,-5.057215E-1,-1.0851577E-1,2.2038944E-1,-3.488837E-1,-1.18969455E-1,7.1927886E-3,-8.662048E-1,-1.0955917E-2,5.5458426E-1,-1.5110852E-1,-7.8120625E-1,1.6306973E-1,8.035718E-1,5.5934403E-2,-7.67925E-2,-1.1680075E-1,-2.9171818E-1,7.969251E-2,1.0504046E-2,8.487523E-2,-8.200322E-2,-1.1911648E-1,-2.2511606E-1,-1.4678009E-1,2.541498E-1,-1.1915083E-2,9.03936E-1,1.5900644E-2,-7.454202E-3,-6.914141E-2,2.695676E-2,-1.8196592E-2,6.540864E-2,1.6996652E-2,-5.411811E-2,6.5266915E-2,-3.2030437E-2,2.2825925E-2,1.0730559E-1,3.433608E-2,1.2240948E-1],"categories":[],"categories_nodes":[],"categories_segments":[],"categories_sizes":[],"default_left":[0,0,0,0,0,0,0,0,0,0,0,0,0,0,0,0,0,0,0,0,0,0,0,0,0,0,0,0,0,0,0,0,0,0,0,0,0,0,0,0,0,0,0,0,0,0,0,0,0,0,0,0,0,0,0,0,0,0,0,0,0,0,0,0,0,0,0,0,0,0,0,0,0,0,0],"id":10,"left_children":[1,3,5,7,-1,9,11,13,-1,15,17,-1,-1,-1,-1,19,-1,21,23,25,27,29,31,33,35,37,-1,-1,-1,39,-1,41,-1,-1,43,-1,45,47,-1,-1,49,-1,51,53,55,57,59,61,-1,-1,63,-1,-1,65,-1,-1,67,69,71,-1,73,-1,-1,-1,-1,-1,-1,-1,-1,-1,-1,-1,-1,-1,-1],"loss_changes":[9.2716E0,1.1621466E0,7.5816536E0,1.9925022E-1,0E0,7.9622946E0,1.6307821E0,1.4984608E-1,0E0,2.1008215E0,7.709476E0,0E0,0E0,0E0,0E0,2.071125E0,0E0,2.8403072E0,7.0460796E0,1.3347998E0,2.6027722E0,3.2890735E0,1.1062168E0,2.1214027E0,7.4975214E0,2.8485012E-1,0E0,0E0,0E0,1.6496964E0,0E0,6.9505346E-1,0E0,0E0,1.7613759E0,0E0,6.1995354E0,8.69463E-1,0E0,0E0,3.707199E-1,0E0,1.1057353E-1,1.6203077E0,8.067384E-1,5.155742E0,1.7255201E0,6.253916E-2,0E0,0E0,1.1418488E0,0E0,0E0,1.2982547E0,0E0,0E0,6.3893664E-1,3.832678E0,5.334605E0,0E0,4.4499302E-1,0E0,0E0,0E0,0E0,0E0,0E0,0E0,0E0,0E0,0E0,0E0,0E0,0E0,0E0],"parents":[2147483647,0,0,1,1,2,2,3,3,5,5,6,6,7,7,9,9,10,10,15,15,17,17,18,18,19,19,20,20,21,21,22,22,23,23,24,24,25,25,29,29,31,31,34,34,36,36,37,37,40,40,42,42,43,43,44,44,45,45,46,46,47,47,50,50,53,53,56,56,57,57,58,58,60,60],"right_children":[2,4,6,8,-1,10,12,14,-1,16,18,-1,-1,-1,-1,20,-1,22,24,26,28,30,32,34,36,38,-1,-1,-1,40,-1,42,-1,-1,44,-1,46,48,-1,-1,50,-1,52,54,56,58,60,62,-1,-1,64,-1,-1,66,-1,-1,68,70,72,-1,74,-1,-1,-1,-1,-1,-1,-1,-1,-1,-1,-1,-1,-1,-1],"split_conditions":[-1.6328146E9,3.1311E7,1.8377749E8,1.3718E6,7.7141414E-4,-3.0989806E7,1E0,-4.110849E9,-2.511044E-2,3.8468004E9,-1.3414825E7,1.212985E-1,2.949721E-3,-3.1775795E-2,-1.2532707E-1,1E0,4.0977377E-2,3.0989806E7,-1.9670271E0,5.2146204E7,-1.10845144E8,3.8468004E9,1E0,-1E0,-4.329673E8,0E0,6.5860497E-3,5.7441324E-2,-6.0391873E-2,-5.899783E7,4.7058918E-2,0E0,-3.9325707E-2,4.2186026E-2,0E0,-1.0851577E-1,1.3414825E7,4.63501E5,-1.18969455E-1,7.1927886E-3,1E0,-1.0955917E-2,5.91386E7,-3.9264004E0,-3.3068757E0,0E0,-1.25240664E8,1E0,-7.67925E-2,-1.1680075E-1,0E0,7.969251E-2,1.0504046E-2,-4.615676E0,-8.200322E-2,-1.1911648E-1,1.05093E5,-6.595622E6,1.7746334E8,-1.1915083E-2,0E0,1.5900644E-2,-7.454202E-3,-6.914141E-2,2.695676E-2,-1.8196592E-2,6.540864E-2,1.6996652E-2,-5.411811E-2,6.5266915E-2,-3.2030437E-2,2.2825925E-2,1.0730559E-1,3.433608E-2,1.2240948E-1],"split_indices":[7,4,5,3,0,4,18,7,0,7,3,0,0,0,0,13,0,4,14,3,4,7,16,17,5,13,0,0,0,3,0,13,0,0,21,0,3,0,0,0,17,0,4,14,14,18,5,18,0,0,13,0,0,14,0,0,0,3,7,0,15,0,0,0,0,0,0,0,0,0,0,0,0,0,0],"split_type":[0,0,0,0,0,0,0,0,0,0,0,0,0,0,0,0,0,0,0,0,0,0,0,0,0,0,0,0,0,0,0,0,0,0,0,0,0,0,0,0,0,0,0,0,0,0,0,0,0,0,0,0,0,0,0,0,0,0,0,0,0,0,0,0,0,0,0,0,0,0,0,0,0,0,0],"sum_hessian":[2.8450717E2,1.2500059E1,2.720071E2,1.0811111E1,1.6889478E0,2.6249258E2,9.514549E0,8.833156E0,1.9779563E0,2.2928383E1,2.395642E2,7.344547E0,2.170003E0,2.227907E0,6.6052485E0,2.1723465E1,1.2049164E0,2.3371656E1,2.1619254E2,1.524032E1,6.4831457E0,1.7453012E1,5.9186444E0,2.0232422E1,1.9596011E2,1.3766071E1,1.4742484E0,2.6355252E0,3.8476202E0,1.6015532E1,1.4374807E0,4.1889305E0,1.7297136E0,1.7333982E0,1.8499025E1,3.9298196E0,1.9203029E2,4.4458036E0,9.320268E0,1.8621869E0,1.4153344E1,1.7202033E0,2.4687274E0,9.611261E0,8.887763E0,1.7746663E2,1.4563656E1,2.6197162E0,1.8260874E0,1.0612178E1,3.541166E0,1.2308116E0,1.2379159E0,7.96918E0,1.6420808E0,5.159683E0,3.72808E0,4.000287E1,1.3746376E2,1.4593693E0,1.3104286E1,1.4219557E0,1.1977606E0,2.1152277E0,1.4259385E0,6.2603464E0,1.7088337E0,1.7406867E0,1.9873934E0,4.7514334E0,3.5251434E1,1.2763355E2,9.830214E0,3.306915E0,9.797371E0],"tree_param":{"num_deleted":"0","num_feature":"30","num_nodes":"75","size_leaf_vector":"1"}},{"base_weights":[4.198019E-3,-7.911119E-2,2.882986E-1,-1.279652E-1,4.3953165E-1,4.095058E-1,-1.5126657E-1,-1.719684E-1,4.595708E-1,-5.3198468E-2,5.426569E-1,5.415615E-1,-2.2706231E-2,-3.8968074E-1,6.976475E-2,-2.4293062E-1,2.6492858E-1,6.108837E-1,-4.329526E-2,-2.2662519E-2,6.651198E-1,6.081214E-1,-2.1041617E-1,3.312517E-1,-2.994633E-1,-8.228401E-2,3.8701612E-1,-2.7720332E-1,4.4547158E-1,-3.2662028E-1,4.3329802E-1,-1.0353897E-2,7.1157503E-1,-3.187028E-2,7.981462E-1,7.613042E-1,2.4310486E-1,-5.358009E-2,1.7290825E-2,-3.1253804E-2,6.3848294E-2,-5.103375E-1,1.01162076E-1,6.20608E-2,6.5302504E-3,-6.6552365E-1,-2.3521592E-1,-9.3677565E-2,6.835616E-1,-6.5043783E-1,3.2166213E-2,-3.654643E-1,6.075907E-1,1.06144235E-1,-4.098211E-3,8.8631314E-1,1.0497989E-2,8.615104E-1,-5.155376E-2,5.0964075E-1,-2.144218E-1,-1.4931109E-2,-7.063614E-2,2.6252067E-2,-7.1252473E-3,2.0698136E-2,-8.030077E-1,-3.605722E-1,-8.776228E-2,-4.52907E-2,3.1075504E-2,1.2697631E-2,9.712026E-2,-9.038121E-2,-1.1558952E-2,2.3554863E-2,-8.675143E-2,1.0388271E-1,8.114114E-1,9.777847E-3,1.1455777E-1,4.2634854E-1,1.2437444E-1,2.574077E-2,9.3741566E-2,1.356531E-2,-4.1307002E-2,-1.04439154E-1,-1.570418E-2,5.4470934E-2,-4.1059086E-1,-2.4161176E-1,4.141919E-1,-4.5343187E-2,3.6445093E-1,2.1413691E-1,1.0722812E-1,6.519535E-1,-3.2527994E-2,-3.764313E-2,4.959965E-2,-5.376038E-3,-5.7210017E-2,-1.0254065E-1,-2.0906642E-2,-5.334208E-2,6.65978E-2,6.8615978E-3,4.899674E-2,3.7174903E-2,-2.87252E-3,6.8340786E-3,9.349277E-2],"categories":[],"categories_nodes":[],"categories_segments":[],"categories_sizes":[],"default_left":[0,0,0,0,0,0,0,0,0,0,0,0,0,0,0,0,0,0,0,0,0,0,0,0,0,0,0,0,0,0,0,0,0,0,0,0,0,0,0,0,0,0,0,0,0,0,0,0,0,0,0,0,0,0,0,0,0,0,0,0,0,0,0,0,0,0,0,0,0,0,0,0,0,0,0,0,0,0,0,0,0,0,0,0,0,0,0,0,0,0,0,0,0,0,0,0,0,0,0,0,0,0,0,0,0,0,0,0,0,0,0,0,0],"id":11,"left_children":[1,3,5,7,9,11,13,15,17,-1,19,21,23,25,-1,27,29,31,-1,-1,33,35,37,39,41,-1,43,45,47,49,51,-1,53,-1,55,57,59,-1,-1,-1,-1,61,63,-1,-1,65,67,69,71,73,-1,75,77,-1,-1,79,-1,81,-1,83,85,-1,-1,-1,-1,-1,87,89,91,-1,-1,-1,-1,-1,-1,-1,-1,93,95,-1,-1,97,-1,99,-1,-1,-1,-1,-1,-1,101,103,105,-1,107,109,-1,111,-1,-1,-1,-1,-1,-1,-1,-1,-1,-1,-1,-1,-1,-1,-1],"loss_changes":[6.760249E0,5.7249317E0,3.5895696E0,5.4434404E0,2.3192198E0,2.9595346E0,3.241606E0,6.070074E0,2.3335204E0,0E0,1.9396768E0,2.261774E0,1.6123768E0,3.6198559E0,0E0,4.1846094E0,3.085365E0,1.074162E0,0E0,0E0,2.5002694E0,1.6416845E0,5.530494E-1,1.1781328E0,8.8833225E-1,0E0,1.5599328E-1,2.2421808E0,1.2629145E0,1.8246131E0,3.6449394E0,0E0,1.6021276E0,0E0,7.566509E-1,3.8009214E0,1.9758546E0,0E0,0E0,0E0,0E0,2.7390838E-2,1.2418935E-1,0E0,0E0,1.9587669E0,2.6473646E0,6.850661E-1,2.6635742E-1,1.4830327E-1,0E0,1.414029E0,1.8011422E0,0E0,0E0,5.3851986E-1,0E0,8.092575E-1,0E0,1.2201772E0,3.7684318E-1,0E0,0E0,0E0,0E0,0E0,3.1743717E-1,3.6284428E0,5.6737823E0,0E0,0E0,0E0,0E0,0E0,0E0,0E0,0E0,1.3349528E0,2.3066807E-1,0E0,0E0,2.067848E0,0E0,1.0532451E0,0E0,0E0,0E0,0E0,0E0,0E0,1.7765102E0,1.9541924E0,2.6563761E0,0E0,3.4320354E-2,1.21177495E-1,0E0,5.569775E-1,0E0,0E0,0E0,0E0,0E0,0E0,0E0,0E0,0E0,0E0,0E0,0E0,0E0,0E0,0E0],"parents":[2147483647,0,0,1,1,2,2,3,3,4,4,5,5,6,6,7,7,8,8,10,10,11,11,12,12,13,13,15,15,16,16,17,17,20,20,21,21,22,22,23,23,24,24,26,26,27,27,28,28,29,29,30,30,32,32,34,34,35,35,36,36,41,41,42,42,45,45,46,46,47,47,48,48,49,49,51,51,52,52,55,55,57,57,59,59,60,60,66,66,67,67,68,68,77,77,78,78,81,81,83,83,90,90,91,91,92,92,94,94,95,95,97,97],"right_children":[2,4,6,8,10,12,14,16,18,-1,20,22,24,26,-1,28,30,32,-1,-1,34,36,38,40,42,-1,44,46,48,50,52,-1,54,-1,56,58,60,-1,-1,-1,-1,62,64,-1,-1,66,68,70,72,74,-1,76,78,-1,-1,80,-1,82,-1,84,86,-1,-1,-1,-1,-1,88,90,92,-1,-1,-1,-1,-1,-1,-1,-1,94,96,-1,-1,98,-1,100,-1,-1,-1,-1,-1,-1,102,104,106,-1,108,110,-1,112,-1,-1,-1,-1,-1,-1,-1,-1,-1,-1,-1,-1,-1,-1,-1],"split_conditions":[1E0,5.2651444E7,2.8052E2,7.416406E-1,-1.0516686E9,2E0,1.919E6,8.7362E6,1E0,-5.3198468E-2,-1E0,3.30505E6,1E0,1E0,6.976475E-2,1.8377749E8,-5.149879E7,-1E0,-4.329526E-2,-2.2662519E-2,-1E0,1E0,2.0874E7,-3.30505E6,3.9729729E0,-8.228401E-2,1E0,-1.3414825E7,-1.3718E6,5.2146204E7,-4.04E6,-1.0353897E-2,3.00372E5,-3.187028E-2,3.6552224E8,1E0,1.05093E5,-5.358009E-2,1.7290825E-2,-3.1253804E-2,6.3848294E-2,-3.9264004E0,1.05093E5,6.20608E-2,6.5302504E-3,-5.899783E7,1.05093E5,1.05093E5,0E0,4.4829468E7,3.2166213E-2,1.8011E2,0E0,1.06144235E-1,-4.098211E-3,0E0,1.0497989E-2,0E0,-5.155376E-2,1E0,0E0,-1.4931109E-2,-7.063614E-2,2.6252067E-2,-7.1252473E-3,2.0698136E-2,6.958E6,-4.033174E7,1E0,-4.52907E-2,3.1075504E-2,1.2697631E-2,9.712026E-2,-9.038121E-2,-1.1558952E-2,2.3554863E-2,-8.675143E-2,1.3414825E7,0E0,9.777847E-3,1.1455777E-1,1E0,1.2437444E-1,1E0,9.3741566E-2,1.356531E-2,-4.1307002E-2,-1.04439154E-1,-1.570418E-2,5.4470934E-2,-1.026305E7,-5.959E6,-2.9479797E0,-4.5343187E-2,1.05093E5,1E0,1.0722812E-1,0E0,-3.2527994E-2,-3.764313E-2,4.959965E-2,-5.376038E-3,-5.7210017E-2,-1.0254065E-1,-2.0906642E-2,-5.334208E-2,6.65978E-2,6.8615978E-3,4.899674E-2,3.7174903E-2,-2.87252E-3,6.8340786E-3,9.349277E-2],"split_indices":[16,4,1,14,5,17,5,3,17,0,12,4,9,9,0,5,4,16,0,0,17,18,4,4,14,0,17,3,3,3,5,0,0,0,4,20,0,0,0,0,0,14,0,0,0,3,0,0,17,3,0,1,17,0,0,20,0,18,0,15,12,0,0,0,0,0,4,5,18,0,0,0,0,0,0,0,0,3,15,0,0,9,0,12,0,0,0,0,0,0,4,5,14,0,0,12,0,12,0,0,0,0,0,0,0,0,0,0,0,0,0,0,0],"split_type":[0,0,0,0,0,0,0,0,0,0,0,0,0,0,0,0,0,0,0,0,0,0,0,0,0,0,0,0,0,0,0,0,0,0,0,0,0,0,0,0,0,0,0,0,0,0,0,0,0,0,0,0,0,0,0,0,0,0,0,0,0,0,0,0,0,0,0,0,0,0,0,0,0,0,0,0,0,0,0,0,0,0,0,0,0,0,0,0,0,0,0,0,0,0,0,0,0,0,0,0,0,0,0,0,0,0,0,0,0,0,0,0,0],"sum_hessian":[2.812077E2,2.1869994E2,6.250776E1,2.0142169E2,1.7278234E1,4.9117733E1,1.3390026E1,1.8886797E2,1.255373E1,1.0308375E0,1.6247396E1,3.7186676E1,1.193106E1,1.0897151E1,2.4928744E0,1.6333714E2,2.5530832E1,1.1083891E1,1.4698387E0,2.1550102E0,1.4092386E1,3.455825E1,2.6284256E0,5.040933E0,6.8901267E0,8.080913E0,2.8162386E0,1.5687114E2,6.4659896E0,5.1881204E0,2.0342712E1,1.4394441E0,9.644447E0,1.4819523E0,1.2610434E1,2.262196E1,1.1936289E1,1.2272558E0,1.4011697E0,1.1080356E0,3.9328978E0,4.1103997E0,2.779727E0,1.1266826E0,1.6895559E0,1.2046397E1,1.4482475E2,2.398767E0,4.0672226E0,3.2224178E0,1.9657025E0,3.201719E0,1.7140993E1,7.4887342E0,2.1557128E0,1.0723878E1,1.8865557E0,2.1440283E1,1.1816766E0,7.380459E0,4.55583E0,1.6758817E0,2.434518E0,1.1333749E0,1.6463519E0,1.6170679E0,1.0429329E1,7.652002E1,6.830473E1,1.2416084E0,1.1571586E0,1.4677899E0,2.599433E0,2.0365179E0,1.1859001E0,1.6395885E0,1.5621305E0,5.9164004E0,1.1224593E1,1.2253158E0,9.498562E0,8.365346E0,1.3074937E1,3.5382898E0,3.8421688E0,1.3757081E0,3.1801217E0,8.876831E0,1.5524983E0,3.376043E0,7.3143974E1,5.3173866E1,1.5130866E1,1.7212732E0,4.195127E0,2.338473E0,8.88612E0,6.4315047E0,1.9338416E0,2.1150255E0,1.4232644E0,1.1781029E1,6.1362946E1,2.664129E0,5.0509735E1,1.4476094E0,1.3683257E1,1.1713958E0,3.0237315E0,1.1847038E0,1.1537694E0,1.7060277E0,4.7254767E0],"tree_param":{"num_deleted":"0","num_feature":"30","num_nodes":"113","size_leaf_vector":"1"}},{"base_weights":[5.369377E-3,-7.0492065E-1,4.273921E-2,-8.1973594E-1,-3.0398354E-1,1.16826985E-2,7.4629563E-1,-1.0650145E-1,-2.192702E-2,-6.0315963E-2,2.557484E-2,-2.1232566E-2,6.756749E-1,1.09385304E-1,2.7088472E-3,-4.867514E-2,6.788067E-1,1.869115E-1,7.762402E-1,-1.2940085E-1,1.6492923E-1,1.0171226E-1,-1.1780862E-3,-3.9195348E-2,7.165492E-2,1.0489636E-1,7.6530627E-3,-5.832673E-1,-3.947958E-2,-5.908882E-2,2.0358323E-1,1.9671081E-1,-7.219481E-1,-1.210927E-1,1.816058E-1,2.4726E-1,-4.13944E-1,6.860427E-2,-1.8180843E-1,-8.379725E-1,-8.7004155E-2,-1.5488593E-1,5.6391823E-1,9.011225E-1,-4.0993106E-2,-4.8867766E-2,2.9372367E-1,-3.3420736E-3,-6.5304175E-2,-4.8405483E-2,2.1377647E-2,-1.0482189E-1,-5.7258643E-3,1.0427846E-2,-3.0684255E-2,-1.3921736E-2,-9.4265305E-2,7.677255E-2,1.4500151E-2,1.2028427E-1,1.08206915E-2,-3.7230507E-2,2.36274E-2,9.208835E-3,5.4290053E-2],"categories":[],"categories_nodes":[],"categories_segments":[],"categories_sizes":[],"default_left":[0,0,0,0,0,0,0,0,0,0,0,0,0,0,0,0,0,0,0,0,0,0,0,0,0,0,0,0,0,0,0,0,0,0,0,0,0,0,0,0,0,0,0,0,0,0,0,0,0,0,0,0,0,0,0,0,0,0,0,0,0,0,0,0,0],"id":12,"left_children":[1,3,5,7,9,11,13,-1,-1,-1,-1,15,17,-1,-1,19,21,23,25,27,29,-1,-1,-1,-1,-1,-1,31,33,-1,35,37,39,41,43,45,47,-1,49,51,53,55,57,59,61,-1,63,-1,-1,-1,-1,-1,-1,-1,-1,-1,-1,-1,-1,-1,-1,-1,-1,-1,-1],"loss_changes":[7.506694E0,9.008217E-2,5.844223E0,5.2318573E-2,9.316494E-1,5.699583E0,1.3062797E0,0E0,0E0,0E0,0E0,4.862507E0,2.789049E-1,0E0,0E0,4.219875E0,1.1290889E0,1.5058769E0,5.372071E-1,7.1655855E0,1.9367212E0,0E0,0E0,0E0,0E0,0E0,0E0,3.4650278E0,2.7562556E0,0E0,1.9887712E0,1.1079538E0,1.6903286E0,2.7641208E0,6.7053514E0,2.1636574E0,2.2480458E-1,0E0,5.422599E-1,4.966917E-1,2.3774348E-1,2.429485E0,1.7612815E-2,6.0677814E-1,2.2979615E0,0E0,1.9699016E0,0E0,0E0,0E0,0E0,0E0,0E0,0E0,0E0,0E0,0E0,0E0,0E0,0E0,0E0,0E0,0E0,0E0,0E0],"parents":[2147483647,0,0,1,1,2,2,3,3,4,4,5,5,6,6,11,11,12,12,15,15,16,16,17,17,18,18,19,19,20,20,27,27,28,28,30,30,31,31,32,32,33,33,34,34,35,35,36,36,38,38,39,39,40,40,41,41,42,42,43,43,44,44,46,46],"right_children":[2,4,6,8,10,12,14,-1,-1,-1,-1,16,18,-1,-1,20,22,24,26,28,30,-1,-1,-1,-1,-1,-1,32,34,-1,36,38,40,42,44,46,48,-1,50,52,54,56,58,60,62,-1,64,-1,-1,-1,-1,-1,-1,-1,-1,-1,-1,-1,-1,-1,-1,-1,-1,-1,-1],"split_conditions":[-1.6328146E9,1E0,1.8377749E8,1E0,0E0,3.8468004E9,1E0,-1.0650145E-1,-2.192702E-2,-6.0315963E-2,2.557484E-2,2E0,0E0,1.09385304E-1,2.7088472E-3,1E0,3.64756E5,1E0,2E0,0E0,-1E0,1.0171226E-1,-1.1780862E-3,-3.9195348E-2,7.165492E-2,1.0489636E-1,7.6530627E-3,0E0,1E0,-5.908882E-2,2.136357E7,0E0,1E0,1.6328146E9,0E0,-3.5847348E7,1E0,6.860427E-2,1.05093E5,1E0,1E0,6.6263692E7,1E0,1.02696E5,0E0,-4.8867766E-2,1.05093E5,-3.3420736E-3,-6.5304175E-2,-4.8405483E-2,2.1377647E-2,-1.0482189E-1,-5.7258643E-3,1.0427846E-2,-3.0684255E-2,-1.3921736E-2,-9.4265305E-2,7.677255E-2,1.4500151E-2,1.2028427E-1,1.08206915E-2,-3.7230507E-2,2.36274E-2,9.208835E-3,5.4290053E-2],"split_indices":[7,12,5,18,17,7,18,0,0,0,0,18,18,0,0,13,0,12,16,20,19,0,0,0,0,0,0,17,20,0,7,13,21,7,16,7,21,0,0,19,12,7,17,6,13,0,0,0,0,0,0,0,0,0,0,0,0,0,0,0,0,0,0,0,0],"split_type":[0,0,0,0,0,0,0,0,0,0,0,0,0,0,0,0,0,0,0,0,0,0,0,0,0,0,0,0,0,0,0,0,0,0,0,0,0,0,0,0,0,0,0,0,0,0,0,0,0,0,0,0,0,0,0,0,0,0,0,0,0,0,0,0,0],"sum_hessian":[2.780043E2,1.18864E1,2.661179E2,7.41325E0,4.47315E0,2.5705817E2,9.059743E0,5.900637E0,1.5126129E0,3.2771823E0,1.1959677E0,2.4699236E2,1.0065795E1,6.900268E0,2.1594756E0,2.3968973E2,7.302637E0,2.8152244E0,7.250571E0,1.7459387E2,6.509585E1,5.447825E0,1.8548121E0,1.4537529E0,1.3614717E0,5.9257736E0,1.3247973E0,2.6829727E1,1.4776414E2,2.1484084E0,6.294744E1,3.9080884E0,2.2921638E1,1.0866745E2,3.909669E1,6.0049335E1,2.8981082E0,1.386344E0,2.5217445E0,1.877195E1,4.1496887E0,1.0521805E2,3.449401E0,7.617114E0,3.1479576E1,2.8224125E0,5.722692E1,1.4200488E0,1.4780594E0,1.3929088E0,1.1288357E0,1.7737137E1,1.0348129E0,2.5805318E0,1.5691569E0,1.0161856E2,3.5994916E0,2.0924058E0,1.3569951E0,6.299528E0,1.3175861E0,1.4445045E1,1.703453E1,2.558386E1,3.1643063E1],"tree_param":{"num_deleted":"0","num_feature":"30","num_nodes":"65","size_leaf_vector":"1"}},{"base_weights":[5.52886E-3,-6.6496336E-1,4.0105417E-2,-7.642552E-1,3.24318E-3,1.1623999E-2,6.9765824E-1,-8.3601016E-1,-2.205653E-2,-4.616057E-1,6.006694E-2,8.568984E-1,2.5499414E-3,-2.2786915E-2,-1.1377205E-1,-5.666812E-1,6.646678E-2,5.721339E-1,1.0529273E-2,1.9331824E-2,1.1635326E-1,-6.437893E-1,3.615691E-2,-3.486642E-1,7.743855E-1,-3.9543316E-1,6.122713E-2,-7.390576E-1,-4.262251E-2,1.384602E-2,-6.365237E-2,8.374966E-2,8.632482E-1,-5.593674E-1,9.043187E-2,-9.932655E-2,8.754327E-2,-6.0075507E-3,-9.3383394E-2,3.461192E-2,-3.957733E-2,2.362669E-2,-1.0572255E-2,9.6037334E-1,1.30984E-2,-6.7759025E-1,4.1547444E-2,2.9409903E-1,-3.4722466E-2,4.270103E-2,6.3652086E-1,1.2579761E-1,2.8374344E-1,6.917335E-3,-7.738779E-1,6.948258E-2,-2.1198492E-2,-1.4467059E-2,5.139226E-1,-1.151786E-2,7.3653996E-1,7.350921E-2,-2.8614685E-2,-1.0365463E-1,-3.5498716E-2,2.4607342E-2,-2.832999E-2,-9.68433E-3,4.1404672E-2,8.177033E-2,-4.378865E-2,1.09861195E-1,3.3546172E-2],"categories":[],"categories_nodes":[],"categories_segments":[],"categories_sizes":[],"default_left":[0,0,0,0,0,0,0,0,0,0,0,0,0,0,0,0,0,0,0,0,0,0,0,0,0,0,0,0,0,0,0,0,0,0,0,0,0,0,0,0,0,0,0,0,0,0,0,0,0,0,0,0,0,0,0,0,0,0,0,0,0,0,0,0,0,0,0,0,0,0,0,0,0],"id":13,"left_children":[1,3,5,7,-1,9,11,13,-1,15,17,19,-1,-1,-1,21,-1,23,25,-1,-1,27,-1,29,31,33,35,37,39,-1,-1,41,43,45,47,-1,49,-1,-1,-1,-1,-1,-1,51,-1,53,-1,55,-1,57,59,-1,61,-1,63,-1,65,67,69,-1,71,-1,-1,-1,-1,-1,-1,-1,-1,-1,-1,-1,-1],"loss_changes":[6.507406E0,9.923396E-1,4.9744425E0,1.5888023E-1,0E0,5.9725733E0,1.1470451E0,3.2992172E-1,0E0,3.2884002E0,5.9694114E0,3.4422016E-1,0E0,0E0,0E0,1.9786587E0,0E0,4.4741445E0,4.5277987E0,0E0,0E0,1.1822271E0,0E0,5.8397484E-1,9.2495155E-1,2.0597684E0,4.7286973E0,4.179201E-1,7.2561336E-1,0E0,0E0,1.2675753E-1,8.964367E-1,2.5171542E0,8.1804585E-1,0E0,4.655278E0,0E0,0E0,0E0,0E0,0E0,0E0,1.2850475E-1,0E0,1.3177571E0,0E0,6.015484E-1,0E0,4.85315E0,1.2071872E0,0E0,1.1232127E0,0E0,8.5305214E-2,0E0,3.6190572E-1,3.9273036E0,3.4278102E0,0E0,4.748521E-1,0E0,0E0,0E0,0E0,0E0,0E0,0E0,0E0,0E0,0E0,0E0,0E0],"parents":[2147483647,0,0,1,1,2,2,3,3,5,5,6,6,7,7,9,9,10,10,11,11,15,15,17,17,18,18,21,21,23,23,24,24,25,25,26,26,27,27,28,28,31,31,32,32,33,33,34,34,36,36,43,43,45,45,47,47,49,49,50,50,52,52,54,54,56,56,57,57,58,58,60,60],"right_children":[2,4,6,8,-1,10,12,14,-1,16,18,20,-1,-1,-1,22,-1,24,26,-1,-1,28,-1,30,32,34,36,38,40,-1,-1,42,44,46,48,-1,50,-1,-1,-1,-1,-1,-1,52,-1,54,-1,56,-1,58,60,-1,62,-1,64,-1,66,68,70,-1,72,-1,-1,-1,-1,-1,-1,-1,-1,-1,-1,-1,-1],"split_conditions":[-1.6328146E9,3.1311E7,1.8377749E8,1.3718E6,3.24318E-3,-3.0989806E7,1E0,-4.110849E9,-2.205653E-2,1E0,-5.9475385E6,-1.7334794E7,2.5499414E-3,-2.2786915E-2,-1.1377205E-1,3.8468004E9,6.646678E-2,0E0,-1.3414825E7,1.9331824E-2,1.1635326E-1,4.4829468E7,3.615691E-2,2.124014E6,-2.417905E7,3.0989806E7,-4.329673E8,0E0,-1.6349659E8,1.384602E-2,-6.365237E-2,1E0,1.19E7,3.8468004E9,1E0,-9.932655E-2,1.3414825E7,-6.0075507E-3,-9.3383394E-2,3.461192E-2,-3.957733E-2,2.362669E-2,-1.0572255E-2,1E0,1.30984E-2,-5.899783E7,4.1547444E-2,0E0,-3.4722466E-2,1.19E7,-1.25240664E8,1.2579761E-1,1E0,6.917335E-3,1E0,6.948258E-2,0E0,2.8052E2,2.8052E2,-1.151786E-2,1E0,7.350921E-2,-2.8614685E-2,-1.0365463E-1,-3.5498716E-2,2.4607342E-2,-2.832999E-2,-9.68433E-3,4.1404672E-2,8.177033E-2,-4.378865E-2,1.09861195E-1,3.3546172E-2],"split_indices":[7,4,5,3,0,4,18,7,0,20,4,3,0,0,0,7,0,19,3,0,0,3,0,3,4,4,5,16,4,0,0,20,7,7,16,0,3,0,0,0,0,0,0,20,0,3,0,21,0,7,5,0,21,0,16,0,18,1,1,0,21,0,0,0,0,0,0,0,0,0,0,0,0],"split_type":[0,0,0,0,0,0,0,0,0,0,0,0,0,0,0,0,0,0,0,0,0,0,0,0,0,0,0,0,0,0,0,0,0,0,0,0,0,0,0,0,0,0,0,0,0,0,0,0,0,0,0,0,0,0,0,0,0,0,0,0,0,0,0,0,0,0,0,0,0,0,0,0,0],"sum_hessian":[2.758553E2,1.1516261E1,2.6433902E2,9.865688E0,1.6505729E0,2.5555943E2,8.779595E0,7.8986397E0,1.967049E0,2.1949463E1,2.3360997E2,6.6205945E0,2.1590006E0,2.063834E0,5.8348055E0,2.0792446E1,1.157016E0,1.8512403E1,2.1509756E2,1.6849408E0,4.9356537E0,1.9629797E1,1.1626498E0,3.0405922E0,1.5471811E1,2.2181328E1,1.9291623E2,1.6499063E1,3.130733E0,1.0870986E0,1.9534936E0,2.262024E0,1.3209786E1,1.6330814E1,5.850514E0,3.5767245E0,1.8933951E2,1.1624689E0,1.5336595E1,1.4497705E0,1.6809624E0,1.1663479E0,1.0956761E0,1.1157287E1,2.0524998E0,1.4946134E1,1.3846805E0,4.1387005E0,1.7118134E0,1.7728345E2,1.20560665E1,8.780185E0,2.3771021E0,1.8352795E0,1.3110854E1,1.1854705E0,2.95323E0,1.6004756E2,1.7235876E1,1.4593246E0,1.0596743E1,1.2196609E0,1.1574413E0,9.507284E0,3.6035702E0,1.4886445E0,1.4645854E0,1.3662126E2,2.3426302E1,1.4901241E1,2.3346348E0,5.992397E0,4.6043453E0],"tree_param":{"num_deleted":"0","num_feature":"30","num_nodes":"73","size_leaf_vector":"1"}},{"base_weights":[6.291958E-3,-6.2922335E-1,3.8467295E-2,-7.262699E-1,3.077746E-3,1.1974403E-2,6.591295E-1,-2.4634674E-1,-9.7628444E-2,-4.1608346E-1,5.5173643E-2,1.3206227E-1,9.437786E-2,-4.403831E-2,8.038977E-3,-5.1738685E-1,6.4141616E-2,5.282527E-1,9.784338E-3,2.896941E-2,-5.767592E-3,-5.914206E-1,3.4762967E-2,-3.277292E-1,7.2033995E-1,-8.1821635E-2,2.4257334E-1,1.0337065E-2,-6.4897174E-1,-5.349036E-2,-3.4536694E-3,8.038707E-2,8.03601E-1,-1.4068317E-1,3.2862613E-1,-7.029867E-2,2.9174522E-1,-8.345146E-3,-7.0713764E-1,2.2740146E-2,-1.0145611E-2,8.953034E-1,1.2366843E-2,-1.905535E-1,4.470488E-1,6.668159E-1,3.0522635E-2,-7.307779E-2,3.389872E-1,7.1592047E-3,-7.6190454E-1,1.1706276E-1,2.722938E-1,-2.1939169E-1,6.906447E-2,-4.232148E-2,6.712509E-1,2.5239738E-2,1.1154486E-1,-1.9912569E-1,4.5967284E-1,-7.031041E-2,4.0830496E-1,-9.910121E-2,-3.2551137E-3,7.0730105E-2,-2.741432E-2,-3.5067536E-2,9.987817E-3,1.0915127E-1,-7.0013623E-3,-2.867389E-2,3.4153234E-2,-3.5893783E-2,1.8659806E-2,5.3212997E-3,7.167321E-2,-4.990994E-2,7.366277E-2,6.0284436E-2,1.9896941E-2],"categories":[],"categories_nodes":[],"categories_segments":[],"categories_sizes":[],"default_left":[0,0,0,0,0,0,0,0,0,0,0,0,0,0,0,0,0,0,0,0,0,0,0,0,0,0,0,0,0,0,0,0,0,0,0,0,0,0,0,0,0,0,0,0,0,0,0,0,0,0,0,0,0,0,0,0,0,0,0,0,0,0,0,0,0,0,0,0,0,0,0,0,0,0,0,0,0,0,0,0,0],"id":14,"left_children":[1,3,5,7,-1,9,11,13,-1,15,17,19,-1,-1,-1,21,-1,23,25,-1,-1,27,-1,29,31,33,35,-1,37,-1,-1,39,41,43,45,-1,47,-1,49,-1,-1,51,-1,53,55,57,59,-1,61,-1,63,-1,65,67,-1,-1,69,71,-1,73,75,77,79,-1,-1,-1,-1,-1,-1,-1,-1,-1,-1,-1,-1,-1,-1,-1,-1,-1,-1],"loss_changes":[5.681292E0,8.9289904E-1,4.323862E0,4.0878296E-2,0E0,4.7766905E0,4.890523E-1,2.4560076E-1,0E0,2.903222E0,5.014804E0,1.2063956E-1,0E0,0E0,0E0,1.7328005E0,0E0,3.8937006E0,4.6483545E0,0E0,0E0,9.600272E-1,0E0,1.5794188E-1,7.8209496E-1,3.887486E0,2.8909416E0,0E0,5.6282806E-1,0E0,0E0,1.1710519E-1,7.6578426E-1,4.252245E0,2.002362E0,0E0,2.9999652E0,0E0,8.545866E-1,0E0,0E0,5.7312965E-2,0E0,3.1402192E0,2.5960774E0,1.5333519E0,1.502502E0,0E0,1.7118864E0,0E0,7.427969E-1,0E0,1.0360161E0,2.8368773E0,0E0,0E0,1.8171859E0,4.988296E-1,0E0,4.6419454E-1,2.4136448E-1,3.0166428E0,9.5271873E-1,0E0,0E0,0E0,0E0,0E0,0E0,0E0,0E0,0E0,0E0,0E0,0E0,0E0,0E0,0E0,0E0,0E0,0E0],"parents":[2147483647,0,0,1,1,2,2,3,3,5,5,6,6,7,7,9,9,10,10,11,11,15,15,17,17,18,18,21,21,23,23,24,24,25,25,26,26,28,28,31,31,32,32,33,33,34,34,36,36,38,38,41,41,43,43,44,44,45,45,46,46,48,48,50,50,52,52,53,53,56,56,57,57,59,59,60,60,61,61,62,62],"right_children":[2,4,6,8,-1,10,12,14,-1,16,18,20,-1,-1,-1,22,-1,24,26,-1,-1,28,-1,30,32,34,36,-1,38,-1,-1,40,42,44,46,-1,48,-1,50,-1,-1,52,-1,54,56,58,60,-1,62,-1,64,-1,66,68,-1,-1,70,72,-1,74,76,78,80,-1,-1,-1,-1,-1,-1,-1,-1,-1,-1,-1,-1,-1,-1,-1,-1,-1,-1],"split_conditions":[-1.6328146E9,3.1311E7,1.8377749E8,-4.110849E9,3.077746E-3,-3.0989806E7,1.05093E5,0E0,-9.7628444E-2,1E0,-5.9475385E6,1E0,9.437786E-2,-4.403831E-2,8.038977E-3,3.8468004E9,6.4141616E-2,0E0,1E0,2.896941E-2,-5.767592E-3,0E0,3.4762967E-2,0E0,-2.417905E7,9.5640033E-1,-7.9070272E0,1.0337065E-2,-2.3174458E8,-5.349036E-2,-3.4536694E-3,1E0,1.19E7,1.6328146E9,0E0,-7.029867E-2,-3.8209018E8,-8.345146E-3,-1E0,2.2740146E-2,-1.0145611E-2,1E0,1.2366843E-2,2E0,0E0,0E0,3.9729729E0,-7.307779E-2,0E0,7.1592047E-3,1.19E7,1.1706276E-1,1E0,6.958E6,6.906447E-2,-4.232148E-2,1E0,3.2913513E0,1.1154486E-1,1E0,1.18E2,1E0,1E0,-9.910121E-2,-3.2551137E-3,7.0730105E-2,-2.741432E-2,-3.5067536E-2,9.987817E-3,1.0915127E-1,-7.0013623E-3,-2.867389E-2,3.4153234E-2,-3.5893783E-2,1.8659806E-2,5.3212997E-3,7.167321E-2,-4.990994E-2,7.366277E-2,6.0284436E-2,1.9896941E-2],"split_indices":[7,4,5,7,0,4,0,15,0,20,4,19,0,0,0,7,0,19,15,0,0,16,0,21,4,14,14,0,4,0,0,20,7,7,17,0,5,0,15,0,0,20,0,19,21,19,14,0,16,0,7,0,21,4,0,0,21,14,0,20,2,20,20,0,0,0,0,0,0,0,0,0,0,0,0,0,0,0,0,0,0],"split_type":[0,0,0,0,0,0,0,0,0,0,0,0,0,0,0,0,0,0,0,0,0,0,0,0,0,0,0,0,0,0,0,0,0,0,0,0,0,0,0,0,0,0,0,0,0,0,0,0,0,0,0,0,0,0,0,0,0,0,0,0,0,0,0,0,0,0,0,0,0,0,0,0,0,0,0,0,0,0,0,0,0],"sum_hessian":[2.7292868E2,1.114021E1,2.6178848E2,9.488746E0,1.6514648E0,2.5327103E2,8.517435E0,2.7838726E0,6.704873E0,2.143655E1,2.3183449E2,2.5494363E0,5.9679985E0,1.7318563E0,1.0520164E0,2.029873E1,1.1378199E0,1.820046E1,2.1363402E2,1.1100253E0,1.4394109E0,1.9143871E1,1.1548598E0,3.044533E0,1.5155927E1,1.5435297E2,5.9281055E1,1.4112393E0,1.7732632E1,1.3906173E0,1.6539158E0,2.2539766E0,1.2901951E1,1.362871E2,1.8065878E1,1.9457163E0,5.733534E1,2.0683663E0,1.5664265E1,1.1548356E0,1.099141E0,1.085543E1,2.046521E0,1.2702892E2,9.258168E0,7.160061E0,1.0905816E1,1.5240175E0,5.581132E1,1.030806E0,1.4633459E1,8.48924E0,2.36619E0,1.2396801E2,3.0609162E0,1.744873E0,7.5132947E0,2.796685E0,4.3633757E0,7.8897996E0,3.0160165E0,8.078476E0,4.7732845E1,1.3205491E1,1.4279673E0,1.204777E0,1.1614131E0,9.9981064E1,2.3986946E1,5.2448273E0,2.2684674E0,1.4732351E0,1.3234499E0,6.42922E0,1.4605795E0,1.4909573E0,1.5250593E0,5.9533424E0,2.1251333E0,3.265475E1,1.5078094E1],"tree_param":{"num_deleted":"0","num_feature":"30","num_nodes":"81","size_leaf_vector":"1"}},{"base_weights":[8.667965E-3,-5.384539E-1,4.1600775E-2,-7.1626544E-1,-7.755948E-2,-3.9022453E-2,2.517015E-1,-1.0167131E-1,-2.4391148E-4,-3.50758E-1,4.5224532E-2,-4.0690342E-1,3.393544E-2,1.4267586E-1,8.0373156E-1,-5.312318E-3,-6.0333006E-2,-4.8181564E-1,3.6240377E-2,-1.0727821E-2,6.3642573E-1,-7.571988E-2,3.6778188E-1,-7.5912056E-3,9.016143E-1,9.421875E-2,-5.9807146E-1,-4.772165E-1,3.5370164E-2,-9.960931E-3,7.552646E-1,-1.5397613E-1,7.373854E-2,-5.054594E-2,5.4519963E-1,1.0495601E-2,1.17968105E-1,6.513383E-2,-2.3724525E-1,-6.532139E-1,-3.0063419E-2,6.735239E-2,-6.58874E-1,-2.3750931E-1,1.0391419E-1,1.11455575E-1,7.162383E-2,2.1181385E-1,-3.2146654E-1,5.4220784E-2,-2.6731044E-1,1.154764E-1,7.117749E-1,-5.3335205E-2,1.2217414E-2,-3.4644693E-1,-8.446437E-1,1.3146531E-2,-1.9067299E-2,4.158933E-2,-3.2778233E-2,-9.423836E-2,-1.1412427E-2,-6.380617E-2,-9.267094E-2,-1.029364E-1,2.6027444E-1,5.831178E-2,-4.735342E-2,-2.623071E-1,4.786649E-1,-4.7278282E-1,1.5300795E-1,2.8677955E-1,-5.845248E-1,5.7025936E-2,-1.5505189E-1,8.060362E-1,-1.8890042E-2,-6.397419E-1,1.8364921E-1,-9.4717395E-1,-1.144926E-2,-2.0019463E-1,7.7344544E-2,-2.081479E-1,5.2671E-1,1.7173244E-1,1.2845321E-1,-4.5314662E-2,4.8207E-3,-6.601854E-3,7.8720085E-2,1.0180473E-1,-6.6581386E-1,5.1136475E-2,-3.47518E-2,5.4660854E-3,4.163049E-2,-8.4421515E-2,-5.083846E-3,1.6109599E-2,-3.3685055E-2,8.714657E-1,6.462143E-3,-1.6167454E-2,-8.73594E-2,-1.7344251E-2,4.5475174E-2,-1.22383446E-1,-1.6801083E-2,1.567189E-2,-5.681617E-2,-3.819339E-2,1.2547646E-2,8.03917E-2,-3.6702477E-3,3.5492142E-4,7.960051E-2,3.9864413E-2,-1.8355338E-2,-1.0736289E-1,2.5217824E-2,1.6883759E-2,1.11332245E-1],"categories":[],"categories_nodes":[],"categories_segments":[],"categories_sizes":[],"default_left":[0,0,0,0,0,0,0,0,0,0,0,0,0,0,0,0,0,0,0,0,0,0,0,0,0,0,0,0,0,0,0,0,0,0,0,0,0,0,0,0,0,0,0,0,0,0,0,0,0,0,0,0,0,0,0,0,0,0,0,0,0,0,0,0,0,0,0,0,0,0,0,0,0,0,0,0,0,0,0,0,0,0,0,0,0,0,0,0,0,0,0,0,0,0,0,0,0,0,0,0,0,0,0,0,0,0,0,0,0,0,0,0,0,0,0,0,0,0,0,0,0,0,0,0,0],"id":15,"left_children":[1,3,5,7,9,11,13,-1,-1,15,-1,17,19,21,23,-1,-1,25,-1,27,29,31,33,-1,35,37,39,41,43,-1,45,47,-1,49,51,-1,-1,-1,53,55,57,59,61,63,65,-1,67,69,71,-1,73,75,77,-1,-1,79,81,-1,-1,-1,-1,-1,-1,83,-1,85,87,-1,-1,89,91,93,95,97,99,-1,101,103,-1,105,107,109,-1,111,-1,113,115,117,-1,-1,-1,-1,-1,119,121,-1,-1,-1,-1,-1,-1,-1,-1,123,-1,-1,-1,-1,-1,-1,-1,-1,-1,-1,-1,-1,-1,-1,-1,-1,-1,-1,-1,-1,-1],"loss_changes":[4.9611955E0,1.1563497E0,4.4120145E0,1.026166E0,1.1510788E0,5.110189E0,4.0856895E0,0E0,0E0,2.042945E-1,0E0,1.9997888E0,4.3207364E0,3.160101E0,1.0972571E0,0E0,0E0,2.0922022E0,0E0,3.288703E0,1.088314E0,2.0409467E0,2.3932009E0,0E0,4.9666595E-1,1.3115317E0,7.302847E-1,1.4600694E0,2.6678991E0,0E0,1.0048089E0,2.1258187E0,0E0,1.5146476E0,1.407505E0,0E0,0E0,0E0,4.8947337E-1,6.587801E-1,1.2094698E-1,7.340992E-1,5.8183575E-1,2.5572593E0,3.721298E0,0E0,1.2829434E0,1.7335236E0,1.8125315E0,0E0,2.0270262E0,1.031961E0,1.5633125E0,0E0,0E0,2.1974037E0,7.3744583E-1,0E0,0E0,0E0,0E0,0E0,0E0,2.6219194E0,0E0,3.581579E0,4.2563753E0,0E0,0E0,2.2889808E-1,8.510984E-1,2.145903E0,1.1548508E0,3.592208E-2,3.657961E-1,0E0,3.3113196E-1,6.0497856E-1,0E0,1.5843368E-1,5.1916826E-1,2.9597187E-1,0E0,2.123729E0,0E0,1.6159037E0,6.722448E-1,5.0872917E0,0E0,0E0,0E0,0E0,0E0,4.9417096E-1,3.1800313E0,0E0,0E0,0E0,0E0,0E0,0E0,0E0,0E0,2.4670601E-1,0E0,0E0,0E0,0E0,0E0,0E0,0E0,0E0,0E0,0E0,0E0,0E0,0E0,0E0,0E0,0E0,0E0,0E0,0E0,0E0,0E0],"parents":[2147483647,0,0,1,1,2,2,3,3,4,4,5,5,6,6,9,9,11,11,12,12,13,13,14,14,17,17,19,19,20,20,21,21,22,22,24,24,25,25,26,26,27,27,28,28,30,30,31,31,33,33,34,34,38,38,39,39,40,40,41,41,42,42,43,43,44,44,46,46,47,47,48,48,50,50,51,51,52,52,55,55,56,56,63,63,65,65,66,66,69,69,70,70,71,71,72,72,73,73,74,74,76,76,77,77,79,79,80,80,81,81,83,83,85,85,86,86,87,87,93,93,94,94,103,103],"right_children":[2,4,6,8,10,12,14,-1,-1,16,-1,18,20,22,24,-1,-1,26,-1,28,30,32,34,-1,36,38,40,42,44,-1,46,48,-1,50,52,-1,-1,-1,54,56,58,60,62,64,66,-1,68,70,72,-1,74,76,78,-1,-1,80,82,-1,-1,-1,-1,-1,-1,84,-1,86,88,-1,-1,90,92,94,96,98,100,-1,102,104,-1,106,108,110,-1,112,-1,114,116,118,-1,-1,-1,-1,-1,120,122,-1,-1,-1,-1,-1,-1,-1,-1,124,-1,-1,-1,-1,-1,-1,-1,-1,-1,-1,-1,-1,-1,-1,-1,-1,-1,-1,-1,-1,-1],"split_conditions":[-7.532617E7,1E0,1E0,1E0,0E0,0E0,6.958E6,-1.0167131E-1,-2.4391148E-4,1E0,4.5224532E-2,3.8468004E9,1.6328146E9,1.8011E2,-3.3867293E8,-5.312318E-3,-6.0333006E-2,0E0,3.6240377E-2,-1.7334794E7,0E0,1.8377749E8,0E0,-7.5912056E-3,0E0,0E0,8.7362E6,-7.070671E7,0E0,-9.960931E-3,1E0,0E0,7.373854E-2,-1E0,1E0,1.0495601E-2,1.17968105E-1,6.513383E-2,1.05093E5,-3.30505E6,3.039286E7,1E0,1E0,2.8052E2,0E0,1.11455575E-1,2.7398075E9,-1.722105E7,1E0,5.4220784E-2,0E0,0E0,1E0,-5.3335205E-2,1.2217414E-2,-3.0989806E7,1.408995E7,1.3146531E-2,-1.9067299E-2,4.158933E-2,-3.2778233E-2,-9.423836E-2,-1.1412427E-2,1.19E7,-9.267094E-2,5.582391E6,3.060802E5,5.831178E-2,-4.735342E-2,2E0,1E0,0E0,1E0,1.3718E6,0E0,5.7025936E-2,1E0,1.19E7,-1.8890042E-2,0E0,0E0,1.19E7,-1.144926E-2,0E0,7.7344544E-2,1E0,0E0,3.30505E6,1.2845321E-1,-4.5314662E-2,4.8207E-3,-6.601854E-3,7.8720085E-2,1E0,1E0,5.1136475E-2,-3.47518E-2,5.4660854E-3,4.163049E-2,-8.4421515E-2,-5.083846E-3,1.6109599E-2,-3.3685055E-2,-3.525721E7,6.462143E-3,-1.6167454E-2,-8.73594E-2,-1.7344251E-2,4.5475174E-2,-1.22383446E-1,-1.6801083E-2,1.567189E-2,-5.681617E-2,-3.819339E-2,1.2547646E-2,8.03917E-2,-3.6702477E-3,3.5492142E-4,7.960051E-2,3.9864413E-2,-1.8355338E-2,-1.0736289E-1,2.5217824E-2,1.6883759E-2,1.11332245E-1],"split_indices":[7,12,13,18,17,20,4,0,0,18,0,7,7,1,5,0,0,17,0,3,18,5,17,0,18,13,3,3,15,0,19,20,0,17,12,0,0,0,0,4,3,15,17,1,13,0,7,4,18,0,19,18,20,0,0,4,4,0,0,0,0,0,0,7,0,3,6,0,0,13,8,17,20,3,16,0,8,7,0,13,18,7,0,12,0,16,12,4,0,0,0,0,0,8,15,0,0,0,0,0,0,0,0,3,0,0,0,0,0,0,0,0,0,0,0,0,0,0,0,0,0,0,0,0,0],"split_type":[0,0,0,0,0,0,0,0,0,0,0,0,0,0,0,0,0,0,0,0,0,0,0,0,0,0,0,0,0,0,0,0,0,0,0,0,0,0,0,0,0,0,0,0,0,0,0,0,0,0,0,0,0,0,0,0,0,0,0,0,0,0,0,0,0,0,0,0,0,0,0,0,0,0,0,0,0,0,0,0,0,0,0,0,0,0,0,0,0,0,0,0,0,0,0,0,0,0,0,0,0,0,0,0,0,0,0,0,0,0,0,0,0,0,0,0,0,0,0,0,0,0,0,0,0],"sum_hessian":[2.7029547E2,1.3385234E1,2.5691025E2,8.759265E0,4.625969E0,1.8698822E2,6.992202E1,7.0476117E0,1.7116529E0,3.2096643E0,1.4163048E0,2.9241724E1,1.5774649E2,6.075455E1,9.167466E0,2.0273857E0,1.1822785E0,2.7098871E1,2.1428518E0,1.4891705E2,8.829445E0,3.1594765E1,2.9159786E1,1.0107404E0,8.156726E0,4.6223173E0,2.2476555E1,1.1500025E1,1.3741702E2,1.3478926E0,7.481552E0,2.9947367E1,1.6473994E0,9.163183E0,1.9996603E1,1.166201E0,6.990525E0,1.3546532E0,3.267664E0,2.0179956E1,2.2965975E0,3.2307448E0,8.2692795E0,2.6474287E1,1.1094273E2,5.3234243E0,2.1581278E0,9.218731E0,2.0728634E1,2.0264654E0,7.136718E0,6.650286E0,1.3346317E1,1.5940189E0,1.6736449E0,1.018326E1,9.996696E0,1.263721E0,1.0328766E0,1.7530504E0,1.4776943E0,6.0321536E0,2.237126E0,2.188411E1,4.5901766E0,4.809118E1,6.285156E1,1.0923715E0,1.0657563E0,3.3337991E0,5.884932E0,1.5722531E1,5.0061035E0,2.676846E0,4.459872E0,2.1237676E0,4.526519E0,1.21880455E1,1.1582717E0,6.256327E0,3.9269335E0,8.270477E0,1.7262192E0,1.9704245E1,2.1798663E0,4.249639E1,5.5947866E0,5.9117626E1,3.7339303E0,2.0089662E0,1.3248329E0,1.8548526E0,4.0300794E0,4.2211013E0,1.150143E1,3.1475143E0,1.8585895E0,1.3232754E0,1.3535706E0,3.1081073E0,1.3517642E0,1.3241456E0,